{"learner":{"attributes":{"best_iteration":"13","best_score":"0.7219827880190169"},"feature_names":["ret_1m","ret_3m","ret_5m","ret_10m","btc_return_since_open","volatility_5m","vol_ratio","volume_1m","mkt_premium","up_book_imbalance","down_book_imbalance","btc_poly_divergence","recent_up_pct_5","recent_streak","recent_mkt_surprise_5","market_progress"],"feature_types":[],"gradient_booster":{"model":{"cats":{"enc":[],"feature_segments":[],"sorted_idx":[]},"gbtree_model_param":{"num_parallel_tree":"1","num_trees":"64"},"iteration_indptr":[0,1,2,3,4,5,6,7,8,9,10,11,12,13,14,15,16,17,18,19,20,21,22,23,24,25,26,27,28,29,30,31,32,33,34,35,36,37,38,39,40,41,42,43,44,45,46,47,48,49,50,51,52,53,54,55,56,57,58,59,60,61,62,63,64],"tree_info":[0,0,0,0,0,0,0,0,0,0,0,0,0,0,0,0,0,0,0,0,0,0,0,0,0,0,0,0,0,0,0,0,0,0,0,0,0,0,0,0,0,0,0,0,0,0,0,0,0,0,0,0,0,0,0,0,0,0,0,0,0,0,0,0],"trees":[{"base_weights":[-6.6411807E-3,-7.5444764E-1,8.878715E-1,-3.9185077E-1,-1.3341968E0,1.3316346E0,3.495862E-1,-4.3464747E-1,3.0676985E-2,-1.4042466E0,8.075075E-3,1.1470802E0,1.8046114E0,4.6552008E-1,-2.2097406E-1,-2.918866E-1,-7.438929E-1,-1.1371149E0,-1.7359644E0,1.2185133E0,1.2084382E-3,3.7772667E-2,5.6163467E-2,-2.1875049E-1,5.9659207E-1,-6.048912E-1,3.5505153E-2,-6.682948E-3,-4.0225983E-2,-1.6285298E-2,-3.211208E-2,-2.9398486E-2,-5.5059396E-2,-3.6663666E-2,-5.3503834E-2,2.1390377E-2,3.9299585E-2,2.3346303E-2,-2.2605592E-2,2.1959888E-2,3.705728E-4,-1.9205061E-3,-3.7468594E-2],"categories":[],"categories_nodes":[],"categories_segments":[],"categories_sizes":[],"default_left":[0,0,0,0,0,0,0,0,0,0,0,0,0,0,0,0,0,0,0,0,0,0,0,0,0,0,0,0,0,0,0,0,0,0,0,0,0,0,0,0,0,0,0],"id":0,"left_children":[1,3,5,7,9,11,13,15,-1,17,-1,19,21,23,25,27,29,31,33,35,-1,-1,-1,37,39,41,-1,-1,-1,-1,-1,-1,-1,-1,-1,-1,-1,-1,-1,-1,-1,-1,-1],"loss_changes":[3.1102883E3,5.3085547E2,5.04261E2,9.522386E1,1.1042383E2,9.617651E1,6.3757217E1,6.623169E1,0E0,7.7878784E1,0E0,6.592932E1,6.184326E0,7.2005615E1,8.91392E1,7.447804E1,2.9679535E1,5.296991E1,4.793335E0,3.3992676E1,0E0,0E0,0E0,7.020031E1,5.285463E1,4.455367E1,0E0,0E0,0E0,0E0,0E0,0E0,0E0,0E0,0E0,0E0,0E0,0E0,0E0,0E0,0E0,0E0,0E0],"parents":[2147483647,0,0,1,1,2,2,3,3,4,4,5,5,6,6,7,7,9,9,11,11,12,12,13,13,14,14,15,15,16,16,17,17,18,18,19,19,23,23,24,24,25,25],"right_children":[2,4,6,8,10,12,14,16,-1,18,-1,20,22,24,26,28,30,32,34,36,-1,-1,-1,38,40,42,-1,-1,-1,-1,-1,-1,-1,-1,-1,-1,-1,-1,-1,-1,-1,-1,-1],"split_conditions":[2E-2,4.095664E-1,-3.0986848E-1,6.1926834E-4,4.654742E1,6.9E-1,6.666667E-1,2.4977265E-1,3.0676985E-2,6.2944674E-1,8.075075E-3,1.1417107E-3,7.163585E-4,2.32891E0,2E-1,5E-1,-2.5359845E-5,6.666667E-1,4.4661975E-1,5.098495E-1,1.2084382E-3,3.7772667E-2,5.6163467E-2,-3.624287E-5,1.2890089E0,3.9627223E-4,3.5505153E-2,-6.682948E-3,-4.0225983E-2,-1.6285298E-2,-3.211208E-2,-2.9398486E-2,-5.5059396E-2,-3.6663666E-2,-5.3503834E-2,2.1390377E-2,3.9299585E-2,2.3346303E-2,-2.2605592E-2,2.1959888E-2,3.705728E-4,-1.9205061E-3,-3.7468594E-2],"split_indices":[8,11,11,4,7,8,12,11,0,11,0,0,4,7,14,14,1,12,6,6,0,0,0,0,6,5,0,0,0,0,0,0,0,0,0,0,0,0,0,0,0,0,0],"split_type":[0,0,0,0,0,0,0,0,0,0,0,0,0,0,0,0,0,0,0,0,0,0,0,0,0,0,0,0,0,0,0,0,0,0,0,0,0,0,0,0,0,0,0],"sum_hessian":[4.645758E3,2.5307317E3,2.115026E3,1.5593347E3,9.7139703E2,1.1573773E3,9.576485E2,1.5150895E3,4.424531E1,9.311513E2,4.0245735E1,8.379112E2,3.1946613E2,7.966656E2,1.6098294E2,1.0398898E3,4.7519965E2,5.2119476E2,4.0995654E2,7.866666E2,5.1244568E1,3.999576E1,2.7947037E2,1.2748649E2,6.691791E2,1.2748649E2,3.349645E1,9.781463E2,6.1743458E1,2.979684E2,1.7723122E2,4.2970447E2,9.14903E1,3.974579E1,3.7021075E2,1.23736885E2,6.6292975E2,4.399534E1,8.349115E1,5.424425E2,1.26736565E2,7.07425E1,5.6743984E1],"tree_param":{"num_deleted":"0","num_feature":"16","num_nodes":"43","size_leaf_vector":"1"}},{"base_weights":[2.8590581E-4,-7.375327E-1,8.843813E-1,-3.4816113E-1,-1.2605351E0,1.3206817E0,3.5049984E-1,-3.9073166E-1,2.9498868E-2,-9.977928E-1,-1.6302358E0,1.143682E0,1.7618358E0,-3.2052055E-1,4.7005373E-1,-2.8493497E-1,-8.254068E-1,-1.1012048E0,3.6596418E-3,-1.6896449E0,-2.9178211E-2,1.209022E0,3.466026E-3,3.7605435E-2,5.4853722E-2,2.6035462E-2,-6.485699E-1,5.849878E-1,-8.88402E-2,-4.568621E-3,-1.733934E-2,-4.1222848E-2,-1.6722431E-2,-2.9106636E-2,-4.952386E-2,-4.359629E-2,-5.4496817E-2,3.9204363E-2,2.1973338E-2,-3.4430075E-2,1.8694593E-2,2.0966258E-2,2.8713183E-3,1.1536157E-2,-2.6712485E-2],"categories":[],"categories_nodes":[],"categories_segments":[],"categories_sizes":[],"default_left":[0,0,0,0,0,0,0,0,0,0,0,0,0,0,0,0,0,0,0,0,0,0,0,0,0,0,0,0,0,0,0,0,0,0,0,0,0,0,0,0,0,0,0,0,0],"id":1,"left_children":[1,3,5,7,9,11,13,15,-1,17,19,21,23,25,27,29,31,33,-1,35,-1,37,-1,-1,-1,-1,39,41,43,-1,-1,-1,-1,-1,-1,-1,-1,-1,-1,-1,-1,-1,-1,-1,-1],"loss_changes":[3.0509111E3,5.1777734E2,4.9421057E2,8.359471E1,1.01530396E2,8.644763E1,7.735487E1,6.4530106E1,0E0,7.478461E1,1.341333E1,5.5826904E1,5.6938477E0,5.7967167E1,5.2666565E1,4.415941E1,3.854477E1,3.828247E1,0E0,5.971924E0,0E0,3.430774E1,0E0,0E0,0E0,0E0,7.504848E1,3.7379272E1,5.4137005E1,0E0,0E0,0E0,0E0,0E0,0E0,0E0,0E0,0E0,0E0,0E0,0E0,0E0,0E0,0E0,0E0],"parents":[2147483647,0,0,1,1,2,2,3,3,4,4,5,5,6,6,7,7,9,9,10,10,11,11,12,12,13,13,14,14,15,15,16,16,17,17,19,19,21,21,26,26,27,27,28,28],"right_children":[2,4,6,8,10,12,14,16,-1,18,20,22,24,26,28,30,32,34,-1,36,-1,38,-1,-1,-1,-1,40,42,44,-1,-1,-1,-1,-1,-1,-1,-1,-1,-1,-1,-1,-1,-1,-1,-1],"split_conditions":[2E-2,3.6954832E-1,-3.0986848E-1,6.1926834E-4,6.2878E-1,6.8E-1,2.20305E0,6.666667E-1,2.9498868E-2,3.086641E1,3.326299E1,1.1417107E-3,7.163585E-4,-1.0446638E-4,6.666667E-1,2.297839E-1,-2.8750993E-4,6.666667E-1,3.6596418E-3,5E-1,-2.9178211E-2,6.666667E-1,3.466026E-3,3.7605435E-2,5.4853722E-2,2.6035462E-2,2.6100886E-4,1.2890089E0,4.3679433E-4,-4.568621E-3,-1.733934E-2,-4.1222848E-2,-1.6722431E-2,-2.9106636E-2,-4.952386E-2,-4.359629E-2,-5.4496817E-2,3.9204363E-2,2.1973338E-2,-3.4430075E-2,1.8694593E-2,2.0966258E-2,2.8713183E-3,1.1536157E-2,-2.6712485E-2],"split_indices":[8,11,11,4,11,8,7,12,0,7,7,0,4,0,12,11,4,12,0,12,0,12,0,0,0,0,0,6,5,0,0,0,0,0,0,0,0,0,0,0,0,0,0,0,0],"split_type":[0,0,0,0,0,0,0,0,0,0,0,0,0,0,0,0,0,0,0,0,0,0,0,0,0,0,0,0,0,0,0,0,0,0,0,0,0,0,0,0,0,0,0,0,0],"sum_hessian":[4.6730776E3,2.547262E3,2.125816E3,1.4624117E3,1.0848501E3,1.1678843E3,9.579316E2,1.4186906E3,4.3721264E1,6.389585E2,4.4589166E2,8.3908997E2,3.2879434E2,1.4397446E2,8.139571E2,1.1442015E3,2.7448895E2,5.852149E2,5.374362E1,4.0565103E2,4.0240627E1,7.88346E2,5.0743973E1,4.3213158E1,2.8558118E2,3.0236456E1,1.13738E2,6.7548914E2,1.3846799E2,7.904589E2,3.537426E2,8.699698E1,1.8749197E2,4.7749127E2,1.0772362E2,1.5121399E2,2.5443704E2,6.5071124E2,1.3763475E2,8.1990906E1,3.174709E1,5.4675323E2,1.2873592E2,8.747502E1,5.0992973E1],"tree_param":{"num_deleted":"0","num_feature":"16","num_nodes":"45","size_leaf_vector":"1"}},{"base_weights":[5.50363E-3,-7.074828E-1,8.6183494E-1,-3.2056418E-1,-1.2218118E0,1.2704567E0,3.5378936E-1,-4.9581468E-1,-6.181117E-2,-1.2871989E0,7.898179E-3,1.1021397E0,1.7134386E0,-2.502923E-2,4.0244013E-1,-6.2673575E-1,3.397698E-1,1.8212189E-1,-6.47707E-1,-1.6412987E0,-1.0279839E0,1.1783981E0,1.4963225E-1,5.515776E-2,1.4716955E0,2.8742334E-1,1.0838723E0,-5.6419983E-3,-2.2760566E-2,-2.6675247E-2,2.438171E-2,2.8128413E-2,-2.2641823E-3,2.0100719E-3,-3.139614E-2,-3.590373E-2,-5.0435904E-2,-2.6596244E-2,-4.8753016E-2,3.8229737E-2,2.0952579E-2,-1.3162673E-2,2.1495042E-2,4.9392633E-2,3.3334468E-2,1.2497957E-2,-1.2544923E-2,4.1015316E-2,8.030976E-3],"categories":[],"categories_nodes":[],"categories_segments":[],"categories_sizes":[],"default_left":[0,0,0,0,0,0,0,0,0,0,0,0,0,0,0,0,0,0,0,0,0,0,0,0,0,0,0,0,0,0,0,0,0,0,0,0,0,0,0,0,0,0,0,0,0,0,0,0,0],"id":2,"left_children":[1,3,5,7,9,11,13,15,17,19,-1,21,23,-1,25,27,29,31,33,35,37,39,41,-1,43,45,47,-1,-1,-1,-1,-1,-1,-1,-1,-1,-1,-1,-1,-1,-1,-1,-1,-1,-1,-1,-1,-1,-1],"loss_changes":[2.8319832E3,5.0239453E2,4.3612903E2,6.540347E1,1.0638977E2,8.238757E1,5.5023674E1,9.4803314E1,8.432825E1,9.130493E1,0E0,6.1115967E1,3.192566E0,0E0,7.005846E1,4.2621735E1,6.9858025E1,8.134628E1,4.9882515E1,2.8415527E0,4.758191E1,3.39104E1,2.263163E1,0E0,3.0133972E0,7.136582E1,2.8812378E1,0E0,0E0,0E0,0E0,0E0,0E0,0E0,0E0,0E0,0E0,0E0,0E0,0E0,0E0,0E0,0E0,0E0,0E0,0E0,0E0,0E0,0E0],"parents":[2147483647,0,0,1,1,2,2,3,3,4,4,5,5,6,6,7,7,8,8,9,9,11,11,12,12,14,14,15,15,16,16,17,17,18,18,19,19,20,20,21,21,22,22,24,24,25,25,26,26],"right_children":[2,4,6,8,10,12,14,16,18,20,-1,22,24,-1,26,28,30,32,34,36,38,40,42,-1,44,46,48,-1,-1,-1,-1,-1,-1,-1,-1,-1,-1,-1,-1,-1,-1,-1,-1,-1,-1,-1,-1,-1,-1],"split_conditions":[2E-2,3.6954832E-1,-3.0986848E-1,1.4094767E-4,4.654742E1,6.9E-1,9.2871E-1,1.70497E1,6.666667E-1,-6.2E-1,7.898179E-3,1.0997481E-3,-7.685959E-1,-2.502923E-2,2E-1,2.73344E0,-1.4361534E-3,1.0366001E-2,-3.6213638E-5,4.4661975E-1,6.666667E-1,7.333395E-4,1.5529589E-3,5.515776E-2,1.20741E1,6.666667E-1,4.6006503E-4,-5.6419983E-3,-2.2760566E-2,-2.6675247E-2,2.438171E-2,2.8128413E-2,-2.2641823E-3,2.0100719E-3,-3.139614E-2,-3.590373E-2,-5.0435904E-2,-2.6596244E-2,-4.8753016E-2,3.8229737E-2,2.0952579E-2,-1.3162673E-2,2.1495042E-2,4.9392633E-2,3.3334468E-2,1.2497957E-2,-1.2544923E-2,4.1015316E-2,8.030976E-3],"split_indices":[8,11,11,3,7,8,7,7,12,8,0,0,11,0,14,7,1,11,1,6,12,5,1,0,7,12,5,0,0,0,0,0,0,0,0,0,0,0,0,0,0,0,0,0,0,0,0,0,0],"split_type":[0,0,0,0,0,0,0,0,0,0,0,0,0,0,0,0,0,0,0,0,0,0,0,0,0,0,0,0,0,0,0,0,0,0,0,0,0,0,0,0,0,0,0,0,0,0,0,0,0],"sum_hessian":[4.63432E3,2.528813E3,2.105507E3,1.4453427E3,1.0834703E3,1.164947E3,9.4056006E2,8.5993005E2,5.854126E2,1.0382266E3,4.524376E1,8.497328E2,3.152142E2,3.5486347E1,9.0507367E2,7.441881E2,1.1574195E2,4.1393878E2,1.7147383E2,4.3380612E2,6.044205E2,7.8601465E2,6.3718147E1,1.9816803E2,1.17046165E2,7.771798E2,1.2789388E2,1.7373337E2,5.704547E2,3.1499037E1,8.424291E1,1.042047E2,3.097341E2,6.174247E1,1.0973137E2,4.1455753E1,3.9235037E2,4.9309106E2,1.11329384E2,6.518114E2,1.3420326E2,3.1227747E1,3.24904E1,7.3474464E1,4.3571697E1,6.5796704E2,1.1921279E2,9.3664024E1,3.4229855E1],"tree_param":{"num_deleted":"0","num_feature":"16","num_nodes":"49","size_leaf_vector":"1"}},{"base_weights":[-4.22489E-3,-7.039363E-1,8.461787E-1,-3.4730816E-1,-1.2593269E0,1.2563562E0,3.4666634E-1,-2.9255313E-1,-1.237231E0,-1.3199021E0,2.0562261E-3,1.095756E0,1.6656073E0,-3.9614406E-1,4.4155386E-1,-4.3563962E-1,1.08938634E-1,-5.3877316E-2,-1.5831236E-2,-1.5223538E0,-1.0089636E0,1.1801639E0,2.6508117E-1,1.4246632E0,5.3380158E-2,1.5365859E-2,-8.0619437E-1,3.5778522E-1,9.551555E-1,1.6851653E-5,-1.6785456E-2,3.345545E-2,-7.124831E-3,-4.812013E-2,-3.579473E-2,-2.383475E-2,-4.4471163E-2,3.0430945E-2,4.3799624E-2,-9.452698E-3,3.1407114E-2,4.7590133E-2,3.1973887E-2,-4.432586E-2,2.8845775E-3,1.2563977E-2,-8.664372E-3,3.764931E-2,2.4466584E-3],"categories":[],"categories_nodes":[],"categories_segments":[],"categories_sizes":[],"default_left":[0,0,0,0,0,0,0,0,0,0,0,0,0,0,0,0,0,0,0,0,0,0,0,0,0,0,0,0,0,0,0,0,0,0,0,0,0,0,0,0,0,0,0,0,0,0,0,0,0],"id":3,"left_children":[1,3,5,7,9,11,13,15,17,19,-1,21,23,25,27,29,31,-1,-1,33,35,37,39,41,-1,-1,43,45,47,-1,-1,-1,-1,-1,-1,-1,-1,-1,-1,-1,-1,-1,-1,-1,-1,-1,-1,-1,-1],"loss_changes":[2.771901E3,5.0487268E2,4.294469E2,7.480879E1,8.085718E1,7.133264E1,6.740373E1,8.4759895E1,3.2867096E1,5.6291016E1,0E0,5.746936E1,2.75708E0,4.130208E1,3.5265427E1,5.8862488E1,1.3598851E2,0E0,0E0,1.0760254E1,3.586325E1,3.1409058E1,3.7123375E1,2.4207153E0,0E0,0E0,4.656391E1,2.9079025E1,2.9974907E1,0E0,0E0,0E0,0E0,0E0,0E0,0E0,0E0,0E0,0E0,0E0,0E0,0E0,0E0,0E0,0E0,0E0,0E0,0E0,0E0],"parents":[2147483647,0,0,1,1,2,2,3,3,4,4,5,5,6,6,7,7,8,8,9,9,11,11,12,12,13,13,14,14,15,15,16,16,19,19,20,20,21,21,22,22,23,23,26,26,27,27,28,28],"right_children":[2,4,6,8,10,12,14,16,18,20,-1,22,24,26,28,30,32,-1,-1,34,36,38,40,42,-1,-1,44,46,48,-1,-1,-1,-1,-1,-1,-1,-1,-1,-1,-1,-1,-1,-1,-1,-1,-1,-1,-1,-1],"split_conditions":[2E-2,4.095664E-1,-3.0986848E-1,4E0,4.654742E1,6.9E-1,1.68939E0,6.33319E-4,7.91921E0,-5.6E-1,2.0562261E-3,9.5197756E-4,7.6E-1,-1.4153967E-7,2E-1,2.73344E0,1.0094308E-2,-5.3877316E-2,-1.5831236E-2,-1.5680272E-4,2E0,3.328864E-4,1.67206E-3,1.20741E1,5.3380158E-2,1.5365859E-2,1.4094767E-4,3E0,4.6006503E-4,1.6851653E-5,-1.6785456E-2,3.345545E-2,-7.124831E-3,-4.812013E-2,-3.579473E-2,-2.383475E-2,-4.4471163E-2,3.0430945E-2,4.3799624E-2,-9.452698E-3,3.1407114E-2,4.7590133E-2,3.1973887E-2,-4.432586E-2,2.8845775E-3,1.2563977E-2,-8.664372E-3,3.764931E-2,2.4466584E-3],"split_indices":[8,11,11,13,7,8,7,3,7,8,0,0,8,0,14,7,11,0,0,0,13,0,1,7,0,0,3,13,5,0,0,0,0,0,0,0,0,0,0,0,0,0,0,0,0,0,0,0,0],"split_type":[0,0,0,0,0,0,0,0,0,0,0,0,0,0,0,0,0,0,0,0,0,0,0,0,0,0,0,0,0,0,0,0,0,0,0,0,0,0,0,0,0,0,0,0,0,0,0,0,0],"sum_hessian":[4.654436E3,2.5538376E3,2.1005984E3,1.557515E3,9.9632263E2,1.1514486E3,9.491497E2,1.4700599E3,8.745502E1,9.530825E2,4.324013E1,8.3274646E2,3.1870215E2,1.0643448E2,8.427153E2,1.0842311E3,3.858289E2,4.697875E1,4.0476265E1,5.7193774E2,3.8114478E2,7.548417E2,7.790481E1,1.117168E2,2.0698535E2,3.272113E1,7.371335E1,7.279618E2,1.14753494E2,2.3971066E2,8.4452045E2,9.789954E1,2.8792935E2,4.5133627E2,1.2060146E2,2.664315E2,1.1471328E2,4.804758E2,2.7436588E2,4.518465E1,3.2720158E1,7.172631E1,3.999049E1,4.172678E1,3.1986572E1,6.6626086E2,6.1700912E1,8.4527084E1,3.022641E1],"tree_param":{"num_deleted":"0","num_feature":"16","num_nodes":"49","size_leaf_vector":"1"}},{"base_weights":[9.765578E-4,-6.70086E-1,8.150641E-1,-1.0502347E0,-2.3080826E-1,2.822647E-1,1.1656942E0,-1.4963809E0,-8.17112E-1,-1.5628794E-1,-1.3970382E0,-3.24949E-1,4.072327E-1,8.74125E-1,1.434424E0,-2.4410052E-2,-4.7154795E-2,1.8059636E-2,-8.892166E-1,-2.1418811E-1,4.611016E-2,-2.6573312E-2,-5.527719E-2,-6.5348506E-1,1.1576231E-2,5.016456E-1,-8.300011E-2,1.1640016E0,5.625658E-1,1.6051868E0,1.0922306E0,-2.1208936E-2,-3.9357495E-2,-4.4485186E-3,-4.1571375E-2,-3.5293955E-2,7.807577E-4,1.8752651E-2,-1.3845947E-3,9.047249E-3,-2.3464827E-2,-0E0,4.0991638E-2,7.4617933E-3,3.6548037E-2,5.0521545E-2,3.3836186E-2,8.418695E-3,4.0012717E-2],"categories":[],"categories_nodes":[],"categories_segments":[],"categories_sizes":[],"default_left":[0,0,0,0,0,0,0,0,0,0,0,0,0,0,0,0,0,0,0,0,0,0,0,0,0,0,0,0,0,0,0,0,0,0,0,0,0,0,0,0,0,0,0,0,0,0,0,0,0],"id":4,"left_children":[1,3,5,7,9,11,13,15,17,19,21,23,25,27,29,-1,-1,-1,31,33,-1,-1,-1,35,-1,37,39,41,43,45,47,-1,-1,-1,-1,-1,-1,-1,-1,-1,-1,-1,-1,-1,-1,-1,-1,-1,-1],"loss_changes":[2.5315415E3,4.232644E2,3.9010034E2,1.3837622E2,1.0175483E2,6.358143E1,9.567554E1,2.0631958E1,9.3096436E1,1.0935988E2,1.1965027E1,3.3994263E1,3.2284767E1,5.3344788E1,3.384314E1,0E0,0E0,0E0,6.3490112E1,8.235218E1,0E0,0E0,0E0,3.5542786E1,0E0,3.958069E1,3.103076E1,7.403192E1,6.0443756E1,1.1573975E1,4.272281E1,0E0,0E0,0E0,0E0,0E0,0E0,0E0,0E0,0E0,0E0,0E0,0E0,0E0,0E0,0E0,0E0,0E0,0E0],"parents":[2147483647,0,0,1,1,2,2,3,3,4,4,5,5,6,6,7,7,8,8,9,9,10,10,11,11,12,12,13,13,14,14,18,18,19,19,23,23,25,25,26,26,27,27,28,28,29,29,30,30],"right_children":[2,4,6,8,10,12,14,16,18,20,22,24,26,28,30,-1,-1,-1,32,34,-1,-1,-1,36,-1,38,40,42,44,46,48,-1,-1,-1,-1,-1,-1,-1,-1,-1,-1,-1,-1,-1,-1,-1,-1,-1,-1],"split_conditions":[2E-2,-2.8E-1,2.8E-1,-6.2E-1,5E-1,2.41677E0,6.286635E-4,-2E0,-3E0,5.958649E-4,-5.077906E-4,1.0523273E0,6.666667E-1,6E-1,7.189512E-4,-2.4410052E-2,-4.7154795E-2,1.8059636E-2,2E0,4E0,4.611016E-2,-2.6573312E-2,-5.527719E-2,1.0204218E-4,1.1576231E-2,1.2890089E0,4.3679433E-4,-1.3279789E-3,2E-1,6.666667E-1,2.6E-1,-2.1208936E-2,-3.9357495E-2,-4.4485186E-3,-4.1571375E-2,-3.5293955E-2,7.807577E-4,1.8752651E-2,-1.3845947E-3,9.047249E-3,-2.3464827E-2,-0E0,4.0991638E-2,7.4617933E-3,3.6548037E-2,5.0521545E-2,3.3836186E-2,8.418695E-3,4.0012717E-2],"split_indices":[8,8,8,8,14,7,4,13,13,4,4,6,12,12,5,0,0,0,13,13,0,0,0,3,0,6,5,3,14,12,15,0,0,0,0,0,0,0,0,0,0,0,0,0,0,0,0,0,0],"split_type":[0,0,0,0,0,0,0,0,0,0,0,0,0,0,0,0,0,0,0,0,0,0,0,0,0,0,0,0,0,0,0,0,0,0,0,0,0,0,0,0,0,0,0,0,0,0,0,0,0],"sum_hessian":[4.629866E3,2.5378608E3,2.0920056E3,1.3586382E3,1.1792228E3,8.3208234E2,1.2599232E3,4.6211862E2,8.9651953E2,1.1107714E3,6.845135E1,1.4106296E2,6.9101935E2,6.0889746E2,6.5102576E2,4.8727364E1,4.1339127E2,4.243778E1,8.540818E2,1.0759062E3,3.4865166E1,3.497097E1,3.3480373E1,9.6872665E1,4.419029E1,5.799026E2,1.1111679E2,3.120911E2,2.9680634E2,4.2879062E2,2.2223515E2,6.010058E2,2.53076E2,1.02098016E3,5.4926056E1,5.416431E1,4.2708355E1,4.7347388E2,1.0642871E2,7.2142746E1,3.897405E1,4.6501644E1,2.6558945E2,2.0290562E2,9.390073E1,3.631104E2,6.568022E1,5.2244087E1,1.6999106E2],"tree_param":{"num_deleted":"0","num_feature":"16","num_nodes":"49","size_leaf_vector":"1"}},{"base_weights":[2.7929476E-4,-6.527531E-1,7.901462E-1,-2.7544722E-1,-1.1121866E0,1.1741767E0,3.2184035E-1,-3.9607432E-1,2.305628E-1,-8.779068E-1,-1.4802508E0,1.0040822E0,1.6108518E0,-3.7008357E-1,4.1413292E-1,-1.288788E0,-3.3786002E-1,9.552175E-1,-1.3876818E-1,-9.631487E-1,1.8563223E-3,-2.9720742E-2,-1.5290307E0,1.0671525E0,1.3688018E-3,3.595158E-2,4.977617E-2,2.5932632E-2,-8.723867E-1,5.073074E-1,-5.63205E-2,-5.1117834E-2,-2.523169E-2,-4.144538E-3,-1.9244825E-2,-1.5388643E-5,4.3188293E-2,1.4087036E-2,-2.2620361E-2,-2.2808269E-2,-4.362559E-2,-5.1308226E-2,-4.10947E-2,3.5038926E-2,1.6866282E-2,-5.2856464E-2,6.8643563E-3,-5.1780755E-4,1.8859705E-2,2.8531244E-2,-1.3801701E-2],"categories":[],"categories_nodes":[],"categories_segments":[],"categories_sizes":[],"default_left":[0,0,0,0,0,0,0,0,0,0,0,0,0,0,0,0,0,0,0,0,0,0,0,0,0,0,0,0,0,0,0,0,0,0,0,0,0,0,0,0,0,0,0,0,0,0,0,0,0,0,0],"id":5,"left_children":[1,3,5,7,9,11,13,15,17,19,21,23,25,27,29,31,33,35,37,39,-1,-1,41,43,-1,-1,-1,-1,45,47,49,-1,-1,-1,-1,-1,-1,-1,-1,-1,-1,-1,-1,-1,-1,-1,-1,-1,-1,-1,-1],"loss_changes":[2.4023936E3,4.408943E2,3.779226E2,8.5857574E1,9.573291E1,8.192969E1,6.117357E1,5.757277E1,7.299283E1,5.7045654E1,6.8010864E0,5.0260925E1,1.5596924E0,7.147111E1,3.710576E1,9.082886E0,6.43257E1,4.300531E1,6.8487045E1,6.1760498E1,0E0,0E0,5.900879E0,3.8199707E1,0E0,0E0,0E0,0E0,8.096016E1,4.4995575E1,5.7861805E1,0E0,0E0,0E0,0E0,0E0,0E0,0E0,0E0,0E0,0E0,0E0,0E0,0E0,0E0,0E0,0E0,0E0,0E0,0E0,0E0],"parents":[2147483647,0,0,1,1,2,2,3,3,4,4,5,5,6,6,7,7,8,8,9,9,10,10,11,11,12,12,13,13,14,14,15,15,16,16,17,17,18,18,19,19,22,22,23,23,28,28,29,29,30,30],"right_children":[2,4,6,8,10,12,14,16,18,20,22,24,26,28,30,32,34,36,38,40,-1,-1,42,44,-1,-1,-1,-1,46,48,50,-1,-1,-1,-1,-1,-1,-1,-1,-1,-1,-1,-1,-1,-1,-1,-1,-1,-1,-1,-1],"split_conditions":[2E-2,3.496205E-1,-3.0986848E-1,8.4695464E-4,6.2944674E-1,6.9E-1,1.68939E0,-1.0278689E-2,2.9628448E-2,3.086641E1,-2E0,1.1417107E-3,7.163585E-4,-1.9710276E-5,6.666667E-1,-6.745483E-4,-2.5359845E-5,4.843537E-4,1.7010156E-3,2E0,1.8563223E-3,-2.9720742E-2,-1.1050919E-3,6.666667E-1,1.3688018E-3,3.595158E-2,4.977617E-2,2.5932632E-2,-1.2841381E-6,-8.005672E-4,3.61305E0,-5.1117834E-2,-2.523169E-2,-4.144538E-3,-1.9244825E-2,-1.5388643E-5,4.3188293E-2,1.4087036E-2,-2.2620361E-2,-2.2808269E-2,-4.362559E-2,-5.1308226E-2,-4.10947E-2,3.5038926E-2,1.6866282E-2,-5.2856464E-2,6.8643563E-3,-5.1780755E-4,1.8859705E-2,2.8531244E-2,-1.3801701E-2],"split_indices":[8,11,11,2,11,8,7,11,11,7,13,0,4,0,12,4,1,5,3,13,0,0,2,12,0,0,0,0,2,2,7,0,0,0,0,0,0,0,0,0,0,0,0,0,0,0,0,0,0,0,0],"split_type":[0,0,0,0,0,0,0,0,0,0,0,0,0,0,0,0,0,0,0,0,0,0,0,0,0,0,0,0,0,0,0,0,0,0,0,0,0,0,0,0,0,0,0,0,0,0,0,0,0,0,0],"sum_hessian":[4.6534487E3,2.5473567E3,2.106092E3,1.4008073E3,1.1465493E3,1.1551583E3,9.5093365E2,1.1319828E3,2.6882455E2,7.0523785E2,4.4131152E2,8.365786E2,3.185797E2,1.10822136E2,8.401116E2,6.6394554E1,1.0655881E3,8.995864E1,1.788659E2,6.4683685E2,5.840101E1,4.4407066E1,3.9690445E2,7.844207E2,5.21579E1,3.9490665E1,2.7908905E2,3.1461203E1,7.936093E1,7.016325E2,1.3847906E2,3.1191841E1,3.5202717E1,6.451518E2,4.204364E2,3.0721708E1,5.9236935E1,8.993078E1,8.893512E1,4.6176526E2,1.8507158E2,1.7561409E2,2.2129036E2,6.5119055E2,1.3323015E2,4.3387264E1,3.5973663E1,1.3167465E2,5.699578E2,3.8632607E1,9.984646E1],"tree_param":{"num_deleted":"0","num_feature":"16","num_nodes":"51","size_leaf_vector":"1"}},{"base_weights":[-8.291514E-3,-6.36519E-1,7.485777E-1,-1.0013969E0,-2.178808E-1,2.292397E-1,1.0910642E0,-1.4264544E0,-7.803723E-1,-1.4947438E-1,-1.289087E0,-3.2324332E-1,3.4131956E-1,9.2248297E-1,4.7731154E-2,-2.4139844E-2,-1.4988825E0,1.813687E-2,-8.4365946E-1,-2.9220584E-1,3.9397708E-1,-2.2601843E-2,-5.406915E-2,1.7708672E-2,-7.2588485E-1,4.4937998E-1,-1.3778389E-1,1.0568726E0,4.1151193E-1,-4.7285255E-2,-3.6438152E-2,-2.7877264E-2,2.5324684E-4,-7.038131E-3,-4.084506E-2,-1.3246541E-3,3.622202E-2,-4.634329E-2,2.0095906E-3,3.0804506E-2,1.1390287E-2,5.092942E-3,-3.0079925E-2,5.671422E-3,3.4536686E-2,3.0984981E-2,2.4574266E-3],"categories":[],"categories_nodes":[],"categories_segments":[],"categories_sizes":[],"default_left":[0,0,0,0,0,0,0,0,0,0,0,0,0,0,0,0,0,0,0,0,0,0,0,0,0,0,0,0,0,0,0,0,0,0,0,0,0,0,0,0,0,0,0,0,0,0,0],"id":6,"left_children":[1,3,5,7,9,11,13,15,17,19,21,23,25,27,-1,-1,29,-1,31,33,35,-1,-1,-1,37,39,41,43,45,-1,-1,-1,-1,-1,-1,-1,-1,-1,-1,-1,-1,-1,-1,-1,-1,-1,-1],"loss_changes":[2.183197E3,3.824848E2,3.694851E2,1.2297876E2,8.502472E1,5.16465E1,1.0200183E2,1.7408142E1,7.8775024E1,8.5808685E1,1.5705475E1,5.262316E1,3.6032135E1,6.3442688E1,0E0,0E0,4.2366943E0,0E0,6.2177063E1,5.2818283E1,8.241977E1,0E0,0E0,0E0,6.475334E1,2.155722E1,3.4726006E1,6.0151855E1,4.04748E1,0E0,0E0,0E0,0E0,0E0,0E0,0E0,0E0,0E0,0E0,0E0,0E0,0E0,0E0,0E0,0E0,0E0,0E0],"parents":[2147483647,0,0,1,1,2,2,3,3,4,4,5,5,6,6,7,7,8,8,9,9,10,10,11,11,12,12,13,13,16,16,18,18,19,19,20,20,24,24,25,25,26,26,27,27,28,28],"right_children":[2,4,6,8,10,12,14,16,18,20,22,24,26,28,-1,-1,30,-1,32,34,36,-1,-1,-1,38,40,42,44,46,-1,-1,-1,-1,-1,-1,-1,-1,-1,-1,-1,-1,-1,-1,-1,-1,-1,-1],"split_conditions":[2E-2,-2.8E-1,2.8E-1,-6.2E-1,5E-1,2.41677E0,6.9E-1,-2E0,-3E0,8.4695464E-4,-5.8912573E-4,-3.624287E-5,1.2890089E0,7.189512E-4,4.7731154E-2,-2.4139844E-2,-4.3901097E-4,1.813687E-2,2.926415E1,4E0,-2E-2,-2.2601843E-2,-5.406915E-2,1.7708672E-2,1.14680624E-4,3.19609E0,3.0659858E-4,4.7115412E-1,-2.2227557E-4,-4.7285255E-2,-3.6438152E-2,-2.7877264E-2,2.5324684E-4,-7.038131E-3,-4.084506E-2,-1.3246541E-3,3.622202E-2,-4.634329E-2,2.0095906E-3,3.0804506E-2,1.1390287E-2,5.092942E-3,-3.0079925E-2,5.671422E-3,3.4536686E-2,3.0984981E-2,2.4574266E-3],"split_indices":[8,8,8,8,14,7,8,13,13,2,1,0,6,5,0,0,1,0,7,13,8,0,0,0,0,7,1,6,1,0,0,0,0,0,0,0,0,0,0,0,0,0,0,0,0,0,0],"split_type":[0,0,0,0,0,0,0,0,0,0,0,0,0,0,0,0,0,0,0,0,0,0,0,0,0,0,0,0,0,0,0,0,0,0,0,0,0,0,0,0,0,0,0,0,0,0,0],"sum_hessian":[4.587572E3,2.5072131E3,2.080359E3,1.3377515E3,1.1694617E3,8.284033E2,1.2519556E3,4.5344873E2,8.843027E2,1.1016691E3,6.779262E1,1.3862494E2,6.897784E2,9.4096967E2,3.1098584E2,5.0267284E1,4.0318143E2,3.7689297E1,8.466134E2,8.7368274E2,2.2798634E2,3.587115E1,3.1921469E1,4.1894814E1,9.673013E1,5.634452E2,1.26333206E2,7.428659E2,1.9810376E2,3.0901776E2,9.416368E1,7.6949817E2,7.7115265E1,8.3160474E2,4.2078003E1,1.4916475E2,7.8821594E1,4.683737E1,4.9892757E1,5.7267307E1,5.061779E2,9.412368E1,3.220952E1,7.374576E1,6.691202E2,6.687016E1,1.312336E2],"tree_param":{"num_deleted":"0","num_feature":"16","num_nodes":"47","size_leaf_vector":"1"}},{"base_weights":[6.03303E-3,-6.1741906E-1,7.6686704E-1,-2.6849046E-1,-1.0905772E0,1.129965E0,3.2041308E-1,-3.6718476E-1,1.5078516E-1,-8.516679E-1,-1.4336935E0,1.500635E0,9.8066425E-1,-2.4564708E-2,3.6898255E-1,-1.9285E-1,-6.501976E-1,9.2258036E-1,-2.1720889E-1,1.0220219E-2,-9.1798216E-1,-2.4733376E-2,-1.4959276E0,1.2760814E0,4.8924994E-2,1.0331601E0,-0E0,-2.7419895E-1,4.5432928E-1,-1.1246912E-2,9.520772E-3,-5.4305952E-2,-1.6699636E-2,9.0564005E-3,3.9335094E-2,1.3603662E-2,-2.6558384E-2,-2.2350226E-2,-3.8569804E-2,-4.9034543E-2,-4.102525E-2,4.6942443E-2,3.3061888E-2,1.42812645E-2,3.292456E-2,-2.7130254E-2,1.6547272E-2,1.5044419E-2,-1.0440525E-2],"categories":[],"categories_nodes":[],"categories_segments":[],"categories_sizes":[],"default_left":[0,0,0,0,0,0,0,0,0,0,0,0,0,0,0,0,0,0,0,0,0,0,0,0,0,0,0,0,0,0,0,0,0,0,0,0,0,0,0,0,0,0,0,0,0,0,0,0,0],"id":7,"left_children":[1,3,5,7,9,11,13,15,17,19,21,23,25,-1,27,29,31,33,35,-1,37,-1,39,41,-1,43,-1,45,47,-1,-1,-1,-1,-1,-1,-1,-1,-1,-1,-1,-1,-1,-1,-1,-1,-1,-1,-1,-1],"loss_changes":[2.1871355E3,4.1736194E2,3.3550366E2,6.0651314E1,8.495386E1,5.963159E1,5.2185066E1,5.7921524E1,7.994018E1,5.1315094E1,1.3430054E1,4.4435425E0,4.244159E1,0E0,4.960064E1,6.8641785E1,4.6091812E1,2.0630486E1,8.627963E1,0E0,3.601657E1,0E0,1.6425781E0,2.231964E0,0E0,2.6447632E1,0E0,5.628325E1,3.0434021E1,0E0,0E0,0E0,0E0,0E0,0E0,0E0,0E0,0E0,0E0,0E0,0E0,0E0,0E0,0E0,0E0,0E0,0E0,0E0,0E0],"parents":[2147483647,0,0,1,1,2,2,3,3,4,4,5,5,6,6,7,7,8,8,9,9,10,10,11,11,12,12,14,14,15,15,16,16,17,17,18,18,20,20,22,22,23,23,25,25,27,27,28,28],"right_children":[2,4,6,8,10,12,14,16,18,20,22,24,26,-1,28,30,32,34,36,-1,38,-1,40,42,-1,44,-1,46,48,-1,-1,-1,-1,-1,-1,-1,-1,-1,-1,-1,-1,-1,-1,-1,-1,-1,-1,-1,-1],"split_conditions":[2E-2,3.6954832E-1,-3.0986848E-1,8.4695464E-4,6.2944674E-1,-6.68667E-1,2.4874008E-1,-2.5359845E-5,2.9628448E-2,-3.4926508E-3,-2E0,7.6E-1,1.1748973E-3,-2.4564708E-2,1.68939E0,8.301241E-5,-9.5004705E-4,7.09826E0,1.7010156E-3,1.0220219E-2,2E0,-2.4733376E-2,-1.1050919E-3,5.44896E0,4.8924994E-2,4.7115412E-1,-0E0,2.2904917E-6,1.391438E0,-1.1246912E-2,9.520772E-3,-5.4305952E-2,-1.6699636E-2,9.0564005E-3,3.9335094E-2,1.3603662E-2,-2.6558384E-2,-2.2350226E-2,-3.8569804E-2,-4.9034543E-2,-4.102525E-2,4.6942443E-2,3.3061888E-2,1.42812645E-2,3.292456E-2,-2.7130254E-2,1.6547272E-2,1.5044419E-2,-1.0440525E-2],"split_indices":[8,11,11,2,11,11,6,1,11,3,13,8,0,0,7,3,2,7,3,0,13,0,2,7,0,6,0,2,6,0,0,0,0,0,0,0,0,0,0,0,0,0,0,0,0,0,0,0,0],"split_type":[0,0,0,0,0,0,0,0,0,0,0,0,0,0,0,0,0,0,0,0,0,0,0,0,0,0,0,0,0,0,0,0,0,0,0,0,0,0,0,0,0,0,0,0,0,0,0,0,0],"sum_hessian":[4.606777E3,2.531976E3,2.0748008E3,1.4594668E3,1.0725093E3,1.1421578E3,9.32643E2,1.1821594E3,2.7730737E2,6.3688776E2,4.3562152E2,3.221764E2,8.1998145E2,3.658632E1,8.960567E2,7.342731E2,4.4788635E2,8.882194E1,1.8848543E2,3.2881126E1,6.040066E2,4.34619E1,3.9215964E2,1.2701656E2,1.9515984E2,7.783333E2,4.1648144E1,1.04042366E2,7.920143E2,5.420008E2,1.9227226E2,3.0444365E1,4.17442E2,3.5863052E1,5.295889E1,9.4156654E1,9.432877E1,4.154337E2,1.8857292E2,1.7622787E2,2.1593175E2,4.1111687E1,8.590488E1,8.278665E1,6.9554663E2,5.9109406E1,4.4932964E1,7.4911505E2,4.2899246E1],"tree_param":{"num_deleted":"0","num_feature":"16","num_nodes":"49","size_leaf_vector":"1"}},{"base_weights":[-1.4774008E-2,-6.1400014E-1,7.106577E-1,-2.684807E-1,-1.0273647E0,3.533446E-1,1.1767637E0,-2.1674548E-1,-1.2409291E0,-8.127976E-1,-1.3874344E0,-2.5977941E-2,4.018925E-1,4.774793E-2,1.0517054E0,-2.629818E-1,4.101704E-2,-2.0445663E-2,-5.1405434E-2,1.1903111E-2,-8.781542E-1,-2.270846E-2,-1.4595557E0,2.8172362E-1,9.916434E-1,1.2383288E0,6.3527405E-1,-6.090058E-3,-3.6387943E-2,-2.301089E-2,-4.1843772E-2,-3.8102172E-2,-4.648766E-2,1.995813E-2,-3.7469026E-3,1.4551259E-2,3.9605793E-2,4.000059E-2,4.9656443E-3,3.5430603E-2,7.540933E-3],"categories":[],"categories_nodes":[],"categories_segments":[],"categories_sizes":[],"default_left":[0,0,0,0,0,0,0,0,0,0,0,0,0,0,0,0,0,0,0,0,0,0,0,0,0,0,0,0,0,0,0,0,0,0,0,0,0,0,0,0,0],"id":8,"left_children":[1,3,5,7,9,11,13,15,17,19,21,-1,23,-1,25,27,-1,-1,-1,-1,29,-1,31,33,35,37,39,-1,-1,-1,-1,-1,-1,-1,-1,-1,-1,-1,-1,-1,-1],"loss_changes":[1.9951407E3,3.5808545E2,3.4446545E2,6.80668E1,8.542261E1,7.030966E1,4.253174E1,9.601628E1,1.5082954E1,5.790265E1,1.6386719E1,0E0,7.948717E1,0E0,5.208783E1,7.1476555E1,0E0,0E0,0E0,0E0,3.657666E1,0E0,1.6584473E0,1.478624E2,2.9949219E1,4.7958984E1,4.517945E1,0E0,0E0,0E0,0E0,0E0,0E0,0E0,0E0,0E0,0E0,0E0,0E0,0E0,0E0],"parents":[2147483647,0,0,1,1,2,2,3,3,4,4,5,5,6,6,7,7,8,8,9,9,10,10,12,12,14,14,15,15,20,20,22,22,23,23,24,24,25,25,26,26],"right_children":[2,4,6,8,10,12,14,16,18,20,22,-1,24,-1,26,28,-1,-1,-1,-1,30,-1,32,34,36,38,40,-1,-1,-1,-1,-1,-1,-1,-1,-1,-1,-1,-1,-1,-1],"split_conditions":[2E-2,3.4939897E-1,4.7964102E-4,5E-1,6.2944674E-1,2.4874008E-1,-7.490186E-1,6.1926834E-4,-5.077906E-4,-3.4926508E-3,-2E0,-2.5977941E-2,2E-1,4.774793E-2,7.189512E-4,4E0,4.101704E-2,-2.0445663E-2,-5.1405434E-2,1.1903111E-2,3E0,-2.270846E-2,5E-1,6E-1,9.3693364E-1,3E0,0E0,-6.090058E-3,-3.6387943E-2,-2.301089E-2,-4.1843772E-2,-3.8102172E-2,-4.648766E-2,1.995813E-2,-3.7469026E-3,1.4551259E-2,3.9605793E-2,4.000059E-2,4.9656443E-3,3.5430603E-2,7.540933E-3],"split_indices":[8,11,4,14,11,6,11,4,4,3,13,0,14,0,5,13,0,0,0,0,13,0,12,12,6,13,13,0,0,0,0,0,0,0,0,0,0,0,0,0,0],"split_type":[0,0,0,0,0,0,0,0,0,0,0,0,0,0,0,0,0,0,0,0,0,0,0,0,0,0,0,0,0,0,0,0,0,0,0,0,0,0,0,0,0],"sum_hessian":[4.5857793E3,2.5117375E3,2.074042E3,1.3703372E3,1.1414003E3,1.1763903E3,8.976518E2,1.3037317E3,6.6605515E1,7.1981E2,4.2159027E2,4.3520668E1,1.1328695E3,2.0193962E2,6.9571216E2,1.2685598E3,3.517188E1,3.3028343E1,3.357717E1,3.61445E1,6.836655E2,4.6062492E1,3.755278E2,9.4398517E2,1.8888435E2,4.771914E2,2.1852077E2,1.1958E3,7.27597E1,5.6721277E2,1.1645274E2,1.3176367E2,2.4376411E2,4.8549985E2,4.5848535E2,7.661497E1,1.1226939E2,4.3766016E2,3.9531246E1,8.820254E1,1.3031822E2],"tree_param":{"num_deleted":"0","num_feature":"16","num_nodes":"41","size_leaf_vector":"1"}},{"base_weights":[-4.8950682E-3,7.010536E-1,-5.864311E-1,3.6463004E-1,1.1440394E0,-3.3773118E-1,-1.1639984E0,5.907442E-1,1.3911946E-1,1.4911754E0,9.8676425E-1,-1.552097E-1,-5.779987E-1,-4.5262063E-1,-1.254262E0,-2.863005E-1,9.550314E-1,1.0571908E0,-9.059523E-2,3.1362753E-2,4.6356916E-2,1.1659917E0,5.223402E-1,-8.114988E-2,-1.1741039E0,1.7143453E-2,-6.4025545E-1,1.7364167E-2,-3.1241711E-2,-8.5697174E-1,-1.357679E0,2.9513668E-2,-1.744636E-2,7.0200795E-3,3.452537E-2,1.720564E-2,4.3989766E-2,-7.899268E-3,2.3184642E-2,3.8408957E-2,-0E0,3.1475294E-2,5.2820537E-3,-4.1998858E-3,4.0535603E-2,-1.712497E-2,-5.1036306E-2,3.0302715E-3,-2.1275047E-2,-2.9326053E-2,-1.2881607E-2,-4.7045063E-2,-3.648379E-2],"categories":[],"categories_nodes":[],"categories_segments":[],"categories_sizes":[],"default_left":[0,0,0,0,0,0,0,0,0,0,0,0,0,0,0,0,0,0,0,0,0,0,0,0,0,0,0,0,0,0,0,0,0,0,0,0,0,0,0,0,0,0,0,0,0,0,0,0,0,0,0,0,0],"id":9,"left_children":[1,3,5,7,9,11,13,15,17,19,21,23,25,27,29,31,33,35,37,-1,-1,39,41,43,45,-1,47,-1,-1,49,51,-1,-1,-1,-1,-1,-1,-1,-1,-1,-1,-1,-1,-1,-1,-1,-1,-1,-1,-1,-1,-1,-1],"loss_changes":[1.8779227E3,3.066056E2,3.590796E2,5.966046E1,4.492749E1,7.663487E1,4.6757812E1,1.8819576E2,1.2550694E2,2.573059E0,4.9824585E1,7.5021E1,5.4916718E1,5.5018127E1,2.4432373E1,6.6073654E1,5.7670868E1,2.1267868E1,7.120229E1,0E0,0E0,5.9053772E1,3.1468246E1,7.892984E1,1.8825752E1,0E0,3.706433E1,0E0,0E0,6.1556396E0,1.1010315E1,0E0,0E0,0E0,0E0,0E0,0E0,0E0,0E0,0E0,0E0,0E0,0E0,0E0,0E0,0E0,0E0,0E0,0E0,0E0,0E0,0E0,0E0],"parents":[2147483647,0,0,1,1,2,2,3,3,4,4,5,5,6,6,7,7,8,8,9,9,10,10,11,11,12,12,13,13,14,14,15,15,16,16,17,17,18,18,21,21,22,22,23,23,24,24,26,26,29,29,30,30],"right_children":[2,4,6,8,10,12,14,16,18,20,22,24,26,28,30,32,34,36,38,-1,-1,40,42,44,46,-1,48,-1,-1,50,52,-1,-1,-1,-1,-1,-1,-1,-1,-1,-1,-1,-1,-1,-1,-1,-1,-1,-1,-1,-1,-1,-1],"split_conditions":[-1.9877914E-2,4.7964102E-4,4.8956344E-1,6E-1,-7.076722E-1,2.297839E-1,-2E0,-3.9107088E-4,-3.0475884E-4,7.2857144E-4,7.6117646E-4,5E-1,-3E0,-2.762679E-3,5.4973465E-1,-2.9856253E-3,5.8012563E-1,-4.6620815E-4,2E-1,3.1362753E-2,4.6356916E-2,3E0,0E0,6.7368377E-4,-5.077906E-4,1.7143453E-2,-1.2163222E-3,1.7364167E-2,-3.1241711E-2,6.790057E-4,-1.1050919E-3,2.9513668E-2,-1.744636E-2,7.0200795E-3,3.452537E-2,1.720564E-2,4.3989766E-2,-7.899268E-3,2.3184642E-2,3.8408957E-2,-0E0,3.1475294E-2,5.2820537E-3,-4.1998858E-3,4.0535603E-2,-1.712497E-2,-5.1036306E-2,3.0302715E-3,-2.1275047E-2,-2.9326053E-2,-1.2881607E-2,-4.7045063E-2,-3.648379E-2],"split_indices":[11,4,11,12,11,11,13,2,1,4,5,14,13,3,11,3,6,2,14,0,0,13,13,4,4,0,1,0,0,5,2,0,0,0,0,0,0,0,0,0,0,0,0,0,0,0,0,0,0,0,0,0,0],"split_type":[0,0,0,0,0,0,0,0,0,0,0,0,0,0,0,0,0,0,0,0,0,0,0,0,0,0,0,0,0,0,0,0,0,0,0,0,0,0,0,0,0,0,0,0,0,0,0,0,0,0,0,0,0],"sum_hessian":[4.570416E3,2.0639644E3,2.5064517E3,1.1755338E3,8.884305E2,1.7546082E3,7.518435E2,5.846997E2,5.9083405E2,2.711284E2,6.173021E2,9.997098E2,7.5489844E2,8.6385056E1,6.654585E2,1.7147273E2,4.13227E2,1.170674E2,4.737667E2,3.4323067E1,2.3680533E2,4.4276572E2,1.7453638E2,9.3425574E2,6.545402E1,3.769829E1,7.1720013E2,3.1218966E1,5.516609E1,1.4188042E2,5.2357806E2,3.1270863E1,1.4020187E2,8.951957E1,3.2370743E2,5.6184395E1,6.0883003E1,3.962419E2,7.752478E1,4.0291916E2,3.9846554E1,6.726682E1,1.07269554E2,8.9932184E2,3.493389E1,3.272986E1,3.2724163E1,6.0554726E1,6.5664545E2,1.0812041E2,3.3760006E1,2.0156857E2,3.220095E2],"tree_param":{"num_deleted":"0","num_feature":"16","num_nodes":"53","size_leaf_vector":"1"}},{"base_weights":[8.651144E-3,8.815076E-1,-4.433484E-1,5.323508E-1,1.1712561E0,-1.0565065E-1,-9.365999E-1,8.737127E-1,1.8279278E-1,4.617505E-2,1.0507338E0,-6.815164E-4,-5.6754243E-1,-7.558151E-1,-1.3837991E0,-1.2261773E-1,1.189809E0,4.13408E-1,-3.0214934E-2,1.147123E0,5.6449914E-1,-2.555828E-1,2.5488448E-1,5.027189E-2,-7.919781E-1,-1.4595026E-1,-8.499998E-1,-1.1647537E0,-4.558518E-2,-2.3566581E-2,2.6724936E-2,2.4720639E-2,4.1647267E-2,-1.4753257E-2,1.8773006E-2,3.9725363E-2,2.1463895E-2,4.241158E-3,3.7976865E-2,-1.4629186E-2,5.4114372E-3,1.5879752E-2,-2.19776E-3,-1.4465603E-2,2.8063234E-2,-3.198336E-2,9.993288E-4,1.5761577E-2,-3.575425E-2,-0E0,-2.6680859E-2,-4.004583E-2,-2.1314569E-2],"categories":[],"categories_nodes":[],"categories_segments":[],"categories_sizes":[],"default_left":[0,0,0,0,0,0,0,0,0,0,0,0,0,0,0,0,0,0,0,0,0,0,0,0,0,0,0,0,0,0,0,0,0,0,0,0,0,0,0,0,0,0,0,0,0,0,0,0,0,0,0,0,0],"id":10,"left_children":[1,3,5,7,9,11,13,15,17,-1,19,21,23,25,27,29,31,33,-1,35,37,39,41,43,45,47,49,51,-1,-1,-1,-1,-1,-1,-1,-1,-1,-1,-1,-1,-1,-1,-1,-1,-1,-1,-1,-1,-1,-1,-1,-1,-1],"loss_changes":[1.7926986E3,1.5508557E2,4.9807092E2,8.37538E1,3.346216E1,8.610162E1,9.55625E1,1.12995026E2,9.735582E1,0E0,2.8350586E1,9.474743E1,4.5916977E1,4.9466187E1,5.973816E0,6.017507E1,1.6741608E1,5.7708576E1,0E0,3.835022E1,3.213644E1,7.3994E1,6.556612E1,4.307267E1,5.5082077E1,8.522904E1,2.5234741E1,8.4782715E0,0E0,0E0,0E0,0E0,0E0,0E0,0E0,0E0,0E0,0E0,0E0,0E0,0E0,0E0,0E0,0E0,0E0,0E0,0E0,0E0,0E0,0E0,0E0,0E0,0E0],"parents":[2147483647,0,0,1,1,2,2,3,3,4,4,5,5,6,6,7,7,8,8,10,10,11,11,12,12,13,13,14,14,15,15,16,16,17,17,19,19,20,20,21,21,22,22,23,23,24,24,25,25,26,26,27,27],"right_children":[2,4,6,8,10,12,14,16,18,-1,20,22,24,26,28,30,32,34,-1,36,38,40,42,44,46,48,50,52,-1,-1,-1,-1,-1,-1,-1,-1,-1,-1,-1,-1,-1,-1,-1,-1,-1,-1,-1,-1,-1,-1,-1,-1,-1],"split_conditions":[-1.6983907E-1,4.919249E-4,3.0980292E-1,5E-1,-7.490186E-1,6.666667E-1,6.793469E-1,-4.4420315E-4,1.0582254E-3,4.617505E-2,6.666667E-1,-9.471424E-5,3.61305E0,-1.4524324E-3,5E-1,9.26656E0,8.1456186E-5,2.352066E-4,-3.0214934E-2,7.6117646E-4,1.679607E1,9.38505E0,5.0006732E-2,2.833592E-4,1.679607E1,6E-1,-1.0218407E-3,-2.9371708E-4,-4.558518E-2,-2.3566581E-2,2.6724936E-2,2.4720639E-2,4.1647267E-2,-1.4753257E-2,1.8773006E-2,3.9725363E-2,2.1463895E-2,4.241158E-3,3.7976865E-2,-1.4629186E-2,5.4114372E-3,1.5879752E-2,-2.19776E-3,-1.4465603E-2,2.8063234E-2,-3.198336E-2,9.993288E-4,1.5761577E-2,-3.575425E-2,-0E0,-2.6680859E-2,-4.004583E-2,-2.1314569E-2],"split_indices":[11,4,11,12,11,12,11,2,1,0,12,2,7,2,12,7,2,5,0,5,7,7,11,2,7,12,0,0,0,0,0,0,0,0,0,0,0,0,0,0,0,0,0,0,0,0,0,0,0,0,0,0,0],"split_type":[0,0,0,0,0,0,0,0,0,0,0,0,0,0,0,0,0,0,0,0,0,0,0,0,0,0,0,0,0,0,0,0,0,0,0,0,0,0,0,0,0,0,0,0,0,0,0,0,0,0,0,0,0],"sum_hessian":[4.5395615E3,1.548335E3,2.9912268E3,7.052249E2,8.4311005E2,1.7773949E3,1.2138319E3,3.5484387E2,3.50381E2,2.0161604E2,6.4149396E2,1.4504249E3,3.2696988E2,8.6870154E2,3.451304E2,8.5529945E1,2.6931393E2,2.9480475E2,5.5576256E1,5.3258167E2,1.089123E2,7.2674445E2,7.236805E2,8.718555E1,2.3978433E2,1.17319374E2,7.5138214E2,1.4020361E2,2.0492677E2,5.2157516E1,3.3372425E1,9.887219E1,1.7044174E2,5.525122E1,2.3955353E2,3.742455E2,1.5833617E2,6.969727E1,3.9215027E1,4.745827E2,2.5216177E2,3.9391776E2,3.2976273E2,5.4795708E1,3.2389835E1,1.7983046E2,5.9953884E1,7.188491E1,4.543446E1,3.3308224E1,7.180739E2,9.870479E1,4.1498833E1],"tree_param":{"num_deleted":"0","num_feature":"16","num_nodes":"53","size_leaf_vector":"1"}},{"base_weights":[3.7721167E-3,-4.3806073E-1,8.340772E-1,-9.087991E-1,-1.1146843E-1,4.8948577E-1,1.1240956E0,-1.3407505E0,-7.3294336E-1,-3.5663217E-1,7.520128E-2,8.1725883E-1,1.4897814E-1,9.691915E-1,1.4606793E0,-2.4300577E-2,-1.3910851E0,8.326563E-2,-8.363508E-1,-6.366824E-1,1.570504E-1,2.0402077E-1,-2.9757452E-1,-2.1822084E-1,1.1429331E0,-1.252456E-1,9.8696965E-1,1.1367446E0,5.296825E-1,3.678026E-2,4.6148237E-2,-3.5901092E-2,-4.5813825E-2,2.3236899E-2,-8.422523E-3,-2.2081366E-2,-3.5895344E-2,-2.399909E-2,2.7472127E-2,4.226125E-2,-2.8816385E-3,-9.87991E-3,9.321307E-3,1.507094E-2,-1.6741868E-2,-2.3998944E-2,1.7210009E-2,1.0913298E-2,3.774448E-2,7.587163E-3,-2.0257825E-2,4.747678E-2,1.0356263E-3,3.7853274E-2,1.7685948E-2,3.4422663E-3,2.908835E-2],"categories":[],"categories_nodes":[],"categories_segments":[],"categories_sizes":[],"default_left":[0,0,0,0,0,0,0,0,0,0,0,0,0,0,0,0,0,0,0,0,0,0,0,0,0,0,0,0,0,0,0,0,0,0,0,0,0,0,0,0,0,0,0,0,0,0,0,0,0,0,0,0,0,0,0,0,0],"id":11,"left_children":[1,3,5,7,9,11,13,15,17,19,21,23,25,27,29,-1,31,33,35,37,39,41,43,45,47,49,51,53,55,-1,-1,-1,-1,-1,-1,-1,-1,-1,-1,-1,-1,-1,-1,-1,-1,-1,-1,-1,-1,-1,-1,-1,-1,-1,-1,-1,-1],"loss_changes":[1.6603754E3,4.535747E2,1.5552307E2,8.926129E1,8.006297E1,8.009854E1,4.0841064E1,6.354187E0,7.330704E1,1.0909658E2,4.775185E1,1.24611115E2,8.259748E1,4.1726135E1,2.033081E-1,0E0,3.8201904E0,2.5412941E1,2.5387207E1,1.2564638E2,8.555304E1,4.227072E1,5.3733162E1,4.2133087E1,2.3724457E1,5.6762917E1,4.965068E1,2.701709E1,2.9939991E1,0E0,0E0,0E0,0E0,0E0,0E0,0E0,0E0,0E0,0E0,0E0,0E0,0E0,0E0,0E0,0E0,0E0,0E0,0E0,0E0,0E0,0E0,0E0,0E0,0E0,0E0,0E0,0E0],"parents":[2147483647,0,0,1,1,2,2,3,3,4,4,5,5,6,6,7,7,8,8,9,9,10,10,11,11,12,12,13,13,14,14,16,16,17,17,18,18,19,19,20,20,21,21,22,22,23,23,24,24,25,25,26,26,27,27,28,28],"right_children":[2,4,6,8,10,12,14,16,18,20,22,24,26,28,30,-1,32,34,36,38,40,42,44,46,48,50,52,54,56,-1,-1,-1,-1,-1,-1,-1,-1,-1,-1,-1,-1,-1,-1,-1,-1,-1,-1,-1,-1,-1,-1,-1,-1,-1,-1,-1,-1],"split_conditions":[1.6E-1,-3.1E-1,4.7964102E-4,-6.7E-1,-2.253509E-4,5E-1,7.1E-1,4.4661975E-1,-2.4730708E-3,5.0166587E-4,6.666667E-1,-4.4420315E-4,2E-1,7.572276E-4,7.6E-1,-2.4300577E-2,-1.2318317E-3,4E-1,6.666667E-1,1.669818E1,5.4111716E-4,4E-1,3.53974E0,7.29775E0,4.8658141E-1,5.5657775E-4,6.66131E0,6.666667E-1,7.742244E-4,3.678026E-2,4.6148237E-2,-3.5901092E-2,-4.5813825E-2,2.3236899E-2,-8.422523E-3,-2.2081366E-2,-3.5895344E-2,-2.399909E-2,2.7472127E-2,4.226125E-2,-2.8816385E-3,-9.87991E-3,9.321307E-3,1.507094E-2,-1.6741868E-2,-2.3998944E-2,1.7210009E-2,1.0913298E-2,3.774448E-2,7.587163E-3,-2.0257825E-2,4.747678E-2,1.0356263E-3,3.7853274E-2,1.7685948E-2,3.4422663E-3,2.908835E-2],"split_indices":[8,8,4,8,3,12,8,6,3,5,12,2,14,5,8,0,3,12,12,7,5,12,7,7,6,2,7,12,3,0,0,0,0,0,0,0,0,0,0,0,0,0,0,0,0,0,0,0,0,0,0,0,0,0,0,0,0],"split_type":[0,0,0,0,0,0,0,0,0,0,0,0,0,0,0,0,0,0,0,0,0,0,0,0,0,0,0,0,0,0,0,0,0,0,0,0,0,0,0,0,0,0,0,0,0,0,0,0,0,0,0,0,0,0,0,0,0],"sum_hessian":[4.521643E3,2.9515886E3,1.5700546E3,1.2071549E3,1.7444337E3,7.204484E2,8.4960614E2,3.4493744E2,8.6221747E2,7.539782E2,9.904555E2,3.6521283E2,3.5523563E2,5.8775653E2,2.6184955E2,3.3357727E1,3.115797E2,9.667077E1,7.655467E2,4.880225E2,2.659557E2,7.3735815E2,2.5309738E2,8.731954E1,2.7789328E2,2.6866196E2,8.657367E1,4.2274063E2,1.6501591E2,7.437735E1,1.874722E2,1.372584E2,1.743213E2,3.28515E1,6.3819267E1,6.0419714E2,1.6134955E2,4.4262842E2,4.539408E1,4.3397877E1,2.2255783E2,1.2174707E2,6.156111E2,6.143281E1,1.9166458E2,5.054566E1,3.677388E1,3.7205734E1,2.4068755E2,1.5952141E2,1.0914055E2,5.225759E1,3.431608E1,3.4154263E2,8.119802E1,8.656837E1,7.844755E1],"tree_param":{"num_deleted":"0","num_feature":"16","num_nodes":"57","size_leaf_vector":"1"}},{"base_weights":[-1.6124698E-3,-5.39696E-1,6.5734005E-1,-8.768597E-1,-1.6019632E-1,2.7683413E-1,1.0376881E0,-1.279483E0,-6.9257593E-1,-2.7638224E-1,2.9492605E-1,5.0599986E-1,5.786581E-2,9.216939E-1,4.3844264E-2,-1.0756558E0,-4.234654E-2,9.967924E-3,-7.49548E-1,-1.6689631E-1,-7.6747745E-1,5.110262E-1,-1.5425563E-2,-3.507928E-1,8.418764E-1,-1.6193603E-1,9.3435794E-1,1.0881954E0,5.945621E-1,-3.7135556E-2,-1.7971411E-2,-1.9944051E-2,-3.2633055E-2,-9.629681E-3,5.8744573E-3,-2.9222459E-2,9.4610295E-4,2.1577178E-2,-1.1823897E-3,-3.0388515E-2,1.3243645E-2,8.377404E-3,3.278982E-2,1.211854E-2,-1.0695234E-2,4.4811286E-2,1.9485557E-3,3.5484947E-2,1.415712E-2,-3.2320593E-3,2.3717636E-2],"categories":[],"categories_nodes":[],"categories_segments":[],"categories_sizes":[],"default_left":[0,0,0,0,0,0,0,0,0,0,0,0,0,0,0,0,0,0,0,0,0,0,0,0,0,0,0,0,0,0,0,0,0,0,0,0,0,0,0,0,0,0,0,0,0,0,0,0,0,0,0],"id":12,"left_children":[1,3,5,7,9,11,13,15,17,19,21,23,25,27,-1,29,-1,-1,31,33,35,37,-1,39,41,43,45,47,49,-1,-1,-1,-1,-1,-1,-1,-1,-1,-1,-1,-1,-1,-1,-1,-1,-1,-1,-1,-1,-1,-1],"loss_changes":[1.6069185E3,3.1866602E2,2.9383398E2,9.560474E1,6.238114E1,5.1026466E1,4.6612305E1,7.300232E0,5.3794678E1,4.995018E1,4.244471E1,1.4409506E2,1.0172654E2,4.2041626E1,0E0,1.1198669E1,0E0,0E0,2.278128E1,4.3247253E1,2.8427483E1,2.2094734E1,0E0,7.526903E1,4.965796E1,4.6669285E1,5.0828026E1,2.9320984E1,3.8440926E1,0E0,0E0,0E0,0E0,0E0,0E0,0E0,0E0,0E0,0E0,0E0,0E0,0E0,0E0,0E0,0E0,0E0,0E0,0E0,0E0,0E0,0E0],"parents":[2147483647,0,0,1,1,2,2,3,3,4,4,5,5,6,6,7,7,8,8,9,9,10,10,11,11,12,12,13,13,15,15,18,18,19,19,20,20,21,21,23,23,24,24,25,25,26,26,27,27,28,28],"right_children":[2,4,6,8,10,12,14,16,18,20,22,24,26,28,-1,30,-1,-1,32,34,36,38,-1,40,42,44,46,48,50,-1,-1,-1,-1,-1,-1,-1,-1,-1,-1,-1,-1,-1,-1,-1,-1,-1,-1,-1,-1,-1,-1],"split_conditions":[2E-2,-2.8E-1,4.008053E-4,-6.3E-1,8.4695464E-4,5E-1,7.4E-1,5E-1,-3.4926508E-3,6.666667E-1,2.8046858E-3,-4.4420315E-4,2E-1,1.292974E1,4.3844264E-2,-2.3012883E-4,-4.234654E-2,9.967924E-3,6.666667E-1,6.897142E-5,1.346361E1,1.7227007E-3,-1.5425563E-2,9.90257E0,1.5E-1,-2.2346686E-4,6.66131E0,6.666667E-1,1.591732E1,-3.7135556E-2,-1.7971411E-2,-1.9944051E-2,-3.2633055E-2,-9.629681E-3,5.8744573E-3,-2.9222459E-2,9.4610295E-4,2.1577178E-2,-1.1823897E-3,-3.0388515E-2,1.3243645E-2,8.377404E-3,3.278982E-2,1.211854E-2,-1.0695234E-2,4.4811286E-2,1.9485557E-3,3.5484947E-2,1.415712E-2,-3.2320593E-3,2.3717636E-2],"split_indices":[8,8,4,8,2,12,8,12,3,12,3,2,14,7,0,0,0,0,12,3,7,2,0,7,8,2,7,12,7,0,0,0,0,0,0,0,0,0,0,0,0,0,0,0,0,0,0,0,0,0,0],"split_type":[0,0,0,0,0,0,0,0,0,0,0,0,0,0,0,0,0,0,0,0,0,0,0,0,0,0,0,0,0,0,0,0,0,0,0,0,0,0,0,0,0,0,0,0,0,0,0,0,0,0,0],"sum_hessian":[4.5280996E3,2.493109E3,2.0349908E3,1.3183864E3,1.1747225E3,1.0194062E3,1.01558466E3,4.0971884E2,9.086675E2,9.369722E2,2.3775032E2,4.9615424E2,5.2325195E2,8.028857E2,2.1269897E2,1.6917862E2,2.4054022E2,4.706744E1,8.616001E2,7.6885297E2,1.681193E2,1.8851004E2,4.924028E1,1.3944919E2,3.5670508E2,4.193723E2,1.0387965E2,5.2838275E2,2.7450293E2,1.2337027E2,4.580835E1,6.9442053E2,1.6717953E2,5.4034985E2,2.2850308E2,1.335293E2,3.4589993E1,1.3672366E2,5.1786392E1,7.586391E1,6.3585274E1,1.1174925E2,2.4495581E2,1.0635582E2,3.1301648E2,6.212739E1,4.175225E1,4.560305E2,7.235225E1,5.976272E1,2.1474022E2],"tree_param":{"num_deleted":"0","num_feature":"16","num_nodes":"51","size_leaf_vector":"1"}},{"base_weights":[2.7177578E-3,8.958645E-1,-3.7906635E-1,7.599349E-1,1.3814127E0,-5.0474714E-2,-8.22728E-1,8.690433E-1,3.4019724E-1,2.8470507E-2,4.2928368E-2,5.2324127E-2,-5.290649E-1,-6.242433E-1,-1.2449313E0,9.631353E-1,4.4208333E-1,3.3609297E-2,1.6529545E-1,-1.6465677E-1,3.7713328E-1,-7.510103E-1,2.2880161E-1,-6.6727006E-1,1.7107926E-2,-1.2997535E0,-2.0562911E-2,2.0165123E-2,3.464322E-2,2.178062E-2,-1.7659297E-2,-9.690449E-3,1.9584706E-2,-1.495533E-2,3.4264557E-3,2.362445E-2,5.479303E-3,-1.2760793E-2,-4.370474E-2,2.7165676E-2,-1.8466331E-2,-1.6375015E-2,-3.571971E-2,-3.2912757E-2,-4.2514246E-2],"categories":[],"categories_nodes":[],"categories_segments":[],"categories_sizes":[],"default_left":[0,0,0,0,0,0,0,0,0,0,0,0,0,0,0,0,0,0,0,0,0,0,0,0,0,0,0,0,0,0,0,0,0,0,0,0,0,0,0,0,0,0,0,0,0],"id":13,"left_children":[1,3,5,7,9,11,13,15,17,-1,-1,19,21,23,25,27,29,-1,31,33,35,37,39,41,-1,43,-1,-1,-1,-1,-1,-1,-1,-1,-1,-1,-1,-1,-1,-1,-1,-1,-1,-1,-1],"loss_changes":[1.5410051E3,8.6582886E1,4.6111423E2,4.7696472E1,2.84729E0,8.979061E1,1.1070935E2,3.2524475E1,2.9674007E1,0E0,0E0,1.05928764E2,5.4777405E1,4.808963E1,1.0752014E1,3.6211975E1,4.660774E1,0E0,4.452448E1,8.4050865E1,4.7468895E1,5.5741714E1,4.3667603E1,5.4712067E1,0E0,5.345886E0,0E0,0E0,0E0,0E0,0E0,0E0,0E0,0E0,0E0,0E0,0E0,0E0,0E0,0E0,0E0,0E0,0E0,0E0,0E0],"parents":[2147483647,0,0,1,1,2,2,3,3,4,4,5,5,6,6,7,7,8,8,11,11,12,12,13,13,14,14,15,15,16,16,18,18,19,19,20,20,21,21,22,22,23,23,25,25],"right_children":[2,4,6,8,10,12,14,16,18,-1,-1,20,22,24,26,28,30,-1,32,34,36,38,40,42,-1,44,-1,-1,-1,-1,-1,-1,-1,-1,-1,-1,-1,-1,-1,-1,-1,-1,-1,-1,-1],"split_conditions":[-2.2976726E-1,6.9E-1,2.696656E-1,7.189512E-4,3.067E-1,6.666667E-1,6.2878E-1,6.666667E-1,-1.087488E-3,2.8470507E-2,4.2928368E-2,1.4094767E-4,9.5725094E-4,4.859111E1,3.326299E1,1.09609704E-4,4.77401E-4,3.3609297E-2,7.742244E-4,3.8588388E-4,6.618682E-5,2.797945E-4,8.75427E0,6.666667E-1,1.7107926E-2,5E-1,-2.0562911E-2,2.0165123E-2,3.464322E-2,2.178062E-2,-1.7659297E-2,-9.690449E-3,1.9584706E-2,-1.495533E-2,3.4264557E-3,2.362445E-2,5.479303E-3,-1.2760793E-2,-4.370474E-2,2.7165676E-2,-1.8466331E-2,-1.6375015E-2,-3.571971E-2,-3.2912757E-2,-4.2514246E-2],"split_indices":[11,8,11,5,15,12,11,12,2,0,0,3,2,7,7,2,5,0,3,5,1,1,7,12,0,12,0,0,0,0,0,0,0,0,0,0,0,0,0,0,0,0,0,0,0],"split_type":[0,0,0,0,0,0,0,0,0,0,0,0,0,0,0,0,0,0,0,0,0,0,0,0,0,0,0,0,0,0,0,0,0,0,0,0,0,0,0,0,0,0,0,0,0],"sum_hessian":[4.5147725E3,1.3513989E3,3.1633735E3,1.0603119E3,2.9108704E2,1.819035E3,1.3443385E3,8.392882E2,2.2102373E2,3.4684593E1,2.5640247E2,1.4983511E3,3.2068405E2,9.182989E2,4.260396E2,6.85095E2,1.541932E2,3.8184372E1,1.8283936E2,8.9831555E2,6.0003546E2,2.4836337E2,7.232066E1,8.874658E2,3.0833054E1,3.8512152E2,4.0918118E1,2.762483E2,4.0884668E2,1.2158274E2,3.2610466E1,9.137614E1,9.146323E1,4.0862582E2,4.8968976E2,1.9048866E2,4.095468E2,1.7243513E2,7.592824E1,4.0262077E1,3.205859E1,7.241155E2,1.6335036E2,1.4978171E2,2.353398E2],"tree_param":{"num_deleted":"0","num_feature":"16","num_nodes":"45","size_leaf_vector":"1"}},{"base_weights":[3.6181803E-3,8.112924E-1,-4.007213E-1,4.557746E-1,1.0467488E0,-6.694536E-2,-8.235595E-1,7.645694E-1,1.2059434E-1,1.3773456E0,9.121366E-1,-1.912731E-2,-1.1492586E0,-6.4306706E-1,-1.2332402E0,-2.8591204E-1,1.0903986E0,-1.4526264E-1,8.924698E-1,2.5660906E-2,4.313199E-2,1.0740505E0,5.1463795E-1,9.0967365E-2,-4.8851892E-1,-1.9862385E-2,-4.9674567E-2,2.0039657E-2,-7.067858E-1,-1.956704E-2,-1.2975E0,1.3235401E-2,-2.3842702E-2,2.308024E-2,4.218787E-2,-2.7837893E-2,2.8913508E-3,6.6805985E-3,4.288837E-2,3.485256E-2,2.1106878E-3,3.16256E-2,4.594077E-3,-5.320249E-3,9.735813E-3,-2.1094646E-2,6.762124E-3,-1.6689291E-2,-3.215915E-2,-4.349356E-2,-3.4759667E-2],"categories":[],"categories_nodes":[],"categories_segments":[],"categories_sizes":[],"default_left":[0,0,0,0,0,0,0,0,0,0,0,0,0,0,0,0,0,0,0,0,0,0,0,0,0,0,0,0,0,0,0,0,0,0,0,0,0,0,0,0,0,0,0,0,0,0,0,0,0,0,0],"id":14,"left_children":[1,3,5,7,9,11,13,15,17,19,21,23,25,27,29,31,33,35,37,-1,-1,39,41,43,45,-1,-1,-1,47,-1,49,-1,-1,-1,-1,-1,-1,-1,-1,-1,-1,-1,-1,-1,-1,-1,-1,-1,-1,-1,-1],"loss_changes":[1.469622E3,1.24275696E2,4.227884E2,6.188292E1,3.6904297E1,8.6460045E1,9.561493E1,1.078665E2,6.032676E1,4.9279175E0,4.005719E1,8.3383415E1,1.456208E1,7.8017914E1,1.2718506E1,2.8694618E1,2.1445038E1,4.172219E1,2.5950943E1,0E0,0E0,3.972406E1,3.6692352E1,8.193171E1,4.7444237E1,0E0,0E0,0E0,4.6726074E1,0E0,3.4522095E0,0E0,0E0,0E0,0E0,0E0,0E0,0E0,0E0,0E0,0E0,0E0,0E0,0E0,0E0,0E0,0E0,0E0,0E0,0E0,0E0],"parents":[2147483647,0,0,1,1,2,2,3,3,4,4,5,5,6,6,7,7,8,8,9,9,10,10,11,11,12,12,13,13,14,14,15,15,16,16,17,17,18,18,21,21,22,22,23,23,24,24,28,28,30,30],"right_children":[2,4,6,8,10,12,14,16,18,20,22,24,26,28,30,32,34,36,38,-1,-1,40,42,44,46,-1,-1,-1,48,-1,50,-1,-1,-1,-1,-1,-1,-1,-1,-1,-1,-1,-1,-1,-1,-1,-1,-1,-1,-1,-1],"split_conditions":[-1.7000483E-1,4.3519228E-4,2.698262E-1,5E-1,-7.076722E-1,5E-1,6.2944674E-1,-4.4420315E-4,2E-1,7.2857144E-4,7.189512E-4,6.666667E-1,-5.631296E-4,-3E0,-2E0,-3.624287E-5,0E0,2.4648083E-4,9.9686927E-1,2.5660906E-2,4.313199E-2,3E0,0E0,4.25764E-4,9.5725094E-4,-1.9862385E-2,-4.9674567E-2,2.0039657E-2,2E0,-1.956704E-2,-1.1050919E-3,1.3235401E-2,-2.3842702E-2,2.308024E-2,4.218787E-2,-2.7837893E-2,2.8913508E-3,6.6805985E-3,4.288837E-2,3.485256E-2,2.1106878E-3,3.16256E-2,4.594077E-3,-5.320249E-3,9.735813E-3,-2.1094646E-2,6.762124E-3,-1.6689291E-2,-3.215915E-2,-4.349356E-2,-3.4759667E-2],"split_indices":[11,4,11,12,11,14,11,2,14,4,5,12,2,13,13,0,13,5,6,0,0,13,13,5,2,0,0,0,13,0,2,0,0,0,0,0,0,0,0,0,0,0,0,0,0,0,0,0,0,0,0],"split_type":[0,0,0,0,0,0,0,0,0,0,0,0,0,0,0,0,0,0,0,0,0,0,0,0,0,0,0,0,0,0,0,0,0,0,0,0,0,0,0,0,0,0,0,0,0,0,0,0,0,0,0],"sum_hessian":[4.4957427E3,1.4993993E3,2.9963438E3,6.002387E2,8.991605E2,1.6762152E3,1.3201285E3,3.1061667E2,2.8962204E2,2.541923E2,6.4496826E2,1.607506E3,6.870923E1,9.2047003E2,3.9965845E2,7.337573E1,2.3724092E2,2.1634225E2,7.327979E1,3.0017916E1,2.241744E2,4.5533633E2,1.8963191E2,1.3028895E3,3.0461633E2,3.767854E1,3.1030693E1,4.1565105E1,8.7890497E2,4.2486298E1,3.5717215E2,3.0076118E1,4.3299614E1,1.2153189E2,1.1570903E2,4.998943E1,1.6635281E2,3.412087E1,3.915892E1,4.181823E2,3.7154003E1,7.420998E1,1.1542194E2,6.059652E2,6.969244E2,2.3455069E2,7.006566E1,6.2658624E2,2.5231871E2,1.6030473E2,1.968674E2],"tree_param":{"num_deleted":"0","num_feature":"16","num_nodes":"51","size_leaf_vector":"1"}},{"base_weights":[-5.4162676E-3,8.289689E-1,-3.6143857E-1,5.723534E-1,1.1295245E0,-3.867621E-2,-7.943227E-1,-9.360459E-2,6.7891675E-1,7.2639775E-1,1.2211688E0,5.576034E-2,-4.7051626E-1,-1.2407349E0,-6.454944E-1,2.1628583E-2,-2.4006134E-2,9.8525715E-1,3.6748725E-1,3.2235797E-2,3.8615298E-1,4.124348E-2,1.0363202E0,1.0882399E-1,-1.018696E0,1.03619695E-1,-6.913699E-1,-1.3313868E0,-9.915729E-1,-7.141189E-1,1.2463778E-1,6.457534E-3,3.76886E-2,1.7137203E-2,-2.1369819E-2,2.2455981E-2,7.1071496E-5,3.6372136E-2,2.4431255E-2,-4.04868E-3,8.722165E-3,-1.359406E-2,-4.8662532E-2,-2.1908194E-2,2.9269364E-2,-2.6860857E-2,1.1568111E-2,-2.7850797E-2,-4.2378582E-2,-1.4907095E-2,-3.6639113E-2,-1.5651869E-2,-2.8475562E-2,-1.6916133E-2,1.6062774E-2],"categories":[],"categories_nodes":[],"categories_segments":[],"categories_sizes":[],"default_left":[0,0,0,0,0,0,0,0,0,0,0,0,0,0,0,0,0,0,0,0,0,0,0,0,0,0,0,0,0,0,0,0,0,0,0,0,0,0,0,0,0,0,0,0,0,0,0,0,0,0,0,0,0,0,0],"id":15,"left_children":[1,3,5,7,9,11,13,15,17,19,21,23,25,27,29,-1,-1,31,33,-1,35,-1,37,39,41,43,45,47,49,51,53,-1,-1,-1,-1,-1,-1,-1,-1,-1,-1,-1,-1,-1,-1,-1,-1,-1,-1,-1,-1,-1,-1,-1,-1],"loss_changes":[1.3290594E3,1.01390564E2,4.3792044E2,5.1848526E1,2.031195E1,7.3555435E1,8.680847E1,5.9633232E1,5.8666626E1,1.2851505E1,1.052356E1,8.4196625E1,4.1359085E1,4.1655884E0,5.368283E1,0E0,0E0,6.46091E1,6.996227E1,0E0,8.650076E0,0E0,6.574692E0,6.266301E1,2.1613792E1,6.787203E1,5.2335243E1,4.428772E0,9.331741E0,4.0497864E1,2.432545E1,0E0,0E0,0E0,0E0,0E0,0E0,0E0,0E0,0E0,0E0,0E0,0E0,0E0,0E0,0E0,0E0,0E0,0E0,0E0,0E0,0E0,0E0,0E0,0E0],"parents":[2147483647,0,0,1,1,2,2,3,3,4,4,5,5,6,6,7,7,8,8,9,9,10,10,11,11,12,12,13,13,14,14,17,17,18,18,20,20,22,22,23,23,24,24,25,25,26,26,27,27,28,28,29,29,30,30],"right_children":[2,4,6,8,10,12,14,16,18,20,22,24,26,28,30,-1,-1,32,34,-1,36,-1,38,40,42,44,46,48,50,52,54,-1,-1,-1,-1,-1,-1,-1,-1,-1,-1,-1,-1,-1,-1,-1,-1,-1,-1,-1,-1,-1,-1,-1,-1],"split_conditions":[-2.2976726E-1,6.286635E-4,2.696656E-1,4.8658141E-1,2.433E-1,6.666667E-1,-6.7E-1,3.3152456E-4,6E-1,1.094452E1,-6.68667E-1,5E-1,3.61305E0,-5.7676376E-4,3.086641E1,2.1628583E-2,-2.4006134E-2,-1.8877091E-4,1.0501054E-3,3.2235797E-2,1.013149E-3,4.124348E-2,9.399813E-4,-2.6949827E-4,-5.631296E-4,3.282555E-4,2.186085E1,-2.2875725E-3,-5.642997E-4,1.0417894E0,2.267E-1,6.457534E-3,3.76886E-2,1.7137203E-2,-2.1369819E-2,2.2455981E-2,7.1071496E-5,3.6372136E-2,2.4431255E-2,-4.04868E-3,8.722165E-3,-1.359406E-2,-4.8662532E-2,-2.1908194E-2,2.9269364E-2,-2.6860857E-2,1.1568111E-2,-2.7850797E-2,-4.2378582E-2,-1.4907095E-2,-3.6639113E-2,-1.5651869E-2,-2.8475562E-2,-1.6916133E-2,1.6062774E-2],"split_indices":[11,4,11,6,15,12,8,1,12,7,11,14,7,1,7,0,0,1,1,0,4,0,2,3,2,3,7,2,3,6,15,0,0,0,0,0,0,0,0,0,0,0,0,0,0,0,0,0,0,0,0,0,0,0,0],"split_type":[0,0,0,0,0,0,0,0,0,0,0,0,0,0,0,0,0,0,0,0,0,0,0,0,0,0,0,0,0,0,0,0,0,0,0,0,0,0,0,0,0,0,0,0,0,0,0,0,0,0,0,0,0,0,0],"sum_hessian":[4.4705024E3,1.3359734E3,3.134529E3,7.243379E2,6.1163556E2,1.79731E3,1.3372191E3,9.9562E1,6.247759E2,1.1720374E2,4.9443182E2,1.4756549E3,3.2165518E2,3.3017288E2,1.00704614E3,4.6031918E1,5.3530075E1,3.1229425E2,3.1248163E2,5.5361504E1,6.184224E1,2.621123E2,2.3231952E2,1.408186E3,6.746876E1,8.927562E1,2.3237958E2,2.3484058E2,9.533231E1,9.25144E2,8.19022E1,8.252701E1,2.2976726E2,2.639046E2,4.8577026E1,3.042839E1,3.141385E1,1.23813034E2,1.08506485E2,6.0128485E2,8.0690125E2,3.689033E1,3.0578426E1,4.5625946E1,4.3649673E1,1.9589119E2,3.6488384E1,4.4182735E1,1.9065784E2,3.2653267E1,6.2679047E1,5.129972E2,4.1214676E2,3.0054005E1,5.1848198E1],"tree_param":{"num_deleted":"0","num_feature":"16","num_nodes":"55","size_leaf_vector":"1"}},{"base_weights":[6.007781E-3,7.61722E-1,-3.733118E-1,9.6051216E-1,3.9539394E-1,-1.3024175E-1,-9.185089E-1,8.547941E-1,4.2223055E-2,6.161604E-1,1.7014757E-1,-3.7389796E-2,-5.429229E-1,-9.771725E-1,1.4618981E-2,9.221638E-1,2.1049814E-1,-2.3608325E-1,9.239204E-1,-1.6355108E-2,3.3702648E-1,-2.5714427E-1,2.0175165E-1,2.328226E-2,-7.520497E-1,-8.5412306E-1,-4.3367136E-2,2.2707738E-2,3.505406E-2,-9.850856E-3,1.8378135E-2,-2.39012E-2,1.23249395E-2,1.4772325E-2,3.439481E-2,2.8688734E-2,3.8200347E-3,-1.3767027E-2,3.3337686E-3,1.3728362E-2,-3.0860684E-3,-2.455933E-2,2.717381E-2,-2.9645683E-2,-1.5695046E-3,-3.651807E-2,-1.9899376E-2],"categories":[],"categories_nodes":[],"categories_segments":[],"categories_sizes":[],"default_left":[0,0,0,0,0,0,0,0,0,0,0,0,0,0,0,0,0,0,0,0,0,0,0,0,0,0,0,0,0,0,0,0,0,0,0,0,0,0,0,0,0,0,0,0,0,0,0],"id":16,"left_children":[1,3,5,7,9,11,13,15,-1,17,19,21,23,25,-1,27,29,31,33,-1,35,37,39,41,43,45,-1,-1,-1,-1,-1,-1,-1,-1,-1,-1,-1,-1,-1,-1,-1,-1,-1,-1,-1,-1,-1],"loss_changes":[1.2782363E3,1.0736267E2,3.9282132E2,4.2468994E1,2.5819038E1,7.855893E1,7.652814E1,3.3360718E1,0E0,7.022872E1,3.1923162E1,8.8457184E1,4.4875404E1,4.7494507E1,0E0,2.6549438E1,1.7249378E1,2.6782372E1,1.7163559E1,0E0,2.7524672E1,6.5405655E1,6.2975586E1,7.818618E1,4.5130997E1,4.6422974E1,0E0,0E0,0E0,0E0,0E0,0E0,0E0,0E0,0E0,0E0,0E0,0E0,0E0,0E0,0E0,0E0,0E0,0E0,0E0,0E0,0E0],"parents":[2147483647,0,0,1,1,2,2,3,3,4,4,5,5,6,6,7,7,9,9,10,10,11,11,12,12,13,13,15,15,16,16,17,17,18,18,20,20,21,21,22,22,23,23,24,24,25,25],"right_children":[2,4,6,8,10,12,14,16,-1,18,20,22,24,26,-1,28,30,32,34,-1,36,38,40,42,44,46,-1,-1,-1,-1,-1,-1,-1,-1,-1,-1,-1,-1,-1,-1,-1,-1,-1,-1,-1,-1,-1],"split_conditions":[-1.6983907E-1,-3.497948E-1,4.095664E-1,7.6E-1,6E-1,6.666667E-1,4.859111E1,1.0997481E-3,4.2223055E-2,-4.776276E-4,2.352066E-4,-9.471424E-5,3.61305E0,6.666667E-1,1.4618981E-2,3.328864E-4,1.3534286E-3,7.35885E0,-2.9480155E-4,-1.6355108E-2,3.3920887E-4,9.38505E0,7.020349E-2,3.282555E-4,1.679607E1,-6.7E-1,-4.3367136E-2,2.2707738E-2,3.505406E-2,-9.850856E-3,1.8378135E-2,-2.39012E-2,1.23249395E-2,1.4772325E-2,3.439481E-2,2.8688734E-2,3.8200347E-3,-1.3767027E-2,3.3337686E-3,1.3728362E-2,-3.0860684E-3,-2.455933E-2,2.717381E-2,-2.9645683E-2,-1.5695046E-3,-3.651807E-2,-1.9899376E-2],"split_indices":[11,11,11,8,12,12,7,0,0,2,5,2,7,12,0,0,3,7,3,0,5,7,11,3,7,8,0,0,0,0,0,0,0,0,0,0,0,0,0,0,0,0,0,0,0,0,0],"split_type":[0,0,0,0,0,0,0,0,0,0,0,0,0,0,0,0,0,0,0,0,0,0,0,0,0,0,0,0,0,0,0,0,0,0,0,0,0,0,0,0,0,0,0,0,0,0,0],"sum_hessian":[4.4547207E3,1.488324E3,2.966397E3,9.621464E2,5.2617755E2,2.0537732E3,9.126237E2,7.8334534E2,1.7880107E2,2.633058E2,2.6287177E2,1.6789279E3,3.7484534E2,8.768562E2,3.5767506E1,7.079876E2,7.5357704E1,6.972248E1,1.935833E2,4.8527916E1,2.1434386E2,8.7550397E2,8.034238E2,1.0119781E2,2.7364752E2,6.9940765E2,1.7744856E2,4.293278E2,2.7865985E2,3.2040783E1,4.331692E1,3.7352783E1,3.2369698E1,6.8518005E1,1.2506529E2,5.205699E1,1.6228687E2,5.6583417E2,3.096698E2,4.36649E2,3.6677484E2,5.1689854E1,4.950795E1,2.0366367E2,6.998385E1,2.3666373E2,4.6274393E2],"tree_param":{"num_deleted":"0","num_feature":"16","num_nodes":"47","size_leaf_vector":"1"}},{"base_weights":[-2.9098534E-4,-4.78675E-1,5.8525133E-1,-8.426195E-1,-1.847353E-1,2.821124E-1,1.0007657E0,-1.2159961E0,-6.8841374E-1,-2.2326793E-1,2.69901E-2,8.774226E-1,2.1114787E-1,8.6420536E-1,1.3151426E0,-1.0206059E0,-1.346307E0,-7.6168865E-1,1.0012805E-1,1.2580639E-1,-3.2077366E-1,3.6135358E-1,4.497868E-2,-1.5127972E-1,4.0366703E-1,1.0289596E0,4.9352542E-1,2.743201E-2,4.0844742E-2,-3.510113E-2,-1.4807583E-2,-4.2446557E-2,-2.876701E-2,-1.9412411E-2,-3.799253E-2,2.0237815E-2,-1.4790336E-2,-6.4993026E-3,1.6652301E-2,-1.7276589E-2,-4.1549224E-3,2.3891378E-2,-4.8302063E-3,-1.5853878E-2,4.5403102E-3,2.6182825E-2,5.0052017E-4,1.1201067E-2,3.392568E-2,2.8885592E-2,6.0772006E-3],"categories":[],"categories_nodes":[],"categories_segments":[],"categories_sizes":[],"default_left":[0,0,0,0,0,0,0,0,0,0,0,0,0,0,0,0,0,0,0,0,0,0,0,0,0,0,0,0,0,0,0,0,0,0,0,0,0,0,0,0,0,0,0,0,0,0,0,0,0,0,0],"id":17,"left_children":[1,3,5,7,9,11,13,15,17,19,-1,21,23,25,27,29,31,33,35,37,39,41,-1,43,45,47,49,-1,-1,-1,-1,-1,-1,-1,-1,-1,-1,-1,-1,-1,-1,-1,-1,-1,-1,-1,-1,-1,-1,-1,-1],"loss_changes":[1.243399E3,2.6076318E2,2.5042334E2,6.0550964E1,5.6804222E1,4.81845E1,3.31615E1,4.577606E0,4.5249084E1,4.4729637E1,0E0,3.7561035E1,7.254804E1,3.4714508E1,1.4720764E0,9.013855E0,1.4135742E0,3.894803E1,2.3715073E1,4.2503147E1,4.730195E1,1.6275452E1,0E0,4.1437706E1,1.228335E2,2.5946808E1,2.4758419E1,0E0,0E0,0E0,0E0,0E0,0E0,0E0,0E0,0E0,0E0,0E0,0E0,0E0,0E0,0E0,0E0,0E0,0E0,0E0,0E0,0E0,0E0,0E0,0E0],"parents":[2147483647,0,0,1,1,2,2,3,3,4,4,5,5,6,6,7,7,8,8,9,9,11,11,12,12,13,13,14,14,15,15,16,16,17,17,18,18,19,19,20,20,21,21,23,23,24,24,25,25,26,26],"right_children":[2,4,6,8,10,12,14,16,18,20,-1,22,24,26,28,30,32,34,36,38,40,42,-1,44,46,48,50,-1,-1,-1,-1,-1,-1,-1,-1,-1,-1,-1,-1,-1,-1,-1,-1,-1,-1,-1,-1,-1,-1,-1,-1],"split_conditions":[2E-2,-3.4E-1,4.7964102E-4,-6.7E-1,6.1926834E-4,-6.898931E-4,7.1E-1,5E-1,3.086641E1,3.00201E0,2.69901E-2,-7.728032E-4,-6.2051084E-5,7.189512E-4,7.459086E-4,-2.3012883E-4,-3.6530595E-4,6.666667E-1,-5.760583E-4,2.18541E0,7.24901E0,5.3521496E-4,4.497868E-2,4.66685E0,5E-1,-2.0583664E-4,8.116187E-5,2.743201E-2,4.0844742E-2,-3.510113E-2,-1.4807583E-2,-4.2446557E-2,-2.876701E-2,-1.9412411E-2,-3.799253E-2,2.0237815E-2,-1.4790336E-2,-6.4993026E-3,1.6652301E-2,-1.7276589E-2,-4.1549224E-3,2.3891378E-2,-4.8302063E-3,-1.5853878E-2,4.5403102E-3,2.6182825E-2,5.0052017E-4,1.1201067E-2,3.392568E-2,2.8885592E-2,6.0772006E-3],"split_indices":[8,8,4,8,4,1,8,12,7,7,0,2,2,5,4,0,1,12,0,7,7,5,0,7,12,1,1,0,0,0,0,0,0,0,0,0,0,0,0,0,0,0,0,0,0,0,0,0,0,0,0],"split_type":[0,0,0,0,0,0,0,0,0,0,0,0,0,0,0,0,0,0,0,0,0,0,0,0,0,0,0,0,0,0,0,0,0,0,0,0,0,0,0,0,0,0,0,0,0,0,0,0,0,0,0],"sum_hessian":[4.435016E3,2.4413376E3,1.9936786E3,1.0886548E3,1.3526829E3,1.1550735E3,8.386051E2,3.136064E2,7.750483E2,1.3080676E3,4.4615242E1,1.20155136E2,1.0349183E3,5.9053723E2,2.4806784E2,1.3346031E2,1.801461E2,7.095612E2,6.548711E1,2.848033E2,1.0232643E3,6.76549E1,5.250024E1,3.5863635E2,6.7628204E2,4.058085E2,1.8472873E2,3.0685314E1,2.1738252E2,1.01633575E2,3.1826742E1,1.4788834E2,3.2257782E1,5.8246094E2,1.27100266E2,3.3384632E1,3.2102474E1,1.5858452E2,1.26218796E2,4.2394666E2,5.993176E2,3.6654182E1,3.1000715E1,1.5942789E2,1.9920848E2,3.042228E2,3.720592E2,5.623986E1,3.4956866E2,6.853188E1,1.1619685E2],"tree_param":{"num_deleted":"0","num_feature":"16","num_nodes":"51","size_leaf_vector":"1"}},{"base_weights":[4.142475E-3,-4.633853E-1,5.7380724E-1,-2.731932E-1,-9.8694277E-1,3.346584E-1,1.0356528E0,-1.08590856E-1,-4.797749E-1,-3.2009354E-1,-1.0781142E0,2.3491226E-1,7.99267E-1,1.1959482E0,7.276262E-1,-4.023402E-2,-1.0653042E0,1.6513487E-2,-5.341352E-1,6.3482574E-3,-2.3408793E-2,-1.190138E0,-6.865647E-1,5.149212E-1,-6.2491868E-2,5.072423E-1,4.378035E-2,1.3420427E0,4.8390764E-1,1.8785503E-2,1.0075636E0,-2.8211318E-3,3.8439296E-2,-1.8143803E-2,-4.2748343E-2,-1.3306669E-2,-3.1034037E-2,-3.982E-2,-2.9323421E-2,-3.745918E-2,-9.094042E-3,-9.4899E-3,2.5297105E-2,-2.57939E-2,3.36636E-3,2.1869104E-2,-1.0052614E-2,2.2636136E-2,4.1824423E-2,3.9657071E-4,2.87734E-2,9.1315955E-3,-9.888962E-3,4.163145E-2,2.4741668E-2],"categories":[],"categories_nodes":[],"categories_segments":[],"categories_sizes":[],"default_left":[0,0,0,0,0,0,0,0,0,0,0,0,0,0,0,0,0,0,0,0,0,0,0,0,0,0,0,0,0,0,0,0,0,0,0,0,0,0,0,0,0,0,0,0,0,0,0,0,0,0,0,0,0,0,0],"id":18,"left_children":[1,3,5,7,9,11,13,15,17,19,21,23,25,27,29,31,33,-1,35,-1,-1,37,39,41,43,45,-1,47,49,51,53,-1,-1,-1,-1,-1,-1,-1,-1,-1,-1,-1,-1,-1,-1,-1,-1,-1,-1,-1,-1,-1,-1,-1,-1],"loss_changes":[1.187323E3,2.4286218E2,2.2087079E2,6.089183E1,3.8480103E1,6.0833725E1,3.146759E1,6.5282455E1,4.5182648E1,2.0457829E1,2.2875366E1,9.1489044E1,4.289261E1,4.4579956E1,4.7267967E1,6.67222E1,8.701286E0,0E0,3.298001E1,0E0,0E0,9.58606E0,2.732956E1,1.5498566E2,7.464099E1,3.144143E1,0E0,8.542419E0,1.7455746E1,7.186052E0,8.980057E0,0E0,0E0,0E0,0E0,0E0,0E0,0E0,0E0,0E0,0E0,0E0,0E0,0E0,0E0,0E0,0E0,0E0,0E0,0E0,0E0,0E0,0E0,0E0,0E0],"parents":[2147483647,0,0,1,1,2,2,3,3,4,4,5,5,6,6,7,7,8,8,9,9,10,10,11,11,12,12,13,13,14,14,15,15,16,16,18,18,21,21,22,22,23,23,24,24,25,25,27,27,28,28,29,29,30,30],"right_children":[2,4,6,8,10,12,14,16,18,20,22,24,26,28,30,32,34,-1,36,-1,-1,38,40,42,44,46,-1,48,50,52,54,-1,-1,-1,-1,-1,-1,-1,-1,-1,-1,-1,-1,-1,-1,-1,-1,-1,-1,-1,-1,-1,-1,-1,-1],"split_conditions":[2E-2,5.095476E-1,5.84679E-4,2.297839E-1,-2E0,2E-1,7.189512E-4,5E-1,-3E0,-1.4524324E-3,-6.4687297E-4,6E-1,2E0,6.666667E-1,2.7E-1,6.1926834E-4,-9.63148E-4,1.6513487E-2,3E0,6.3482574E-3,-2.3408793E-2,6.790057E-4,2.6682662E-4,-4.3172488E-4,2.4117557E-4,4E-1,4.378035E-2,-2.356488E-4,8.2610105E-4,-4.6926335E-1,4.5363435E-5,-2.8211318E-3,3.8439296E-2,-1.8143803E-2,-4.2748343E-2,-1.3306669E-2,-3.1034037E-2,-3.982E-2,-2.9323421E-2,-3.745918E-2,-9.094042E-3,-9.4899E-3,2.5297105E-2,-2.57939E-2,3.36636E-3,2.1869104E-2,-1.0052614E-2,2.2636136E-2,4.1824423E-2,3.9657071E-4,2.87734E-2,9.1315955E-3,-9.888962E-3,4.163145E-2,2.4741668E-2],"split_indices":[8,11,4,11,13,14,5,14,13,2,4,12,13,12,15,4,2,0,13,0,0,5,5,2,5,14,0,1,4,11,1,0,0,0,0,0,0,0,0,0,0,0,0,0,0,0,0,0,0,0,0,0,0,0,0],"split_type":[0,0,0,0,0,0,0,0,0,0,0,0,0,0,0,0,0,0,0,0,0,0,0,0,0,0,0,0,0,0,0,0,0,0,0,0,0,0,0,0,0,0,0,0,0,0,0,0,0,0,0,0,0,0,0],"sum_hessian":[4.4538994E3,2.446163E3,2.0077365E3,1.7969895E3,6.4917365E2,1.3254844E3,6.8225195E2,1.0026171E3,7.943724E2,7.956061E1,5.6961304E2,1.094224E3,2.3126044E2,4.4430093E2,2.3795103E2,9.3799536E2,6.4621765E1,3.862322E1,7.5574915E2,3.711148E1,4.244913E1,4.3913068E2,1.3048238E2,5.633605E2,5.308635E2,1.6309645E2,6.816398E1,3.668424E2,7.7458534E1,6.8275E1,1.6967603E2,9.033041E2,3.4691315E1,3.1054604E1,3.3567158E1,6.4360455E2,1.1214463E2,2.5971237E2,1.794183E2,5.0767002E1,7.971538E1,1.5926985E2,4.0409064E2,9.431369E1,4.3654984E2,1.2960548E2,3.3490967E1,3.287555E1,3.3396686E2,4.0264103E1,3.719443E1,3.8131805E1,3.01432E1,5.029201E1,1.1938402E2],"tree_param":{"num_deleted":"0","num_feature":"16","num_nodes":"55","size_leaf_vector":"1"}},{"base_weights":[-1.1022969E-2,7.670522E-1,-3.351346E-1,5.282316E-1,1.049833E0,-4.9794033E-2,-7.339864E-1,-6.880586E-2,6.27613E-1,1.2249181E0,7.3324984E-1,-2.843193E-1,1.0671656E-1,-1.1618345E0,-5.939009E-1,2.0050533E-2,-2.1452568E-2,7.266114E-1,-2.226357E-1,1.7763812E-2,1.2786945E0,1.6923493E-1,1.0120419E0,-4.0388268E-1,8.569749E-1,-7.559202E-1,1.961655E-1,-1.9366737E-2,-1.2128075E0,-6.531729E-1,1.6102955E-2,2.428791E-2,4.308292E-3,1.3023947E-2,-2.6584934E-2,2.3341361E-2,3.9676536E-2,-2.0008946E-3,1.3574098E-2,1.63184E-2,3.4743678E-2,-2.970851E-4,-1.9428138E-2,5.034059E-3,4.6471182E-2,-3.4583997E-2,5.2353586E-3,4.4592815E-3,3.6953844E-2,-2.9930733E-2,-3.958308E-2,-1.3515646E-2,-2.6800502E-2,1.948481E-2,-3.0631138E-2],"categories":[],"categories_nodes":[],"categories_segments":[],"categories_sizes":[],"default_left":[0,0,0,0,0,0,0,0,0,0,0,0,0,0,0,0,0,0,0,0,0,0,0,0,0,0,0,0,0,0,0,0,0,0,0,0,0,0,0,0,0,0,0,0,0,0,0,0,0,0,0,0,0,0,0],"id":19,"left_children":[1,3,5,7,9,11,13,15,17,19,21,23,25,27,29,-1,-1,31,33,-1,35,37,39,41,43,45,47,-1,49,51,53,-1,-1,-1,-1,-1,-1,-1,-1,-1,-1,-1,-1,-1,-1,-1,-1,-1,-1,-1,-1,-1,-1,-1,-1],"loss_changes":[1.1115236E3,8.594116E1,3.538733E2,4.2216034E1,3.0362915E1,6.6800125E1,7.584741E1,4.9703392E1,5.156111E1,1.074707E1,3.326342E1,9.9961426E1,8.425891E1,6.228607E0,3.5714966E1,0E0,0E0,2.5820374E1,2.9018055E1,0E0,4.8898926E0,5.134403E0,8.060715E0,6.3259247E1,3.210446E1,3.855779E1,4.7932476E1,0E0,3.2332458E0,4.237622E1,5.932868E1,0E0,0E0,0E0,0E0,0E0,0E0,0E0,0E0,0E0,0E0,0E0,0E0,0E0,0E0,0E0,0E0,0E0,0E0,0E0,0E0,0E0,0E0,0E0,0E0],"parents":[2147483647,0,0,1,1,2,2,3,3,4,4,5,5,6,6,7,7,8,8,9,9,10,10,11,11,12,12,13,13,14,14,17,17,18,18,20,20,21,21,22,22,23,23,24,24,25,25,26,26,28,28,29,29,30,30],"right_children":[2,4,6,8,10,12,14,16,18,20,22,24,26,28,30,-1,-1,32,34,-1,36,38,40,42,44,46,48,-1,50,52,54,-1,-1,-1,-1,-1,-1,-1,-1,-1,-1,-1,-1,-1,-1,-1,-1,-1,-1,-1,-1,-1,-1,-1,-1],"split_conditions":[-2.2976726E-1,6.286635E-4,2.696656E-1,4.8658141E-1,7.189512E-4,3.5734678E-4,-6.7E-1,3.7157483E-4,2.243064E1,-2.3051264E-4,3.1E-1,1.679607E1,-4.730801E-4,4.4661975E-1,2.926415E1,2.0050533E-2,-2.1452568E-2,1.0582254E-3,4.413482E-4,1.7763812E-2,1.9E-1,1.0343196E-3,9.052346E-4,3.02813E0,1.202352E-4,8.477555E-4,6.600837E-4,-1.9366737E-2,-8.0424605E-4,1.0417894E0,-2.7737973E-4,2.428791E-2,4.308292E-3,1.3023947E-2,-2.6584934E-2,2.3341361E-2,3.9676536E-2,-2.0008946E-3,1.3574098E-2,1.63184E-2,3.4743678E-2,-2.970851E-4,-1.9428138E-2,5.034059E-3,4.6471182E-2,-3.4583997E-2,5.2353586E-3,4.4592815E-3,3.6953844E-2,-2.9930733E-2,-3.958308E-2,-1.3515646E-2,-2.6800502E-2,1.948481E-2,-3.0631138E-2],"split_indices":[11,4,11,6,5,5,8,1,7,1,15,7,4,6,7,0,0,1,5,0,15,1,4,7,4,5,4,0,0,6,0,0,0,0,0,0,0,0,0,0,0,0,0,0,0,0,0,0,0,0,0,0,0,0,0],"split_type":[0,0,0,0,0,0,0,0,0,0,0,0,0,0,0,0,0,0,0,0,0,0,0,0,0,0,0,0,0,0,0,0,0,0,0,0,0,0,0,0,0,0,0,0,0,0,0,0,0,0,0,0,0,0,0],"sum_hessian":[4.4040786E3,1.2939978E3,3.1100808E3,7.0521246E2,5.8878534E2,1.81478E3,1.2953008E3,1.0029331E2,6.049192E2,3.7481137E2,2.1397394E2,7.2647217E2,1.0883077E3,3.1537024E2,9.799306E2,4.660379E1,5.368952E1,5.424078E2,6.2511368E1,3.1676147E1,3.4313522E2,7.219957E1,1.4177438E2,6.589906E2,6.748157E1,1.0053196E2,9.877758E2,3.1323914E1,2.8404633E2,8.934659E2,8.64647E1,4.7368988E2,6.871792E1,3.1536022E1,3.0975346E1,3.1207361E1,3.1192786E2,3.9645325E1,3.255424E1,3.645625E1,1.0531813E2,2.5312413E2,4.058665E2,3.5273685E1,3.2207886E1,7.036283E1,3.0169127E1,9.469013E2,4.087451E1,1.01931885E2,1.8211444E2,4.883866E2,4.050793E2,5.4324844E1,3.2139854E1],"tree_param":{"num_deleted":"0","num_feature":"16","num_nodes":"55","size_leaf_vector":"1"}},{"base_weights":[-1.3389991E-2,7.5127226E-1,-3.29907E-1,5.034743E-1,1.0411942E0,-4.6472937E-2,-7.211582E-1,5.8786887E-1,-3.021506E-1,1.2054982E0,7.4020594E-1,-6.6934237E-3,-1.0512072E0,-5.5534476E-1,-1.0996746E0,1.0522609E-3,7.396088E-1,1.0161652E-2,-2.9367296E-2,1.2834015E0,7.772771E-1,2.4194724E-3,9.535275E-1,9.1665626E-2,-4.4127646E-1,-1.73303E-2,-4.5610696E-2,-3.9264655E-1,-9.8324525E-1,-1.5757954E-2,-1.1652664E0,2.360612E-2,-2.056923E-2,3.2233484E-2,1.2607745E-2,1.9491863E-2,4.0419273E-2,1.3251854E-2,3.1315684E-2,2.0764325E-2,3.8618598E-2,-6.3386247E-3,8.3852345E-3,-2.3182442E-2,-1.0650094E-3,1.9704895E-2,-1.3787577E-2,-3.6551125E-2,-1.9741984E-2,-3.911506E-2,-2.963422E-2],"categories":[],"categories_nodes":[],"categories_segments":[],"categories_sizes":[],"default_left":[0,0,0,0,0,0,0,0,0,0,0,0,0,0,0,0,0,0,0,0,0,0,0,0,0,0,0,0,0,0,0,0,0,0,0,0,0,0,0,0,0,0,0,0,0,0,0,0,0,0,0],"id":20,"left_children":[1,3,5,7,9,11,13,15,17,19,21,23,25,27,29,31,33,-1,-1,35,37,-1,39,41,43,-1,-1,45,47,-1,49,-1,-1,-1,-1,-1,-1,-1,-1,-1,-1,-1,-1,-1,-1,-1,-1,-1,-1,-1,-1],"loss_changes":[1.0592092E3,9.05235E1,3.430054E2,4.7704376E1,2.6706848E1,7.152388E1,7.987085E1,5.5895798E1,2.9870943E1,9.946472E0,2.9565933E1,7.420588E1,1.2758209E1,6.206711E1,1.3090515E1,7.2282906E1,5.2151917E1,0E0,0E0,1.0401611E1,4.3224716E0,0E0,1.1647568E1,8.055781E1,4.2810917E1,0E0,0E0,4.7057915E1,1.6829483E1,0E0,5.367096E0,0E0,0E0,0E0,0E0,0E0,0E0,0E0,0E0,0E0,0E0,0E0,0E0,0E0,0E0,0E0,0E0,0E0,0E0,0E0,0E0],"parents":[2147483647,0,0,1,1,2,2,3,3,4,4,5,5,6,6,7,7,8,8,9,9,10,10,11,11,12,12,13,13,14,14,15,15,16,16,19,19,20,20,22,22,23,23,24,24,27,27,28,28,30,30],"right_children":[2,4,6,8,10,12,14,16,18,20,22,24,26,28,30,32,34,-1,-1,36,38,-1,40,42,44,-1,-1,46,48,-1,50,-1,-1,-1,-1,-1,-1,-1,-1,-1,-1,-1,-1,-1,-1,-1,-1,-1,-1,-1,-1],"split_conditions":[-2.2976726E-1,6.286635E-4,2.696656E-1,2.243064E1,7.189512E-4,5E-1,6.2878E-1,5.6580675E-1,4.77401E-4,6.666667E-1,2.6E-1,6.666667E-1,-5.8912573E-4,2E0,-2E0,3.0659858E-4,5E-1,1.0161652E-2,-2.9367296E-2,-2.356488E-4,3.767E-1,2.4194724E-3,1.4574637E-3,3.5734678E-4,9.0027304E-4,-1.73303E-2,-4.5610696E-2,-3E0,4.9083476E-4,-1.5757954E-2,-7.837192E-4,2.360612E-2,-2.056923E-2,3.2233484E-2,1.2607745E-2,1.9491863E-2,4.0419273E-2,1.3251854E-2,3.1315684E-2,2.0764325E-2,3.8618598E-2,-6.3386247E-3,8.3852345E-3,-2.3182442E-2,-1.0650094E-3,1.9704895E-2,-1.3787577E-2,-3.6551125E-2,-1.9741984E-2,-3.911506E-2,-2.963422E-2],"split_indices":[11,4,11,7,5,14,11,6,5,12,15,12,1,13,13,1,12,0,0,1,15,0,1,5,3,0,0,13,5,0,1,0,0,0,0,0,0,0,0,0,0,0,0,0,0,0,0,0,0,0,0],"split_type":[0,0,0,0,0,0,0,0,0,0,0,0,0,0,0,0,0,0,0,0,0,0,0,0,0,0,0,0,0,0,0,0,0,0,0,0,0,0,0,0,0,0,0,0,0,0,0,0,0,0,0],"sum_hessian":[4.372855E3,1.2790787E3,3.0937761E3,6.931486E2,5.859301E2,1.7958286E3,1.2979475E3,6.282484E2,6.490024E1,3.7449387E2,2.1143628E2,1.7296597E3,6.616891E1,9.065499E2,3.9139758E2,1.2989658E2,4.9835184E2,3.3619347E1,3.1280891E1,3.1287918E2,6.1614674E1,5.2689877E1,1.587464E2,1.41116E3,3.1849963E2,3.5469894E1,3.0699013E1,6.6010004E2,2.4644989E2,4.2428352E1,3.4896924E2,6.064383E1,6.925274E1,2.4050882E2,2.5784302E2,3.1139957E1,2.8173923E2,3.0129484E1,3.1485188E1,9.2977516E1,6.576888E1,5.393868E2,8.717733E2,1.7389757E2,1.4460205E2,3.8253563E1,6.218465E2,1.3930626E2,1.0714363E2,1.8787886E2,1.6109038E2],"tree_param":{"num_deleted":"0","num_feature":"16","num_nodes":"51","size_leaf_vector":"1"}},{"base_weights":[4.5303977E-3,7.4410754E-1,-3.0024812E-1,5.044729E-1,1.0347991E0,-1.1632081E-2,-6.776282E-1,-9.669244E-2,6.0418636E-1,7.584473E-3,1.1019942E0,8.176113E-2,-4.473409E-1,-5.221501E-1,-1.0745741E0,-2.30785E-2,2.0903466E-2,7.034903E-1,-2.3169902E-1,1.2298136E0,7.023334E-1,-1.926673E-1,2.6674482E-1,-6.5467256E-1,2.2043258E-1,1.0711768E-2,-5.7273287E-1,-8.637319E-1,-1.217309E0,2.9816354E-2,1.2068679E-2,1.02763E-2,-2.511699E-2,3.0902294E-2,4.008966E-2,-6.6974247E-3,3.2742504E-2,-1.7427541E-2,6.84474E-3,-2.0614209E-2,1.085394E-2,-1.07484665E-2,-4.094451E-2,2.5009137E-2,-1.8307906E-2,-2.0096926E-2,-7.004116E-3,-3.1664398E-2,-9.33568E-3,-3.891326E-2,-2.2739282E-2],"categories":[],"categories_nodes":[],"categories_segments":[],"categories_sizes":[],"default_left":[0,0,0,0,0,0,0,0,0,0,0,0,0,0,0,0,0,0,0,0,0,0,0,0,0,0,0,0,0,0,0,0,0,0,0,0,0,0,0,0,0,0,0,0,0,0,0,0,0,0,0],"id":21,"left_children":[1,3,5,7,9,11,13,15,17,-1,19,21,23,25,27,-1,-1,29,31,33,35,37,39,41,43,-1,45,47,49,-1,-1,-1,-1,-1,-1,-1,-1,-1,-1,-1,-1,-1,-1,-1,-1,-1,-1,-1,-1,-1,-1],"loss_changes":[9.834421E2,8.719684E1,3.362265E2,4.2376953E1,2.9140686E1,7.150999E1,8.098572E1,5.5120243E1,5.0538605E1,0E0,2.4595825E1,7.345823E1,4.3376682E1,4.3433502E1,8.533905E0,0E0,0E0,4.6010956E1,2.3406363E1,4.95697E0,4.858966E1,9.54889E1,7.877464E1,4.851741E1,3.91176E1,0E0,2.9562653E1,1.5756767E1,5.3858337E0,0E0,0E0,0E0,0E0,0E0,0E0,0E0,0E0,0E0,0E0,0E0,0E0,0E0,0E0,0E0,0E0,0E0,0E0,0E0,0E0,0E0,0E0],"parents":[2147483647,0,0,1,1,2,2,3,3,4,4,5,5,6,6,7,7,8,8,10,10,11,11,12,12,13,13,14,14,17,17,18,18,19,19,20,20,21,21,22,22,23,23,24,24,26,26,27,27,28,28],"right_children":[2,4,6,8,10,12,14,16,18,-1,20,22,24,26,28,-1,-1,30,32,34,36,38,40,42,44,-1,46,48,50,-1,-1,-1,-1,-1,-1,-1,-1,-1,-1,-1,-1,-1,-1,-1,-1,-1,-1,-1,-1,-1,-1],"split_conditions":[-2.2976726E-1,6.286635E-4,2.4977265E-1,4.8658141E-1,-1.9004832E-4,6.666667E-1,6.2944674E-1,1.4094767E-4,2.243064E1,7.584473E-3,9.5197756E-4,3.7191223E-4,9.5725094E-4,-3.4926508E-3,5E-1,-2.30785E-2,2.0903466E-2,5E-1,2.2679068E-4,2.7455104E-4,1.0343196E-3,-1.2639766E-4,-4.5564896E-4,3.3152456E-4,8.75427E0,1.0711768E-2,3.933195E-4,-2.6333434E-4,-1.6457919E-4,2.9816354E-2,1.2068679E-2,1.02763E-2,-2.511699E-2,3.0902294E-2,4.008966E-2,-6.6974247E-3,3.2742504E-2,-1.7427541E-2,6.84474E-3,-2.0614209E-2,1.085394E-2,-1.07484665E-2,-4.094451E-2,2.5009137E-2,-1.8307906E-2,-2.0096926E-2,-7.004116E-3,-3.1664398E-2,-9.33568E-3,-3.891326E-2,-2.2739282E-2],"split_indices":[11,4,11,6,0,12,11,3,7,0,0,5,2,3,12,0,0,12,0,0,1,3,4,1,7,0,2,0,1,0,0,0,0,0,0,0,0,0,0,0,0,0,0,0,0,0,0,0,0,0,0],"split_type":[0,0,0,0,0,0,0,0,0,0,0,0,0,0,0,0,0,0,0,0,0,0,0,0,0,0,0,0,0,0,0,0,0,0,0,0,0,0,0,0,0,0,0,0,0,0,0,0,0,0,0],"sum_hessian":[4.3583843E3,1.2713707E3,3.0870134E3,7.004502E2,5.7092053E2,1.750844E3,1.3361693E3,9.9233055E1,6.0121716E2,4.6283615E1,5.246369E2,1.4425688E3,3.0827524E2,9.63979E2,3.7219028E2,5.3945267E1,4.528779E1,5.379803E2,6.3236874E1,3.9379004E2,1.3084686E2,5.801683E2,8.624006E2,2.356108E2,7.266444E1,5.1460682E1,9.125183E2,1.5679036E2,2.1539993E2,2.710578E2,2.669225E2,3.264861E1,3.0588264E1,1.453576E2,2.4843243E2,3.8749065E1,9.20978E1,3.0173837E2,2.784299E2,7.673448E1,7.856661E2,1.6865244E2,6.695836E1,4.2008533E1,3.0655901E1,7.071556E2,2.0536275E2,1.146427E2,4.2147655E1,1.7985318E2,3.5546757E1],"tree_param":{"num_deleted":"0","num_feature":"16","num_nodes":"51","size_leaf_vector":"1"}},{"base_weights":[1.074719E-2,-2.8189927E-1,7.501261E-1,-6.4487666E-2,-7.544315E-1,5.3212225E-1,1.0035082E0,1.3081062E-2,-4.18578E-1,-8.073274E-1,1.2034846E-2,-1.09348334E-1,6.3945496E-1,3.820861E-1,1.079389E0,-1.8725999E-1,2.124435E-1,-1.4732736E-1,-8.360425E-1,-6.894227E-1,-1.2790668E0,-1.5690723E-2,1.1795813E-2,9.1318166E-1,3.5531026E-1,2.3138577E-2,-5.9472653E-4,1.1942888E0,7.374677E-1,-1.1566208E-2,5.077044E-3,-2.8576512E-2,8.087794E-3,-1.1237276E-2,2.9808238E-2,-3.822672E-2,-1.723051E-3,-3.0031167E-2,-1.4733837E-2,-2.690661E-2,-4.019351E-2,2.375589E-3,3.4697946E-2,3.2465253E-2,2.6270014E-3,3.0122343E-2,3.963926E-2,3.2533254E-2,3.953392E-3],"categories":[],"categories_nodes":[],"categories_segments":[],"categories_sizes":[],"default_left":[0,0,0,0,0,0,0,0,0,0,0,0,0,0,0,0,0,0,0,0,0,0,0,0,0,0,0,0,0,0,0,0,0,0,0,0,0,0,0,0,0,0,0,0,0,0,0,0,0],"id":22,"left_children":[1,3,5,7,9,11,13,15,17,19,-1,21,23,25,27,29,31,33,35,37,39,-1,-1,41,43,-1,-1,45,47,-1,-1,-1,-1,-1,-1,-1,-1,-1,-1,-1,-1,-1,-1,-1,-1,-1,-1,-1,-1],"loss_changes":[9.4013055E2,3.1937772E2,6.653345E1,5.874761E1,6.0676453E1,4.6236755E1,2.547052E1,7.0055725E1,4.296965E1,4.9821472E1,0E0,2.0603971E1,4.3480118E1,1.04581785E1,1.744867E1,6.198043E1,5.8881115E1,6.1689087E1,5.0790802E1,4.524301E1,1.2122803E0,0E0,0E0,5.8250336E1,5.4846638E1,0E0,0E0,5.6642456E0,2.7212608E1,0E0,0E0,0E0,0E0,0E0,0E0,0E0,0E0,0E0,0E0,0E0,0E0,0E0,0E0,0E0,0E0,0E0,0E0,0E0,0E0],"parents":[2147483647,0,0,1,1,2,2,3,3,4,4,5,5,6,6,7,7,8,8,9,9,11,11,12,12,13,13,14,14,15,15,16,16,17,17,18,18,19,19,20,20,23,23,24,24,27,27,28,28],"right_children":[2,4,6,8,10,12,14,16,18,20,-1,22,24,26,28,30,32,34,36,38,40,-1,-1,42,44,-1,-1,46,48,-1,-1,-1,-1,-1,-1,-1,-1,-1,-1,-1,-1,-1,-1,-1,-1,-1,-1,-1,-1],"split_conditions":[2.5E-1,3.6954832E-1,6.286635E-4,6.666667E-1,4.654742E1,4.8658141E-1,-9.915979E-5,-9.471424E-5,4.3679433E-4,6.666667E-1,1.2034846E-2,1.09609704E-4,6E-1,3.685522E-4,9.5197756E-4,9.38505E0,1.3372373E-4,1.679607E1,7.189512E-4,-6.2E-1,4.4929752E-1,-1.5690723E-2,1.1795813E-2,-4.4420315E-4,2.89313E0,2.3138577E-2,-5.9472653E-4,3.328864E-4,-6.291442E-1,-1.1566208E-2,5.077044E-3,-2.8576512E-2,8.087794E-3,-1.1237276E-2,2.9808238E-2,-3.822672E-2,-1.723051E-3,-3.0031167E-2,-1.4733837E-2,-2.690661E-2,-4.019351E-2,2.375589E-3,3.4697946E-2,3.2465253E-2,2.6270014E-3,3.0122343E-2,3.963926E-2,3.2533254E-2,3.953392E-3],"split_indices":[8,11,4,12,7,6,0,2,5,12,0,2,12,2,0,7,5,7,5,8,11,0,0,2,7,0,0,0,11,0,0,0,0,0,0,0,0,0,0,0,0,0,0,0,0,0,0,0,0],"split_type":[0,0,0,0,0,0,0,0,0,0,0,0,0,0,0,0,0,0,0,0,0,0,0,0,0,0,0,0,0,0,0,0,0,0,0,0,0,0,0,0,0,0,0,0,0,0,0,0,0],"sum_hessian":[4.340277E3,3.1101213E3,1.2301554E3,2.1320674E3,9.780541E2,6.652093E2,5.649461E2,1.7498218E3,3.8224548E2,9.3606903E2,4.198507E1,9.494439E1,5.702649E2,6.3221428E1,5.0172467E2,8.7207886E2,8.77743E2,2.3377373E2,1.4847176E2,7.5334094E2,1.8272812E2,5.2359367E1,4.2585022E1,2.8766428E2,2.8260062E2,3.156399E1,3.1657436E1,3.7114218E2,1.305825E2,5.608281E2,3.1125073E2,3.9334084E1,8.384089E2,1.962846E2,3.748913E1,9.394397E1,5.4527782E1,2.8922324E2,4.6411768E2,3.005188E1,1.5267624E2,6.586845E1,2.2179584E2,7.413534E1,2.0846529E2,1.5668294E2,2.1445924E2,8.170235E1,4.8880154E1],"tree_param":{"num_deleted":"0","num_feature":"16","num_nodes":"49","size_leaf_vector":"1"}},{"base_weights":[3.917746E-3,7.071518E-1,-2.8255385E-1,9.531242E-1,4.680077E-1,-4.6113543E-2,-6.912958E-1,8.2196486E-1,3.919944E-2,5.738567E-1,-1.6451806E-2,-2.0850344E-1,1.6036364E-1,-5.22506E-1,-1.0422548E0,9.1600996E-1,2.961336E-1,6.8824595E-1,5.7917472E-2,-4.50758E-1,2.5420481E-2,-3.2497057E-1,4.8324677E-1,5.805632E-1,-5.1100377E-2,2.0841954E-2,-5.8126485E-1,-8.4010285E-1,-1.1802722E0,2.1019774E-2,3.455207E-2,-1.3661058E-2,3.007666E-2,5.1859478E-3,2.412195E-2,1.3315144E-2,-2.2421136E-2,6.499123E-3,-4.1070364E-2,-1.8498903E-2,-1.1806859E-3,3.7112262E-2,-5.3507736E-4,4.6964474E-2,1.1496742E-2,6.684693E-3,-1.2231034E-2,-1.9118182E-2,1.747203E-2,-1.740375E-3,-3.072661E-2,-3.857877E-2,-2.1906784E-2],"categories":[],"categories_nodes":[],"categories_segments":[],"categories_sizes":[],"default_left":[0,0,0,0,0,0,0,0,0,0,0,0,0,0,0,0,0,0,0,0,0,0,0,0,0,0,0,0,0,0,0,0,0,0,0,0,0,0,0,0,0,0,0,0,0,0,0,0,0,0,0,0,0],"id":23,"left_children":[1,3,5,7,9,11,13,15,-1,17,19,21,23,25,27,29,31,33,35,37,-1,39,41,43,45,-1,47,49,51,-1,-1,-1,-1,-1,-1,-1,-1,-1,-1,-1,-1,-1,-1,-1,-1,-1,-1,-1,-1,-1,-1,-1,-1],"loss_changes":[8.7271124E2,7.244672E1,2.971214E2,2.5759216E1,3.302472E1,6.55386E1,6.521234E1,2.1596954E1,0E0,3.0746933E1,4.4261936E1,8.8442535E1,7.661377E1,5.5538956E1,7.5514526E0,1.7352722E1,3.9554157E1,2.5094986E1,3.1071373E1,4.9293343E1,0E0,7.7917564E1,6.0147144E1,5.428145E1,5.6237606E1,0E0,4.845096E1,2.1917435E1,7.5136414E0,0E0,0E0,0E0,0E0,0E0,0E0,0E0,0E0,0E0,0E0,0E0,0E0,0E0,0E0,0E0,0E0,0E0,0E0,0E0,0E0,0E0,0E0,0E0,0E0],"parents":[2147483647,0,0,1,1,2,2,3,3,4,4,5,5,6,6,7,7,9,9,10,10,11,11,12,12,13,13,14,14,15,15,16,16,17,17,18,18,19,19,21,21,22,22,23,23,24,24,26,26,27,27,28,28],"right_children":[2,4,6,8,10,12,14,16,-1,18,20,22,24,26,28,30,32,34,36,38,-1,40,42,44,46,-1,48,50,52,-1,-1,-1,-1,-1,-1,-1,-1,-1,-1,-1,-1,-1,-1,-1,-1,-1,-1,-1,-1,-1,-1,-1,-1],"split_conditions":[-2.2976726E-1,-4.6984178E-1,3.0980292E-1,7.6E-1,7.333395E-4,1.4094767E-4,6.2944674E-1,9.5197756E-4,3.919944E-2,6.666667E-1,1.3997013E-3,1.669818E1,6.618682E-5,-3E0,-1.2318317E-3,2.7951074E-4,1.67206E-3,2.32891E0,4.5107695E-4,-9.992577E-5,2.5420481E-2,3.8588388E-4,4.5681486E-4,2.9260965E-4,1.0094308E-2,2.0841954E-2,4.654742E1,6.53982E0,-1.4948117E-4,2.1019774E-2,3.455207E-2,-1.3661058E-2,3.007666E-2,5.1859478E-3,2.412195E-2,1.3315144E-2,-2.2421136E-2,6.499123E-3,-4.1070364E-2,-1.8498903E-2,-1.1806859E-3,3.7112262E-2,-5.3507736E-4,4.6964474E-2,1.1496742E-2,6.684693E-3,-1.2231034E-2,-1.9118182E-2,1.747203E-2,-1.740375E-3,-3.072661E-2,-3.857877E-2,-2.1906784E-2],"split_indices":[11,11,11,8,5,3,11,0,0,12,3,7,1,13,3,0,1,7,5,3,0,5,5,3,11,0,7,7,0,0,0,0,0,0,0,0,0,0,0,0,0,0,0,0,0,0,0,0,0,0,0,0,0],"split_type":[0,0,0,0,0,0,0,0,0,0,0,0,0,0,0,0,0,0,0,0,0,0,0,0,0,0,0,0,0,0,0,0,0,0,0,0,0,0,0,0,0,0,0,0,0,0,0,0,0,0,0,0,0],"sum_hessian":[4.3273906E3,1.252022E3,3.075369E3,6.1363745E2,6.383845E2,1.9502117E3,1.1251572E3,4.530515E2,1.6058595E2,5.241203E2,1.1426421E2,1.0924536E3,8.5775806E2,7.636977E2,3.6145947E2,3.8257355E2,7.047799E1,4.2798257E2,9.613774E1,7.690246E1,3.7361755E1,9.363057E2,1.5614783E2,2.8646066E2,5.7129736E2,3.393585E1,7.2976184E2,1.5328813E2,2.0817134E2,2.0474397E2,1.7782957E2,3.4287994E1,3.618999E1,7.992059E1,3.4806198E2,6.585034E1,3.0287405E1,4.5230194E1,3.1672266E1,4.615839E2,4.7472186E2,6.1415485E1,9.473234E1,4.524683E1,2.4121384E2,3.2305283E2,2.4824457E2,6.9736005E2,3.240184E1,3.0021786E1,1.2326635E2,1.6503403E2,4.3137314E1],"tree_param":{"num_deleted":"0","num_feature":"16","num_nodes":"53","size_leaf_vector":"1"}},{"base_weights":[4.0780674E-3,5.0540453E-1,-3.982085E-1,8.1280625E-1,2.2939475E-1,-9.0643656E-1,-2.6291698E-1,3.7316117E-2,6.9874877E-1,-3.0059534E-1,2.964486E-1,-1.731027E-1,-1.0148615E0,-1.1021992E-1,-4.593894E-1,-4.0617976E-3,7.408855E-1,3.2380536E-2,-8.196042E-1,-1.8996323E-2,3.3295822E-1,1.1707687E-2,-2.1635858E-2,-1.2418788E-2,-1.0571612E0,-4.7042545E-2,-1.0531256E0,-3.4779337E-1,-1.0932844E0,2.8528608E-2,1.6542323E-2,-4.4408135E-2,-2.404036E-3,7.3673483E-3,2.5449632E-2,-4.0558476E-2,-2.6742566E-2,-2.8963496E-3,3.7047796E-2,-1.5155733E-2,-4.633527E-2,1.4786427E-2,-1.1857E-2,-9.431739E-3,-4.0140048E-2],"categories":[],"categories_nodes":[],"categories_segments":[],"categories_sizes":[],"default_left":[0,0,0,0,0,0,0,0,0,0,0,0,0,0,0,0,0,0,0,0,0,0,0,0,0,0,0,0,0,0,0,0,0,0,0,0,0,0,0,0,0,0,0,0,0],"id":24,"left_children":[1,3,5,7,9,11,13,-1,15,17,19,21,23,25,27,-1,29,-1,31,-1,33,-1,-1,-1,35,37,39,41,43,-1,-1,-1,-1,-1,-1,-1,-1,-1,-1,-1,-1,-1,-1,-1,-1],"loss_changes":[8.715009E2,1.625643E2,1.6399066E2,4.2369568E1,3.6322666E1,3.9259857E1,5.662065E1,0E0,2.5825867E1,8.385518E1,3.1027687E1,2.1508842E1,9.794861E0,6.3344124E1,5.7367645E1,0E0,2.5954071E1,0E0,4.065528E1,0E0,3.851567E1,0E0,0E0,0E0,1.6784943E1,6.3720554E1,1.5819359E1,2.8566147E1,2.2028809E1,0E0,0E0,0E0,0E0,0E0,0E0,0E0,0E0,0E0,0E0,0E0,0E0,0E0,0E0,0E0,0E0],"parents":[2147483647,0,0,1,1,2,2,3,3,4,4,5,5,6,6,8,8,9,9,10,10,11,11,12,12,13,13,14,14,16,16,18,18,20,20,24,24,25,25,26,26,27,27,28,28],"right_children":[2,4,6,8,10,12,14,-1,16,18,20,22,24,26,28,-1,30,-1,32,-1,34,-1,-1,-1,36,38,40,42,44,-1,-1,-1,-1,-1,-1,-1,-1,-1,-1,-1,-1,-1,-1,-1,-1],"split_conditions":[-1.9877914E-2,-3.497948E-1,-5.6E-1,-7.2953665E-1,1.68939E0,-2E0,2.4977265E-1,3.7316117E-2,3.516954E-1,-3.624287E-5,2.4874008E-1,7.081196E-1,-2.1361809E-3,5E-1,3E0,-4.0617976E-3,0E0,3.2380536E-2,1.14680624E-4,-1.8996323E-2,2E-1,1.1707687E-2,-2.1635858E-2,-1.2418788E-2,-1.0374441E-3,6.1926834E-4,-5.077906E-4,-3E0,-6.5696187E-4,2.8528608E-2,1.6542323E-2,-4.4408135E-2,-2.404036E-3,7.3673483E-3,2.5449632E-2,-4.0558476E-2,-2.6742566E-2,-2.8963496E-3,3.7047796E-2,-1.5155733E-2,-4.633527E-2,1.4786427E-2,-1.1857E-2,-9.431739E-3,-4.0140048E-2],"split_indices":[11,11,8,11,7,13,11,0,6,0,6,11,1,14,13,0,13,0,0,0,14,0,0,0,1,4,4,13,4,0,0,0,0,0,0,0,0,0,0,0,0,0,0,0,0],"split_type":[0,0,0,0,0,0,0,0,0,0,0,0,0,0,0,0,0,0,0,0,0,0,0,0,0,0,0,0,0,0,0,0,0,0,0,0,0,0,0,0,0,0,0,0,0],"sum_hessian":[4.3171177E3,1.9220752E3,2.3950422E3,9.0697205E2,1.0151032E3,5.006633E2,1.894379E3,1.8507304E2,7.21899E2,1.1272118E2,9.02382E2,6.551454E1,4.3514874E2,1.0685543E3,8.2582465E2,3.4158016E1,6.8774097E2,3.0060003E1,8.266118E1,3.255353E1,8.698285E2,3.2321434E1,3.3193108E1,3.0502426E1,4.0464633E2,1.0037202E3,6.483417E1,7.052392E2,1.2058544E2,3.2158386E2,3.661571E2,4.2384315E1,4.0276867E1,7.467517E2,1.23076805E2,1.3982709E2,2.6481924E2,9.6840906E2,3.5311123E1,3.2859604E1,3.1974564E1,3.6330536E1,6.689086E2,3.0214197E1,9.037125E1],"tree_param":{"num_deleted":"0","num_feature":"16","num_nodes":"45","size_leaf_vector":"1"}},{"base_weights":[2.4482969E-3,-2.7281556E-1,7.007237E-1,-6.2843937E-1,-4.0279813E-2,5.8661836E-1,1.1407065E0,-1.0105441E0,-4.732756E-1,-3.6712387E-3,-1.0203007E0,6.4343774E-1,-9.169534E-3,1.956864E-2,1.2014662E0,-1.4618132E-2,-1.0732627E0,-3.2741743E-1,-8.5189897E-1,7.3587704E-1,-4.8375376E-2,-1.5223842E-2,-4.5692958E-2,4.959997E-1,8.8703996E-1,2.7743688E-2,3.836367E-2,-3.842601E-2,-2.6891101E-2,-1.2960351E-2,9.136303E-3,1.613789E-3,-3.038801E-2,-5.8291773E-3,4.4931162E-2,-9.101105E-3,3.3403009E-3,4.2929078E-4,1.9331483E-2,3.6069926E-2,1.9594772E-2],"categories":[],"categories_nodes":[],"categories_segments":[],"categories_sizes":[],"default_left":[0,0,0,0,0,0,0,0,0,0,0,0,0,0,0,0,0,0,0,0,0,0,0,0,0,0,0,0,0,0,0,0,0,0,0,0,0,0,0,0,0],"id":25,"left_children":[1,3,5,7,9,11,13,15,17,19,21,23,-1,-1,25,-1,27,29,31,33,35,-1,-1,37,39,-1,-1,-1,-1,-1,-1,-1,-1,-1,-1,-1,-1,-1,-1,-1,-1],"loss_changes":[8.2422595E2,2.540303E2,5.902002E1,7.0637726E1,6.64837E1,4.9546326E1,5.2079773E0,9.9263E0,4.7049835E1,5.9279305E1,1.5054962E1,3.1409088E1,0E0,0E0,1.6117249E0,0E0,8.402069E0,4.199488E1,3.5356537E1,7.338236E1,6.923719E1,0E0,0E0,4.070645E1,2.2945526E1,0E0,0E0,0E0,0E0,0E0,0E0,0E0,0E0,0E0,0E0,0E0,0E0,0E0,0E0,0E0,0E0],"parents":[2147483647,0,0,1,1,2,2,3,3,4,4,5,5,6,6,7,7,8,8,9,9,10,10,11,11,14,14,16,16,17,17,18,18,19,19,20,20,23,23,24,24],"right_children":[2,4,6,8,10,12,14,16,18,20,22,24,-1,-1,26,-1,28,30,32,34,36,-1,-1,38,40,-1,-1,-1,-1,-1,-1,-1,-1,-1,-1,-1,-1,-1,-1,-1,-1],"split_conditions":[2.5E-1,-2.7E-1,6.9E-1,-6.3E-1,5E-1,1.1417107E-3,3.1E-1,-2E0,2E0,-3E0,-5.8912573E-4,3.3548696E-4,-9.169534E-3,1.956864E-2,7.4E-1,-1.4618132E-2,-1.1050919E-3,2.58217E-4,-7.372212E-4,3.7579375E-4,-2.253509E-4,-1.5223842E-2,-4.5692958E-2,6.018357E-1,7.08561E0,2.7743688E-2,3.836367E-2,-3.842601E-2,-2.6891101E-2,-1.2960351E-2,9.136303E-3,1.613789E-3,-3.038801E-2,-5.8291773E-3,4.4931162E-2,-9.101105E-3,3.3403009E-3,4.2929078E-4,1.9331483E-2,3.6069926E-2,1.9594772E-2],"split_indices":[8,8,8,8,14,0,15,13,13,13,1,0,0,0,8,0,2,3,0,5,3,0,0,6,7,0,0,0,0,0,0,0,0,0,0,0,0,0,0,0,0],"split_type":[0,0,0,0,0,0,0,0,0,0,0,0,0,0,0,0,0,0,0,0,0,0,0,0,0,0,0,0,0,0,0,0,0,0,0,0,0,0,0,0,0],"sum_hessian":[4.2834966E3,3.072923E3,1.2105735E3,1.2130597E3,1.8598634E3,9.655227E2,2.4505081E2,3.4659048E2,8.6646924E2,1.7951205E3,6.474293E1,9.085599E2,5.6962814E1,3.0254871E1,2.1479594E2,3.9484627E1,3.0710587E2,6.2876874E2,2.377005E2,1.0018072E2,1.6949398E3,3.4336205E1,3.0406721E1,5.7054584E2,3.38014E2,5.342623E1,1.6136972E2,1.3476518E2,1.7234068E2,5.4043085E2,8.833786E1,3.5803482E1,2.0189702E2,4.559991E1,5.458081E1,6.528032E2,1.0421365E3,1.353569E2,4.3518893E2,1.3987994E2,1.9813408E2],"tree_param":{"num_deleted":"0","num_feature":"16","num_nodes":"41","size_leaf_vector":"1"}},{"base_weights":[3.2564104E-3,-3.516352E-1,4.9950913E-1,-7.335094E-1,-1.4475642E-1,2.282297E-1,7.941229E-1,-7.8594E-1,1.567017E-2,-2.3232087E-1,2.3437507E-1,9.153017E-1,1.4231679E-1,6.8952143E-1,3.7808828E-2,-6.6641253E-1,-3.854407E-2,-3.784361E-2,-1.9222108E-1,1.0388651E-3,6.326181E-1,5.669134E-1,4.495008E-2,-3.0632004E-1,3.739616E-1,9.76574E-1,4.396055E-1,-3.060787E-2,-1.4930162E-2,-9.1887533E-4,-1.3518865E-2,9.578164E-3,-1.9066518E-2,4.564387E-4,2.8401872E-2,8.134163E-3,2.5730373E-2,-1.9130828E-2,1.990136E-3,2.5427531E-2,-8.2738226E-4,2.1685937E-2,3.9367754E-2,2.4615666E-2,7.09832E-4],"categories":[],"categories_nodes":[],"categories_segments":[],"categories_sizes":[],"default_left":[0,0,0,0,0,0,0,0,0,0,0,0,0,0,0,0,0,0,0,0,0,0,0,0,0,0,0,0,0,0,0,0,0,0,0,0,0,0,0,0,0,0,0,0,0],"id":26,"left_children":[1,3,5,7,9,11,13,15,-1,17,19,21,23,25,-1,27,-1,-1,29,31,33,35,-1,37,39,41,43,-1,-1,-1,-1,-1,-1,-1,-1,-1,-1,-1,-1,-1,-1,-1,-1,-1,-1],"loss_changes":[7.534841E2,1.9655139E2,1.4192334E2,5.8536743E1,5.3910477E1,5.444762E1,3.931726E1,4.7866272E1,0E0,5.3478424E1,2.80971E1,1.8572891E1,8.664543E1,4.9105347E1,0E0,3.93291E1,0E0,0E0,5.2917492E1,3.970006E1,2.1401379E1,5.0374546E0,0E0,3.5294735E1,1.04814476E2,2.5146698E1,5.986445E1,0E0,0E0,0E0,0E0,0E0,0E0,0E0,0E0,0E0,0E0,0E0,0E0,0E0,0E0,0E0,0E0,0E0,0E0],"parents":[2147483647,0,0,1,1,2,2,3,3,4,4,5,5,6,6,7,7,9,9,10,10,11,11,12,12,13,13,15,15,18,18,19,19,20,20,21,21,23,23,24,24,25,25,26,26],"right_children":[2,4,6,8,10,12,14,16,-1,18,20,22,24,26,-1,28,-1,-1,30,32,34,36,-1,38,40,42,44,-1,-1,-1,-1,-1,-1,-1,-1,-1,-1,-1,-1,-1,-1,-1,-1,-1,-1],"split_conditions":[6E-2,-4E-1,4.3519228E-4,4.859111E1,8.4695464E-4,-6.203794E-4,7.6E-1,6.666667E-1,1.567017E-2,-9.117504E-4,-2E-2,-5.9443066E-4,-6.2051084E-5,0E0,3.7808828E-2,-6.7E-1,-3.854407E-2,-3.784361E-2,-2.5359845E-5,3.467E-1,4.843537E-4,3.267E-1,4.495008E-2,5.23288E0,5E-1,1.438273E-4,5.4550165E-4,-3.060787E-2,-1.4930162E-2,-9.1887533E-4,-1.3518865E-2,9.578164E-3,-1.9066518E-2,4.564387E-4,2.8401872E-2,8.134163E-3,2.5730373E-2,-1.9130828E-2,1.990136E-3,2.5427531E-2,-8.2738226E-4,2.1685937E-2,3.9367754E-2,2.4615666E-2,7.09832E-4],"split_indices":[8,8,4,7,2,1,8,12,0,4,8,2,2,13,0,8,0,0,1,15,5,15,0,7,12,2,5,0,0,0,0,0,0,0,0,0,0,0,0,0,0,0,0,0,0],"split_type":[0,0,0,0,0,0,0,0,0,0,0,0,0,0,0,0,0,0,0,0,0,0,0,0,0,0,0,0,0,0,0,0,0,0,0,0,0,0,0,0,0,0,0,0,0],"sum_hessian":[4.274095E3,2.4919634E3,1.7821317E3,8.7333923E2,1.6186241E3,9.301865E2,8.519452E2,8.392869E2,3.4052258E1,1.3161997E3,3.0242456E2,1.0085094E2,8.293356E2,7.0039056E2,1.5155464E2,6.813165E2,1.5797041E2,4.679676E1,1.269403E3,1.9243355E2,1.09991E2,6.592008E1,3.4930855E1,2.817391E2,5.475965E2,3.2271066E2,3.776799E2,2.1615904E2,4.651575E2,7.830998E2,4.8630313E2,1.2927615E2,6.31574E1,3.8118595E1,7.18724E1,3.510604E1,3.081404E1,1.4880319E2,1.3293591E2,2.5057062E2,2.9702585E2,1.8789822E2,1.3481244E2,1.9574892E2,1.8193098E2],"tree_param":{"num_deleted":"0","num_feature":"16","num_nodes":"45","size_leaf_vector":"1"}},{"base_weights":[-1.5675854E-2,-3.927503E-1,4.514261E-1,-8.8883907E-1,-2.61771E-1,1.774392E-1,7.5555235E-1,-1.9628075E-1,-9.923999E-1,-3.5891202E-1,2.2193605E-2,4.271965E-1,4.0355273E-2,6.150923E-1,1.1287373E0,1.0770227E-2,-2.205057E-2,-1.2459737E-2,-1.052458E0,2.28369E-2,-4.288704E-1,6.9365114E-1,-1.6530973E-1,2.7975917E-1,3.6279988E-2,-3.8745195E-1,2.7627686E-1,9.0475065E-1,3.627069E-1,1.9398458E-2,3.600997E-2,-3.4036014E-2,-2.0002749E-2,2.3387603E-2,-1.1711364E-2,-1.7722877E-2,-7.091297E-3,-5.4628784E-3,3.3867475E-2,4.3654307E-3,-1.6498558E-2,4.8830565E-3,3.322376E-2,-1.832994E-2,1.4943517E-2,2.145775E-2,-2.1631222E-3,1.810663E-2,4.0618733E-2,2.1545775E-2,-1.0429659E-3],"categories":[],"categories_nodes":[],"categories_segments":[],"categories_sizes":[],"default_left":[0,0,0,0,0,0,0,0,0,0,0,0,0,0,0,0,0,0,0,0,0,0,0,0,0,0,0,0,0,0,0,0,0,0,0,0,0,0,0,0,0,0,0,0,0,0,0,0,0,0,0],"id":27,"left_children":[1,3,5,7,9,11,13,15,17,19,21,23,25,27,29,-1,-1,-1,31,33,35,37,39,41,-1,43,45,47,49,-1,-1,-1,-1,-1,-1,-1,-1,-1,-1,-1,-1,-1,-1,-1,-1,-1,-1,-1,-1,-1,-1],"loss_changes":[7.533565E2,1.5299414E2,1.5862732E2,3.462033E1,5.1864136E1,3.433882E1,4.5484375E1,2.068818E1,1.3522278E1,3.7495407E1,6.072702E1,3.9956642E1,6.616995E1,4.7353455E1,6.3256226E0,0E0,0E0,0E0,1.0165009E1,6.884937E1,3.6333267E1,4.0853603E1,4.522351E1,2.8566004E1,0E0,4.6724876E1,6.499263E1,3.9222015E1,5.0783707E1,0E0,0E0,0E0,0E0,0E0,0E0,0E0,0E0,0E0,0E0,0E0,0E0,0E0,0E0,0E0,0E0,0E0,0E0,0E0,0E0,0E0,0E0],"parents":[2147483647,0,0,1,1,2,2,3,3,4,4,5,5,6,6,7,7,8,8,9,9,10,10,11,11,12,12,13,13,14,14,18,18,19,19,20,20,21,21,22,22,23,23,25,25,26,26,27,27,28,28],"right_children":[2,4,6,8,10,12,14,16,18,20,22,24,26,28,30,-1,-1,-1,32,34,36,38,40,42,-1,44,46,48,50,-1,-1,-1,-1,-1,-1,-1,-1,-1,-1,-1,-1,-1,-1,-1,-1,-1,-1,-1,-1,-1,-1],"split_conditions":[2E-2,-5.6E-1,4.008053E-4,-2E0,4.377213E-4,-3.624287E-5,6.9E-1,-1.4524324E-3,-1.4890817E-3,-1.3799381E-3,1.0366001E-2,2E-1,-6.2051084E-5,0E0,7.163585E-4,1.0770227E-2,-2.205057E-2,-1.2459737E-2,-6.4687297E-4,4.3679433E-4,3.9627223E-4,4.3679433E-4,3.033E-1,-8.822559E-5,3.6279988E-2,7.430159E-4,5E-1,1.438273E-4,5.595541E-4,1.9398458E-2,3.600997E-2,-3.4036014E-2,-2.0002749E-2,2.3387603E-2,-1.1711364E-2,-1.7722877E-2,-7.091297E-3,-5.4628784E-3,3.3867475E-2,4.3654307E-3,-1.6498558E-2,4.8830565E-3,3.322376E-2,-1.832994E-2,1.4943517E-2,2.145775E-2,-2.1631222E-3,1.810663E-2,4.0618733E-2,2.1545775E-2,-1.0429659E-3],"split_indices":[8,8,4,13,2,0,8,2,0,2,11,14,2,13,4,0,0,0,4,5,5,5,15,0,0,5,12,2,5,0,0,0,0,0,0,0,0,0,0,0,0,0,0,0,0,0,0,0,0,0,0],"split_type":[0,0,0,0,0,0,0,0,0,0,0,0,0,0,0,0,0,0,0,0,0,0,0,0,0,0,0,0,0,0,0,0,0,0,0,0,0,0,0,0,0,0,0,0,0,0,0,0,0,0,0],"sum_hessian":[4.2733086E3,2.3650503E3,1.9082585E3,4.91106E2,1.8739442E3,1.0060569E3,9.0220166E2,6.501415E1,4.2609183E2,1.3966835E3,4.7726077E2,3.5423834E2,6.5181854E2,6.5992004E2,2.4228165E2,3.2069675E1,3.294448E1,4.2127834E1,3.83964E2,2.1585654E2,1.1808269E3,1.0335243E2,3.7390836E2,3.0066092E2,5.3577415E1,2.307795E2,4.2103903E2,3.043102E2,3.5560983E2,3.44627E1,2.0781894E2,3.127507E2,7.121329E1,7.586767E1,1.3998886E2,6.383023E2,5.425246E2,3.4471085E1,6.888135E1,2.0705417E2,1.6685417E2,2.658415E2,3.4819435E1,1.8503069E2,4.5748814E1,1.8574446E2,2.3529456E2,1.8537207E2,1.1893813E2,1.872663E2,1.6834354E2],"tree_param":{"num_deleted":"0","num_feature":"16","num_nodes":"51","size_leaf_vector":"1"}},{"base_weights":[-7.344144E-3,-2.6438007E-1,6.159083E-1,-7.008867E-1,-9.12288E-2,3.9699316E-1,8.9769745E-1,-7.5792986E-1,1.2091463E-2,-2.6619714E-1,3.6938474E-2,-2.4657062E-1,4.9133104E-1,1.0770503E0,5.795383E-1,-1.0735786E0,-5.9656477E-1,-4.0061912E-1,5.126221E-1,2.8655705E-1,-1.584465E-1,-3.7630353E-2,9.0083545E-3,5.8422863E-1,-2.5499177E-1,1.3811617E-2,1.1328106E0,-3.9039894E-3,8.644634E-1,-1.4982667E-2,-3.4215618E-2,-1.2313448E-2,-3.0725023E-2,-2.2138396E-2,1.5455831E-3,-2.2317046E-2,3.0941991E-2,-1.0848402E-2,1.2133681E-2,-6.576749E-3,2.6232421E-2,1.0945429E-2,2.6299048E-2,9.28366E-3,-2.2271104E-2,3.6457725E-2,1.7213091E-2,3.752616E-2,1.8489351E-2],"categories":[],"categories_nodes":[],"categories_segments":[],"categories_sizes":[],"default_left":[0,0,0,0,0,0,0,0,0,0,0,0,0,0,0,0,0,0,0,0,0,0,0,0,0,0,0,0,0,0,0,0,0,0,0,0,0,0,0,0,0,0,0,0,0,0,0,0,0],"id":28,"left_children":[1,3,5,7,9,11,13,15,-1,17,19,21,23,25,27,29,31,33,35,37,39,-1,-1,41,43,-1,45,-1,47,-1,-1,-1,-1,-1,-1,-1,-1,-1,-1,-1,-1,-1,-1,-1,-1,-1,-1,-1,-1],"loss_changes":[6.769516E2,2.2582094E2,7.500488E1,5.4190155E1,4.820082E1,4.272386E1,2.890976E1,3.939276E1,0E0,9.547206E1,6.056299E1,5.076353E1,4.2708527E1,1.0191284E1,4.0602768E1,8.758972E0,4.1708252E1,1.1865088E2,8.913251E1,4.1986904E1,4.3858498E1,0E0,0E0,3.3864807E1,1.9458406E1,0E0,1.238269E1,0E0,1.1539917E1,0E0,0E0,0E0,0E0,0E0,0E0,0E0,0E0,0E0,0E0,0E0,0E0,0E0,0E0,0E0,0E0,0E0,0E0,0E0,0E0],"parents":[2147483647,0,0,1,1,2,2,3,3,4,4,5,5,6,6,7,7,9,9,10,10,11,11,12,12,13,13,14,14,15,15,16,16,17,17,18,18,19,19,20,20,23,23,24,24,26,26,28,28],"right_children":[2,4,6,8,10,12,14,16,-1,18,20,22,24,26,28,30,32,34,36,38,40,-1,-1,42,44,-1,46,-1,48,-1,-1,-1,-1,-1,-1,-1,-1,-1,-1,-1,-1,-1,-1,-1,-1,-1,-1,-1,-1],"split_conditions":[2.3E-1,-4E-1,6.286635E-4,4.654742E1,-2.6949827E-4,-1.1629779E-3,7.189512E-4,-6.7E-1,1.2091463E-2,1.70497E1,6.618682E-5,7.0356566E-1,5.9989205E-4,-2.356488E-4,2.8E-1,4.7115412E-1,2E0,4.5107695E-4,-1.4361534E-3,-3.840045E-4,6.4596196E-4,-3.7630353E-2,9.0083545E-3,7.2356936E-4,7.805168E-4,1.3811617E-2,2.8634714E-3,-3.9039894E-3,0E0,-1.4982667E-2,-3.4215618E-2,-1.2313448E-2,-3.0725023E-2,-2.2138396E-2,1.5455831E-3,-2.2317046E-2,3.0941991E-2,-1.0848402E-2,1.2133681E-2,-6.576749E-3,2.6232421E-2,1.0945429E-2,2.6299048E-2,9.28366E-3,-2.2271104E-2,3.6457725E-2,1.7213091E-2,3.752616E-2,1.8489351E-2],"split_indices":[8,8,4,7,3,3,5,8,0,7,1,6,0,1,15,6,13,5,1,4,4,0,0,3,1,0,3,0,13,0,0,0,0,0,0,0,0,0,0,0,0,0,0,0,0,0,0,0,0],"split_type":[0,0,0,0,0,0,0,0,0,0,0,0,0,0,0,0,0,0,0,0,0,0,0,0,0,0,0,0,0,0,0,0,0,0,0,0,0,0,0,0,0,0,0,0,0,0,0,0,0],"sum_hessian":[4.2223364E3,2.9906099E3,1.2317263E3,8.4715125E2,2.1434587E3,6.965082E2,5.352181E2,8.06382E2,4.076918E1,9.063442E2,1.2371145E3,8.8226715E1,6.0828143E2,3.386185E2,1.9659961E2,2.6833075E2,5.380513E2,7.740942E2,1.3225003E2,5.4343665E2,6.9367786E2,3.0317116E1,5.79096E1,5.416914E2,6.6590034E1,3.0061079E1,3.085574E2,5.6330135E1,1.4026947E2,3.0253244E1,2.3807751E2,3.7810175E2,1.5994954E2,4.429908E2,3.3110336E2,3.822343E1,9.4026596E1,8.260767E1,4.6082898E2,6.568893E2,3.678857E1,3.1264645E2,2.2904495E2,3.090854E1,3.5681496E1,2.6638666E2,4.217075E1,5.1220764E1,8.9048706E1],"tree_param":{"num_deleted":"0","num_feature":"16","num_nodes":"49","size_leaf_vector":"1"}},{"base_weights":[-8.5749915E-3,5.586113E-1,-2.8456858E-1,2.946265E-1,7.936475E-1,-1.49032E-1,-8.118193E-1,5.8575267E-1,3.324086E-3,3.638664E-2,6.779496E-1,-6.873674E-2,-5.1168054E-1,-1.3016891E-1,-9.061726E-1,1.452447E-1,1.0826657E0,9.5230526E-1,-2.4284008E-1,8.4345204E-1,3.2807368E-1,-1.835436E-1,2.7055743E-1,-9.701936E-1,-2.9646635E-1,1.8137218E-2,-2.0375665E-2,-1.1768643E0,-7.591963E-1,-2.3696283E-2,1.4912909E-2,3.8718756E-2,2.2508686E-2,1.5324228E-2,4.025889E-2,-2.1977883E-2,7.255828E-3,2.90352E-2,5.8374223E-3,2.5003508E-2,1.5604364E-4,1.7254043E-2,-6.9539663E-3,1.5520234E-2,-1.3378399E-2,-3.7062846E-2,-5.08114E-3,-1.8657899E-2,4.3245056E-3,-3.8225945E-2,-2.2621565E-2,4.0312093E-3,-2.5588367E-2],"categories":[],"categories_nodes":[],"categories_segments":[],"categories_sizes":[],"default_left":[0,0,0,0,0,0,0,0,0,0,0,0,0,0,0,0,0,0,0,0,0,0,0,0,0,0,0,0,0,0,0,0,0,0,0,0,0,0,0,0,0,0,0,0,0,0,0,0,0,0,0,0,0],"id":29,"left_children":[1,3,5,7,9,11,13,15,17,-1,19,21,23,25,27,29,31,33,35,37,39,41,43,45,47,-1,-1,49,51,-1,-1,-1,-1,-1,-1,-1,-1,-1,-1,-1,-1,-1,-1,-1,-1,-1,-1,-1,-1,-1,-1,-1,-1],"loss_changes":[6.618624E2,8.506387E1,2.0276363E2,5.541254E1,3.3208923E1,6.573761E1,3.681064E1,7.097E1,7.78106E1,0E0,3.2529724E1,7.245519E1,3.9480774E1,3.0430565E1,1.790271E1,5.8654503E1,8.03981E0,9.886303E0,6.3059082E1,3.0762451E1,3.0624132E1,5.106059E1,8.357753E1,2.6682022E1,4.0791836E1,0E0,0E0,4.66922E0,2.8638947E1,0E0,0E0,0E0,0E0,0E0,0E0,0E0,0E0,0E0,0E0,0E0,0E0,0E0,0E0,0E0,0E0,0E0,0E0,0E0,0E0,0E0,0E0,0E0,0E0],"parents":[2147483647,0,0,1,1,2,2,3,3,4,4,5,5,6,6,7,7,8,8,10,10,11,11,12,12,13,13,14,14,15,15,16,16,17,17,18,18,19,19,20,20,21,21,22,22,23,23,24,24,27,27,28,28],"right_children":[2,4,6,8,10,12,14,16,18,-1,20,22,24,26,28,30,32,34,36,38,40,42,44,46,48,-1,-1,50,52,-1,-1,-1,-1,-1,-1,-1,-1,-1,-1,-1,-1,-1,-1,-1,-1,-1,-1,-1,-1,-1,-1,-1,-1],"split_conditions":[-1.6983907E-1,4.7964102E-4,5.095476E-1,5E-1,-7.490186E-1,6.666667E-1,-2E0,8.1456186E-5,-3.0475884E-4,3.638664E-2,7.189512E-4,4.1336738E-4,-2.9674117E-4,-2.4730708E-3,-1.1050919E-3,5.919198E-1,-2.8991774E-1,-4.3172488E-4,9.0027304E-4,1.3009703E0,0E0,-3.6383125E-3,2.200427E-3,1.383823E1,9.0027304E-4,1.8137218E-2,-2.0375665E-2,1.723078E1,-9.3089364E-4,-2.3696283E-2,1.4912909E-2,3.8718756E-2,2.2508686E-2,1.5324228E-2,4.025889E-2,-2.1977883E-2,7.255828E-3,2.90352E-2,5.8374223E-3,2.5003508E-2,1.5604364E-4,1.7254043E-2,-6.9539663E-3,1.5520234E-2,-1.3378399E-2,-3.7062846E-2,-5.08114E-3,-1.8657899E-2,4.3245056E-3,-3.8225945E-2,-2.2621565E-2,4.0312093E-3,-2.5588367E-2],"split_indices":[11,4,11,12,11,12,13,2,1,0,5,2,4,3,2,6,11,2,3,6,13,3,3,7,3,0,0,7,2,0,0,0,0,0,0,0,0,0,0,0,0,0,0,0,0,0,0,0,0,0,0,0,0],"split_type":[0,0,0,0,0,0,0,0,0,0,0,0,0,0,0,0,0,0,0,0,0,0,0,0,0,0,0,0,0,0,0,0,0,0,0,0,0,0,0,0,0,0,0,0,0,0,0,0,0,0,0,0,0],"sum_hessian":[4.2245723E3,1.3817808E3,2.8427917E3,6.535353E2,7.282454E2,2.2639487E3,5.788429E2,3.2534033E2,3.2819495E2,1.5284393E2,5.7540155E2,1.8561735E3,4.077754E2,7.134602E1,5.074969E2,1.7414818E2,1.5119215E2,6.666767E1,2.6152728E2,3.8812653E2,1.8727501E2,1.388238E3,4.6793536E2,1.2757255E2,2.8020285E2,3.019193E1,4.1154087E1,1.7293694E2,3.3455997E2,4.6697468E1,1.274507E2,8.89006E1,6.229155E1,3.3782497E1,3.2885174E1,1.2988438E2,1.316429E2,3.2447876E2,6.364775E1,7.1409386E1,1.15865616E2,8.13401E1,1.306898E3,3.4878043E2,1.1915494E2,9.473577E1,3.2836777E1,1.6107895E2,1.191239E2,1.367252E2,3.621174E1,3.1381445E1,3.031785E2],"tree_param":{"num_deleted":"0","num_feature":"16","num_nodes":"53","size_leaf_vector":"1"}},{"base_weights":[-3.6926528E-3,-2.849245E-1,4.9246356E-1,-7.221141E-1,-1.383265E-1,2.8740135E-1,8.285435E-1,-3.3605117E-1,-1.0308496E0,-5.632343E-2,-5.1497084E-1,-2.0237109E-1,3.6780322E-1,9.817905E-1,5.245268E-1,3.8451992E-2,-5.318539E-1,-1.2607151E0,-6.982769E-1,-2.4280274E-1,1.522891E-1,-1.0134261E0,-2.928871E-1,-3.41089E-2,3.6989006E-1,4.907679E-1,-1.4170365E-1,5.2731186E-1,1.128613E0,-4.9825036E-3,8.15173E-1,1.219488E-2,-2.0966575E-2,-4.2815182E-2,-3.290307E-2,-7.896395E-3,-3.6410153E-2,-1.7367322E-2,-4.1040446E-4,7.7053453E-3,-1.7131094E-2,-3.7676286E-2,-1.0923763E-2,-1.5941266E-2,1.3620666E-2,3.2460343E-2,-3.99488E-3,7.450409E-3,2.2204164E-2,-2.1456487E-2,1.049331E-2,-5.536251E-4,2.5130386E-2,3.6334675E-2,1.3459404E-2,3.7532374E-2,1.8304868E-2],"categories":[],"categories_nodes":[],