{"learner":{"attributes":{"best_iteration":"78","best_score":"0.7018870891456942"},"feature_names":["ret_1m","ret_3m","ret_5m","ret_10m","btc_return_since_open","volatility_5m","vol_ratio","volume_1m","btc_acceleration","mkt_premium","up_book_imbalance","down_book_imbalance","delta_mkt_premium","delta_up_book_imb","delta_down_book_imb","btc_poly_divergence","recent_up_pct_5","recent_streak","recent_mkt_surprise_5","market_progress","hour_sin","hour_cos"],"feature_types":[],"gradient_booster":{"model":{"cats":{"enc":[],"feature_segments":[],"sorted_idx":[]},"gbtree_model_param":{"num_parallel_tree":"1","num_trees":"129"},"iteration_indptr":[0,1,2,3,4,5,6,7,8,9,10,11,12,13,14,15,16,17,18,19,20,21,22,23,24,25,26,27,28,29,30,31,32,33,34,35,36,37,38,39,40,41,42,43,44,45,46,47,48,49,50,51,52,53,54,55,56,57,58,59,60,61,62,63,64,65,66,67,68,69,70,71,72,73,74,75,76,77,78,79,80,81,82,83,84,85,86,87,88,89,90,91,92,93,94,95,96,97,98,99,100,101,102,103,104,105,106,107,108,109,110,111,112,113,114,115,116,117,118,119,120,121,122,123,124,125,126,127,128,129],"tree_info":[0,0,0,0,0,0,0,0,0,0,0,0,0,0,0,0,0,0,0,0,0,0,0,0,0,0,0,0,0,0,0,0,0,0,0,0,0,0,0,0,0,0,0,0,0,0,0,0,0,0,0,0,0,0,0,0,0,0,0,0,0,0,0,0,0,0,0,0,0,0,0,0,0,0,0,0,0,0,0,0,0,0,0,0,0,0,0,0,0,0,0,0,0,0,0,0,0,0,0,0,0,0,0,0,0,0,0,0,0,0,0,0,0,0,0,0,0,0,0,0,0,0,0,0,0,0,0,0,0],"trees":[{"base_weights":[-5.232414E-3,7.608294E-1,-6.1000746E-1,4.8200935E-1,1.2371716E0,-1.835524E-1,-1.1154413E0,1.7815024E-2,1.3578673E-3,4.5445472E-2,2.9769767E-2,-4.207713E-3,-4.0746134E-2,-4.603375E-2,-2.5448238E-2],"categories":[],"categories_nodes":[],"categories_segments":[],"categories_sizes":[],"default_left":[0,0,0,0,0,0,0,0,0,0,0,0,0,0,0],"id":0,"left_children":[1,3,5,7,9,11,13,-1,-1,-1,-1,-1,-1,-1,-1],"loss_changes":[2.5852004E3,3.25224E2,6.71386E2,7.576758E1,5.7919556E1,8.5328E1,1.5636426E2,0E0,0E0,0E0,0E0,0E0,0E0,0E0,0E0],"parents":[2147483647,0,0,1,1,2,2,3,3,4,4,5,5,6,6],"right_children":[2,4,6,8,10,12,14,-1,-1,-1,-1,-1,-1,-1,-1],"split_conditions":[-2.9919509E-2,3.8E-1,2.6991415E-1,8.638355E-1,-5.4875636E-1,5E-1,-5.2E-1,1.7815024E-2,1.3578673E-3,4.5445472E-2,2.9769767E-2,-4.207713E-3,-4.0746134E-2,-4.603375E-2,-2.5448238E-2],"split_indices":[15,9,15,21,15,18,9,0,0,0,0,0,0,0,0],"split_type":[0,0,0,0,0,0,0,0,0,0,0,0,0,0,0],"sum_hessian":[5.5761245E3,2.4595845E3,3.1165403E3,1.5543954E3,9.051891E2,1.6921361E3,1.4244042E3,1.2364167E3,3.179786E2,4.1872183E2,4.8646725E2,1.63439E3,5.7746113E1,5.5046295E2,8.7394116E2],"tree_param":{"num_deleted":"0","num_feature":"22","num_nodes":"15","size_leaf_vector":"1"}},{"base_weights":[3.792648E-3,4.9723214E-1,-8.7427485E-1,2.1202923E-1,1.1341966E0,-6.259276E-1,-1.4618235E0,1.2415105E-2,-1.1097752E-3,4.4478916E-2,2.7761282E-2,-7.3105805E-3,-2.2456165E-2,-2.4610784E-2,-4.591465E-2],"categories":[],"categories_nodes":[],"categories_segments":[],"categories_sizes":[],"default_left":[0,0,0,0,0,0,0,0,0,0,0,0,0,0,0],"id":1,"left_children":[1,3,5,7,9,11,13,-1,-1,-1,-1,-1,-1,-1,-1],"loss_changes":[2.4392126E3,6.539508E2,2.9307324E2,1.2540841E2,7.759131E1,6.62384E1,2.320581E1,0E0,0E0,0E0,0E0,0E0,0E0,0E0,0E0],"parents":[2147483647,0,0,1,1,2,2,3,3,4,4,5,5,6,6],"right_children":[2,4,6,8,10,12,14,-1,-1,-1,-1,-1,-1,-1,-1],"split_conditions":[1.5E-1,3.2E-1,5.092953E-1,-2.9919509E-2,-5.4875636E-1,2.72012E0,-2E0,1.2415105E-2,-1.1097752E-3,4.4478916E-2,2.7761282E-2,-7.3105805E-3,-2.2456165E-2,-2.4610784E-2,-4.591465E-2],"split_indices":[15,9,15,15,15,7,17,0,0,0,0,0,0,0,0],"split_type":[0,0,0,0,0,0,0,0,0,0,0,0,0,0,0],"sum_hessian":[5.6259883E3,3.6026494E3,2.0233386E3,2.4906084E3,1.1120411E3,1.4254608E3,5.978778E2,1.3756558E3,1.1149525E3,4.116062E2,7.0043494E2,3.4824026E2,1.0772206E3,6.073732E1,5.371405E2],"tree_param":{"num_deleted":"0","num_feature":"22","num_nodes":"15","size_leaf_vector":"1"}},{"base_weights":[8.348759E-3,4.796696E-1,-8.3839667E-1,2.1264595E-1,1.0751011E0,-1.4193127E0,-5.89063E-1,1.0507512E-2,-4.2917547E-3,4.2903118E-2,2.5832541E-2,-3.8067304E-2,-5.09194E-2,-6.7879E-3,-2.1224696E-2],"categories":[],"categories_nodes":[],"categories_segments":[],"categories_sizes":[],"default_left":[0,0,0,0,0,0,0,0,0,0,0,0,0,0,0],"id":2,"left_children":[1,3,5,7,9,11,13,-1,-1,-1,-1,-1,-1,-1,-1],"loss_changes":[2.22815E3,5.6947546E2,2.8687427E2,1.215156E2,8.1163574E1,1.9795166E1,5.9575653E1,0E0,0E0,0E0,0E0,0E0,0E0,0E0,0E0],"parents":[2147483647,0,0,1,1,2,2,3,3,4,4,5,5,6,6],"right_children":[2,4,6,8,10,12,14,-1,-1,-1,-1,-1,-1,-1,-1],"split_conditions":[1.5E-1,3.2E-1,-5E-1,8.141155E-1,-5.4875636E-1,2E0,2.72012E0,1.0507512E-2,-4.2917547E-3,4.2903118E-2,2.5832541E-2,-3.8067304E-2,-5.09194E-2,-6.7879E-3,-2.1224696E-2],"split_indices":[15,9,9,21,15,17,7,0,0,0,0,0,0,0,0],"split_type":[0,0,0,0,0,0,0,0,0,0,0,0,0,0,0],"sum_hessian":[5.5793477E3,3.5850408E3,1.9943069E3,2.4773025E3,1.1077382E3,5.957339E2,1.398573E3,1.7869097E3,6.903929E2,4.1183484E2,6.959033E2,3.9450732E2,2.0122655E2,3.4623618E2,1.0523369E3],"tree_param":{"num_deleted":"0","num_feature":"22","num_nodes":"15","size_leaf_vector":"1"}},{"base_weights":[-2.4932479E-3,-5.5499995E-1,6.818035E-1,-1.2207326E0,-2.8098086E-1,3.8549185E-1,1.0544311E0,-4.779998E-2,-3.0658893E-2,-1.7125038E-2,-3.4712919E-3,3.8954923E-3,1.6368682E-2,2.4414385E-2,3.863301E-2],"categories":[],"categories_nodes":[],"categories_segments":[],"categories_sizes":[],"default_left":[0,0,0,0,0,0,0,0,0,0,0,0,0,0,0],"id":3,"left_children":[1,3,5,7,9,11,13,-1,-1,-1,-1,-1,-1,-1,-1],"loss_changes":[2.1143108E3,5.633486E2,2.7456726E2,6.271472E1,1.0481258E2,5.6765106E1,5.9307983E1,0E0,0E0,0E0,0E0,0E0,0E0,0E0,0E0],"parents":[2147483647,0,0,1,1,2,2,3,3,4,4,5,5,6,6],"right_children":[2,4,6,8,10,12,14,-1,-1,-1,-1,-1,-1,-1,-1],"split_conditions":[2E-2,-4E-1,3.2E-1,-6.4E-1,-2.2E-1,8.3455867E-1,4.8E-1,-4.779998E-2,-3.0658893E-2,-1.7125038E-2,-3.4712919E-3,3.8954923E-3,1.6368682E-2,2.4414385E-2,3.863301E-2],"split_indices":[9,9,9,9,9,6,9,0,0,0,0,0,0,0,0],"split_type":[0,0,0,0,0,0,0,0,0,0,0,0,0,0,0],"sum_hessian":[5.588351E3,3.0923662E3,2.495985E3,8.993589E2,2.1930073E3,1.3930847E3,1.1029003E3,3.0746457E2,5.9189435E2,7.9391315E2,1.3990941E3,5.3864935E2,8.544354E2,5.4802875E2,5.548715E2],"tree_param":{"num_deleted":"0","num_feature":"22","num_nodes":"15","size_leaf_vector":"1"}},{"base_weights":[3.4234803E-3,-8.043648E-1,4.5223713E-1,-1.2354928E0,-5.303247E-1,1.9244507E-1,1.0357049E0,-4.6124414E-2,-3.100788E-2,-5.1600393E-3,-1.945956E-2,9.758833E-3,-4.4023306E-3,2.453122E-2,4.0280994E-2],"categories":[],"categories_nodes":[],"categories_segments":[],"categories_sizes":[],"default_left":[0,0,0,0,0,0,0,0,0,0,0,0,0,0,0],"id":4,"left_children":[1,3,5,7,9,11,13,-1,-1,-1,-1,-1,-1,-1,-1],"loss_changes":[2.022219E3,2.3351538E2,5.4280554E2,4.3132935E1,5.1336304E1,1.1208356E2,7.10387E1,0E0,0E0,0E0,0E0,0E0,0E0,0E0,0E0],"parents":[2147483647,0,0,1,1,2,2,3,3,4,4,5,5,6,6],"right_children":[2,4,6,8,10,12,14,-1,-1,-1,-1,-1,-1,-1,-1],"split_conditions":[-1.5E-1,-4.4E-1,3.2E-1,-6.4E-1,2.72012E0,8.141155E-1,6.608987E-4,-4.6124414E-2,-3.100788E-2,-5.1600393E-3,-1.945956E-2,9.758833E-3,-4.4023306E-3,2.453122E-2,4.0280994E-2],"split_indices":[9,9,9,9,7,21,4,0,0,0,0,0,0,0,0],"split_type":[0,0,0,0,0,0,0,0,0,0,0,0,0,0,0],"sum_hessian":[5.574106E3,1.9900682E3,3.5840376E3,7.702214E2,1.2198469E3,2.4820608E3,1.1019768E3,3.0271637E2,4.6750504E2,3.0467136E2,9.151755E2,1.7842104E3,6.9785034E2,6.492489E2,4.5272787E2],"tree_param":{"num_deleted":"0","num_feature":"22","num_nodes":"15","size_leaf_vector":"1"}},{"base_weights":[2.489708E-3,-5.193754E-1,6.5234107E-1,-2.1849194E-1,-1.0833131E0,1.2343266E0,4.807143E-1,3.995399E-3,-1.1034233E-2,-4.5054257E-2,-2.7428512E-2,2.9581118E-2,4.3828174E-2,5.1497626E-3,2.0044908E-2],"categories":[],"categories_nodes":[],"categories_segments":[],"categories_sizes":[],"default_left":[0,0,0,0,0,0,0,0,0,0,0,0,0,0,0],"id":5,"left_children":[1,3,5,7,9,11,13,-1,-1,-1,-1,-1,-1,-1,-1],"loss_changes":[1.8986152E3,5.2593085E2,2.4737524E2,1.0662472E2,7.287634E1,2.8243835E1,1.1129437E2,0E0,0E0,0E0,0E0,0E0,0E0,0E0,0E0],"parents":[2147483647,0,0,1,1,2,2,3,3,4,4,5,5,6,6],"right_children":[2,4,6,8,10,12,14,-1,-1,-1,-1,-1,-1,-1,-1],"split_conditions":[3E-2,3.4982017E-1,-4.6979254E-1,3.02813E0,-6.4E-1,1.3052619E-1,8.3455867E-1,3.995399E-3,-1.1034233E-2,-4.5054257E-2,-2.7428512E-2,2.9581118E-2,4.3828174E-2,5.1497626E-3,2.0044908E-2],"split_indices":[9,15,15,7,9,21,6,0,0,0,0,0,0,0,0],"split_type":[0,0,0,0,0,0,0,0,0,0,0,0,0,0,0],"sum_hessian":[5.594294E3,3.1026453E3,2.4916487E3,2.0253477E3,1.0772976E3,5.6422675E2,1.927422E3,6.0310596E2,1.4222417E3,3.0488815E2,7.724095E2,2.7497504E2,2.892517E2,7.297252E2,1.1976968E3],"tree_param":{"num_deleted":"0","num_feature":"22","num_nodes":"15","size_leaf_vector":"1"}},{"base_weights":[8.8077754E-4,4.3040612E-1,-7.6259047E-1,1.835674E-1,9.8505086E-1,-1.3095204E0,-5.5636245E-1,1.06590465E-2,-4.8601555E-4,1.883046E-2,3.4678802E-2,-2.8729549E-2,-4.315614E-2,-7.6627214E-3,-2.00594E-2],"categories":[],"categories_nodes":[],"categories_segments":[],"categories_sizes":[],"default_left":[0,0,0,0,0,0,0,0,0,0,0,0,0,0,0],"id":6,"left_children":[1,3,5,7,9,11,13,-1,-1,-1,-1,-1,-1,-1,-1],"loss_changes":[1.8152659E3,4.8434705E2,2.2276282E2,8.4324615E1,6.460791E1,2.1213196E1,4.841333E1,0E0,0E0,0E0,0E0,0E0,0E0,0E0,0E0],"parents":[2147483647,0,0,1,1,2,2,3,3,4,4,5,5,6,6],"right_children":[2,4,6,8,10,12,14,-1,-1,-1,-1,-1,-1,-1,-1],"split_conditions":[1.5E-1,3.2E-1,-5.2E-1,-2.9999858E-2,4.2078577E-4,-1.3785904E-3,2.99449E0,1.06590465E-2,-4.8601555E-4,1.883046E-2,3.4678802E-2,-2.8729549E-2,-4.315614E-2,-7.6627214E-3,-2.00594E-2],"split_indices":[15,9,9,15,4,3,7,0,0,0,0,0,0,0,0],"split_type":[0,0,0,0,0,0,0,0,0,0,0,0,0,0,0],"sum_hessian":[5.5318267E3,3.540963E3,1.9908636E3,2.452643E3,1.0883198E3,5.418057E2,1.4490579E3,1.3188307E3,1.1338124E3,3.556859E2,7.326339E2,1.5050511E2,3.913006E2,3.962554E2,1.0528025E3],"tree_param":{"num_deleted":"0","num_feature":"22","num_nodes":"15","size_leaf_vector":"1"}},{"base_weights":[4.229959E-3,6.3009244E-1,-4.92807E-1,3.866052E-1,1.0681463E0,-1.4634782E-1,-9.142447E-1,3.3123232E-2,7.8708E-3,1.8470274E-2,3.7304252E-2,-1.0584581E-2,2.8282974E-3,-4.3139786E-2,-2.3105005E-2],"categories":[],"categories_nodes":[],"categories_segments":[],"categories_sizes":[],"default_left":[0,0,0,0,0,0,0,0,0,0,0,0,0,0,0],"id":7,"left_children":[1,3,5,7,9,11,13,-1,-1,-1,-1,-1,-1,-1,-1],"loss_changes":[1.7273875E3,2.609237E2,4.512694E2,1.4017538E2,6.74541E1,8.466268E1,1.024259E2,0E0,0E0,0E0,0E0,0E0,0E0,0E0,0E0],"parents":[2147483647,0,0,1,1,2,2,3,3,4,4,5,5,6,6],"right_children":[2,4,6,8,10,12,14,-1,-1,-1,-1,-1,-1,-1,-1],"split_conditions":[-2.9919509E-2,4.2078577E-4,2.6991415E-1,-9.22201E-1,-4.2656875E-1,7.357471E-5,-6.4E-1,3.3123232E-2,7.8708E-3,1.8470274E-2,3.7304252E-2,-1.0584581E-2,2.8282974E-3,-4.3139786E-2,-2.3105005E-2],"split_indices":[15,4,15,21,21,3,9,0,0,0,0,0,0,0,0],"split_type":[0,0,0,0,0,0,0,0,0,0,0,0,0,0,0],"sum_hessian":[5.5488013E3,2.4561355E3,3.0926658E3,1.5815173E3,8.746181E2,1.6991885E3,1.3934772E3,2.3075351E2,1.3507639E3,2.4725684E2,6.2736127E2,9.1466235E2,7.845261E2,2.9630664E2,1.0971707E3],"tree_param":{"num_deleted":"0","num_feature":"22","num_nodes":"15","size_leaf_vector":"1"}},{"base_weights":[-1.0223449E-2,3.946459E-1,-7.3248655E-1,9.279007E-1,1.6461052E-1,-4.7821677E-1,-1.1693491E0,3.7686475E-2,2.1669827E-2,5.9698443E-3,-3.4153342E-2,-1.2465844E-2,-3.3932652E-2,-2.9667178E-2,-4.26505E-2],"categories":[],"categories_nodes":[],"categories_segments":[],"categories_sizes":[],"default_left":[0,0,0,0,0,0,0,0,0,0,0,0,0,0,0],"id":8,"left_children":[1,3,5,7,9,11,13,-1,-1,-1,-1,-1,-1,-1,-1],"loss_changes":[1.6213396E3,4.3513727E2,2.1963159E2,6.97948E1,1.114957E2,5.027896E1,2.9746521E1,0E0,0E0,0E0,0E0,0E0,0E0,0E0,0E0],"parents":[2147483647,0,0,1,1,2,2,3,3,4,4,5,5,6,6],"right_children":[2,4,6,8,10,12,14,-1,-1,-1,-1,-1,-1,-1,-1],"split_conditions":[1.5E-1,-3.2924098E-1,4.4973475E-1,-5.4875636E-1,5E-1,2.0939866E-3,6.394141E-1,3.7686475E-2,2.1669827E-2,5.9698443E-3,-3.4153342E-2,-1.2465844E-2,-3.3932652E-2,-2.9667178E-2,-4.26505E-2],"split_indices":[15,15,15,15,18,3,15,0,0,0,0,0,0,0,0],"split_type":[0,0,0,0,0,0,0,0,0,0,0,0,0,0,0],"sum_hessian":[5.540193E3,3.550454E3,1.9897386E3,1.067791E3,2.482663E3,1.2607896E3,7.2894904E2,4.06654E2,6.6113696E2,2.4207114E3,6.195158E1,1.1537401E3,1.0704945E2,4.3144888E2,2.9750015E2],"tree_param":{"num_deleted":"0","num_feature":"22","num_nodes":"15","size_leaf_vector":"1"}},{"base_weights":[4.055722E-4,5.920593E-1,-4.6148598E-1,3.5789216E-1,9.948421E-1,-1.2473147E-1,-8.770586E-1,1.4417731E-2,-2.7079678E-3,2.6600918E-2,4.245824E-2,-2.4421262E-3,-4.0259708E-2,-1.98334E-2,-3.5457227E-2],"categories":[],"categories_nodes":[],"categories_segments":[],"categories_sizes":[],"default_left":[0,0,0,0,0,0,0,0,0,0,0,0,0,0,0],"id":9,"left_children":[1,3,5,7,9,11,13,-1,-1,-1,-1,-1,-1,-1,-1],"loss_changes":[1.5106473E3,2.2748346E2,4.3387006E2,8.468048E1,3.7240906E1,8.992656E1,8.9301025E1,0E0,0E0,0E0,0E0,0E0,0E0,0E0,0E0],"parents":[2147483647,0,0,1,1,2,2,3,3,4,4,5,5,6,6],"right_children":[2,4,6,8,10,12,14,-1,-1,-1,-1,-1,-1,-1,-1],"split_conditions":[-2.9999858E-2,3.8E-1,2.6991415E-1,8.5264015E-1,6.8E-1,5E-1,5.092953E-1,1.4417731E-2,-2.7079678E-3,2.6600918E-2,4.245824E-2,-2.4421262E-3,-4.0259708E-2,-1.98334E-2,-3.5457227E-2],"split_indices":[15,9,15,21,9,18,15,0,0,0,0,0,0,0,0],"split_type":[0,0,0,0,0,0,0,0,0,0,0,0,0,0,0],"sum_hessian":[5.5236963E3,2.4217168E3,3.1019795E3,1.5342605E3,8.8745624E2,1.7153154E3,1.3866641E3,1.2049012E3,3.293593E2,7.113998E2,1.760565E2,1.6586572E3,5.665825E1,8.1597504E2,5.70689E2],"tree_param":{"num_deleted":"0","num_feature":"22","num_nodes":"15","size_leaf_vector":"1"}},{"base_weights":[1.8725734E-3,3.7568885E-1,-6.6681486E-1,1.5815839E-1,8.7415284E-1,-4.4056442E-1,-1.0643497E0,8.357373E-3,-4.4212886E-3,3.553359E-2,2.0648062E-2,-2.0643005E-3,-1.6816122E-2,-3.9831676E-2,-2.636971E-2],"categories":[],"categories_nodes":[],"categories_segments":[],"categories_sizes":[],"default_left":[0,0,0,0,0,0,0,0,0,0,0,0,0,0,0],"id":10,"left_children":[1,3,5,7,9,11,13,-1,-1,-1,-1,-1,-1,-1,-1],"loss_changes":[1.3752316E3,3.8211166E2,1.7603131E2,9.063081E1,5.9607605E1,5.5976227E1,3.1839905E1,0E0,0E0,0E0,0E0,0E0,0E0,0E0,0E0],"parents":[2147483647,0,0,1,1,2,2,3,3,4,4,5,5,6,6],"right_children":[2,4,6,8,10,12,14,-1,-1,-1,-1,-1,-1,-1,-1],"split_conditions":[1.5E-1,3.2E-1,4.4973475E-1,8.141155E-1,-5.4875636E-1,2.72012E0,-6.4E-1,8.357373E-3,-4.4212886E-3,3.553359E-2,2.0648062E-2,-2.0643005E-3,-1.6816122E-2,-3.9831676E-2,-2.636971E-2],"split_indices":[15,9,15,21,15,7,9,0,0,0,0,0,0,0,0],"split_type":[0,0,0,0,0,0,0,0,0,0,0,0,0,0,0],"sum_hessian":[5.4980137E3,3.5274106E3,1.9706029E3,2.4579805E3,1.06943E3,1.2590221E3,7.115808E2,1.7639222E3,6.940583E2,3.960079E2,6.734221E2,3.0855746E2,9.5046466E2,2.8817508E2,4.2340573E2],"tree_param":{"num_deleted":"0","num_feature":"22","num_nodes":"15","size_leaf_vector":"1"}},{"base_weights":[1.3195259E-3,-4.477749E-1,5.5878097E-1,-1.24906585E-1,-8.27968E-1,3.3774334E-1,9.700378E-1,-2.4637552E-3,-3.753629E-2,-3.935852E-2,-2.0824537E-2,3.0366711E-2,6.65435E-3,1.5804622E-2,3.425733E-2],"categories":[],"categories_nodes":[],"categories_segments":[],"categories_sizes":[],"default_left":[0,0,0,0,0,0,0,0,0,0,0,0,0,0,0],"id":11,"left_children":[1,3,5,7,9,11,13,-1,-1,-1,-1,-1,-1,-1,-1],"loss_changes":[1.37269E3,3.722198E2,2.2135577E2,7.864478E1,8.783215E1,1.2388829E2,6.333142E1,0E0,0E0,0E0,0E0,0E0,0E0,0E0,0E0],"parents":[2147483647,0,0,1,1,2,2,3,3,4,4,5,5,6,6],"right_children":[2,4,6,8,10,12,14,-1,-1,-1,-1,-1,-1,-1,-1],"split_conditions":[2E-2,2.6991415E-1,4.2078577E-4,5E-1,-6.4E-1,-9.22201E-1,-4.2656875E-1,-2.4637552E-3,-3.753629E-2,-3.935852E-2,-2.0824537E-2,3.0366711E-2,6.65435E-3,1.5804622E-2,3.425733E-2],"split_indices":[9,15,4,18,9,21,21,0,0,0,0,0,0,0,0],"split_type":[0,0,0,0,0,0,0,0,0,0,0,0,0,0,0],"sum_hessian":[5.47889E3,3.0342969E3,2.4445933E3,1.6427141E3,1.3915826E3,1.5928556E3,8.517376E2,1.5849247E3,5.778948E1,2.971204E2,1.0944623E3,2.3098053E2,1.361875E3,2.4075859E2,6.1097906E2],"tree_param":{"num_deleted":"0","num_feature":"22","num_nodes":"15","size_leaf_vector":"1"}},{"base_weights":[-3.6284886E-3,3.6362153E-1,-6.5516925E-1,1.6672632E-1,9.354911E-1,-4.3307546E-1,-1.0432639E0,2.4169365E-2,2.4344118E-3,-4.637376E-3,2.9838813E-2,-2.157576E-3,-1.6548105E-2,-2.5896968E-2,-3.9198417E-2],"categories":[],"categories_nodes":[],"categories_segments":[],"categories_sizes":[],"default_left":[0,0,0,0,0,0,0,0,0,0,0,0,0,0,0],"id":12,"left_children":[1,3,5,7,9,11,13,-1,-1,-1,-1,-1,-1,-1,-1],"loss_changes":[1.3172675E3,3.9572275E2,1.6971661E2,1.4293736E2,5.862451E1,5.3935623E1,3.125061E1,0E0,0E0,0E0,0E0,0E0,0E0,0E0,0E0],"parents":[2147483647,0,0,1,1,2,2,3,3,4,4,5,5,6,6],"right_children":[2,4,6,8,10,12,14,-1,-1,-1,-1,-1,-1,-1,-1],"split_conditions":[1.5E-1,4.2078577E-4,4.4973475E-1,-9.22201E-1,-5.407926E-4,2.72012E0,6.394141E-1,2.4169365E-2,2.4344118E-3,-4.637376E-3,2.9838813E-2,-2.157576E-3,-1.6548105E-2,-2.5896968E-2,-3.9198417E-2],"split_indices":[15,4,15,21,0,7,15,0,0,0,0,0,0,0,0],"split_type":[0,0,0,0,0,0,0,0,0,0,0,0,0,0,0],"sum_hessian":[5.500811E3,3.5181694E3,1.9826417E3,2.6194114E3,8.9875793E2,1.2641913E3,7.184503E2,3.0700848E2,2.312403E3,4.5821255E1,8.529367E2,3.1379596E2,9.503954E2,4.324877E2,2.8596265E2],"tree_param":{"num_deleted":"0","num_feature":"22","num_nodes":"15","size_leaf_vector":"1"}},{"base_weights":[-3.9000711E-3,5.27851E-1,-4.241129E-1,1.0448735E0,3.7876296E-1,-1.8608706E-1,-8.961542E-1,2.4080751E-2,3.7104815E-2,-5.1976903E-4,1.5803812E-2,2.5810366E-3,-9.0364395E-3,-3.382939E-2,-1.9763062E-2],"categories":[],"categories_nodes":[],"categories_segments":[],"categories_sizes":[],"default_left":[0,0,0,0,0,0,0,0,0,0,0,0,0,0,0],"id":13,"left_children":[1,3,5,7,9,11,13,-1,-1,-1,-1,-1,-1,-1,-1],"loss_changes":[1.2263757E3,1.8550647E2,3.4384412E2,2.2533691E1,1.1062625E2,6.4066086E1,5.440741E1,0E0,0E0,0E0,0E0,0E0,0E0,0E0,0E0],"parents":[2147483647,0,0,1,1,2,2,3,3,4,4,5,5,6,6],"right_children":[2,4,6,8,10,12,14,-1,-1,-1,-1,-1,-1,-1,-1],"split_conditions":[-2.9919509E-2,-4.6979254E-1,3.4982017E-1,-3.3380687E-1,6.85468E-1,3.02813E0,-5.2E-1,2.4080751E-2,3.7104815E-2,-5.1976903E-4,1.5803812E-2,2.5810366E-3,-9.0364395E-3,-3.382939E-2,-1.9763062E-2],"split_indices":[15,15,15,20,6,7,9,0,0,0,0,0,0,0,0],"split_type":[0,0,0,0,0,0,0,0,0,0,0,0,0,0,0],"sum_hessian":[5.484537E3,2.4204255E3,3.0641118E3,5.385967E2,1.8818289E3,2.0392489E3,1.0248629E3,2.4341476E2,2.951819E2,5.1189154E2,1.3699373E3,6.056359E2,1.4336129E3,5.144348E2,5.104281E2],"tree_param":{"num_deleted":"0","num_feature":"22","num_nodes":"15","size_leaf_vector":"1"}},{"base_weights":[7.8154856E-4,3.484531E-1,-6.276833E-1,1.6732474E-1,8.717158E-1,-1.0805829E0,-4.6627373E-1,2.5681045E-2,2.2502518E-3,1.4112819E-2,3.0620044E-2,-2.1512171E-2,-3.6520608E-2,-5.469945E-3,-1.7137606E-2],"categories":[],"categories_nodes":[],"categories_segments":[],"categories_sizes":[],"default_left":[0,0,0,0,0,0,0,0,0,0,0,0,0,0,0],"id":14,"left_children":[1,3,5,7,9,11,13,-1,-1,-1,-1,-1,-1,-1,-1],"loss_changes":[1.1986075E3,3.3418573E2,1.4134491E2,1.6661127E2,5.2831238E1,2.3095215E1,4.2618744E1,0E0,0E0,0E0,0E0,0E0,0E0,0E0,0E0],"parents":[2147483647,0,0,1,1,2,2,3,3,4,4,5,5,6,6],"right_children":[2,4,6,8,10,12,14,-1,-1,-1,-1,-1,-1,-1,-1],"split_conditions":[1.5E-1,4.2078577E-4,-5.2E-1,-9.22201E-1,-4.2656875E-1,-1.3785904E-3,-6.85183E-1,2.5681045E-2,2.2502518E-3,1.4112819E-2,3.0620044E-2,-2.1512171E-2,-3.6520608E-2,-5.469945E-3,-1.7137606E-2],"split_indices":[15,4,9,21,21,3,20,0,0,0,0,0,0,0,0],"split_type":[0,0,0,0,0,0,0,0,0,0,0,0,0,0,0],"sum_hessian":[5.482015E3,3.5303608E3,1.9516542E3,2.6249443E3,9.0541656E2,5.0931577E2,1.4423384E3,3.0792532E2,2.317019E3,2.4789638E2,6.575202E2,1.4325378E2,3.6606198E2,3.9157217E2,1.0507662E3],"tree_param":{"num_deleted":"0","num_feature":"22","num_nodes":"15","size_leaf_vector":"1"}},{"base_weights":[2.4339377E-3,-4.070136E-1,5.102854E-1,-1.2219919E-1,-7.506894E-1,3.16626E-1,9.079716E-1,5.173078E-3,-7.5881714E-3,-3.1092346E-2,-1.7353958E-2,2.879948E-2,6.3948333E-3,1.3445774E-2,3.2641612E-2],"categories":[],"categories_nodes":[],"categories_segments":[],"categories_sizes":[],"default_left":[0,0,0,0,0,0,0,0,0,0,0,0,0,0,0],"id":15,"left_children":[1,3,5,7,9,11,13,-1,-1,-1,-1,-1,-1,-1,-1],"loss_changes":[1.1351288E3,2.9534842E2,1.867395E2,6.38751E1,6.5661316E1,1.08567566E2,6.451166E1,0E0,0E0,0E0,0E0,0E0,0E0,0E0,0E0],"parents":[2147483647,0,0,1,1,2,2,3,3,4,4,5,5,6,6],"right_children":[2,4,6,8,10,12,14,-1,-1,-1,-1,-1,-1,-1,-1],"split_conditions":[3E-2,2.6991415E-1,4.3533376E-4,3.02813E0,-5.2E-1,-9.22201E-1,-4.2656875E-1,5.173078E-3,-7.5881714E-3,-3.1092346E-2,-1.7353958E-2,2.879948E-2,6.3948333E-3,1.3445774E-2,3.2641612E-2],"split_indices":[9,15,4,7,9,21,21,0,0,0,0,0,0,0,0],"split_type":[0,0,0,0,0,0,0,0,0,0,0,0,0,0,0],"sum_hessian":[5.4548174E3,3.019886E3,2.4349312E3,1.6533169E3,1.3665692E3,1.6404404E3,7.9449066E2,5.0724893E2,1.1460679E3,5.0950916E2,8.5706006E2,2.2457166E2,1.4158688E3,2.2603348E2,5.684572E2],"tree_param":{"num_deleted":"0","num_feature":"22","num_nodes":"15","size_leaf_vector":"1"}},{"base_weights":[3.7486951E-3,-3.849048E-1,4.8759684E-1,-1.09645E-1,-7.278139E-1,2.901751E-1,8.643949E-1,6.176221E-3,-7.5171776E-3,-3.1005224E-2,-1.6295476E-2,2.8224887E-2,5.4033594E-3,1.2409032E-2,3.1399034E-2],"categories":[],"categories_nodes":[],"categories_segments":[],"categories_sizes":[],"default_left":[0,0,0,0,0,0,0,0,0,0,0,0,0,0,0],"id":16,"left_children":[1,3,5,7,9,11,13,-1,-1,-1,-1,-1,-1,-1,-1],"loss_changes":[1.02360834E3,2.844717E2,1.7954071E2,7.4688194E1,7.420947E1,1.1353157E2,6.705762E1,0E0,0E0,0E0,0E0,0E0,0E0,0E0,0E0],"parents":[2147483647,0,0,1,1,2,2,3,3,4,4,5,5,6,6],"right_children":[2,4,6,8,10,12,14,-1,-1,-1,-1,-1,-1,-1,-1],"split_conditions":[3E-2,2.6991415E-1,4.2078577E-4,3.02813E0,-5.2E-1,-9.22201E-1,-4.2656875E-1,6.176221E-3,-7.5171776E-3,-3.1005224E-2,-1.6295476E-2,2.8224887E-2,5.4033594E-3,1.2409032E-2,3.1399034E-2],"split_indices":[9,15,4,7,9,21,21,0,0,0,0,0,0,0,0],"split_type":[0,0,0,0,0,0,0,0,0,0,0,0,0,0,0],"sum_hessian":[5.4391387E3,3.0161719E3,2.4229668E3,1.6750729E3,1.3410991E3,1.5927754E3,8.3019135E2,5.162358E2,1.158837E3,5.0091525E2,8.401839E2,2.2786946E2,1.3649059E3,2.4136716E2,5.8882416E2],"tree_param":{"num_deleted":"0","num_feature":"22","num_nodes":"15","size_leaf_vector":"1"}},{"base_weights":[7.357425E-3,3.2891884E-1,-5.762411E-1,1.57894E-1,8.4718174E-1,-4.128843E-1,-1.0451273E0,2.309008E-2,2.3319956E-3,-5.952576E-3,2.7175754E-2,-3.8664015E-3,-1.5620933E-2,-1.3658783E-2,-3.3737782E-2],"categories":[],"categories_nodes":[],"categories_segments":[],"categories_sizes":[],"default_left":[0,0,0,0,0,0,0,0,0,0,0,0,0,0,0],"id":17,"left_children":[1,3,5,7,9,11,13,-1,-1,-1,-1,-1,-1,-1,-1],"loss_changes":[1.0181207E3,3.0952142E2,1.463122E2,1.2876598E2,5.377307E1,4.3548965E1,2.1757446E1,0E0,0E0,0E0,0E0,0E0,0E0,0E0,0E0],"parents":[2147483647,0,0,1,1,2,2,3,3,4,4,5,5,6,6],"right_children":[2,4,6,8,10,12,14,-1,-1,-1,-1,-1,-1,-1,-1],"split_conditions":[1.5E-1,4.2919003E-4,5.271707E-1,-9.22201E-1,-5.407926E-4,-6.85183E-1,-2.6726082E-3,2.309008E-2,2.3319956E-3,-5.952576E-3,2.7175754E-2,-3.8664015E-3,-1.5620933E-2,-1.3658783E-2,-3.3737782E-2],"split_indices":[15,4,15,21,0,20,3,0,0,0,0,0,0,0,0],"split_type":[0,0,0,0,0,0,0,0,0,0,0,0,0,0,0],"sum_hessian":[5.421643E3,3.4964783E3,1.9251646E3,2.6313354E3,8.651429E2,1.431011E3,4.941536E2,3.024137E2,2.3289219E3,4.5445396E1,8.196975E2,3.9573416E2,1.0352769E3,6.0716736E1,4.334369E2],"tree_param":{"num_deleted":"0","num_feature":"22","num_nodes":"15","size_leaf_vector":"1"}},{"base_weights":[-5.076544E-4,-4.673824E-1,3.7388715E-1,-3.147042E-1,-9.7644037E-1,7.6707584E-1,1.6575801E-1,1.3332678E-2,-1.10667655E-2,-1.739567E-2,-3.301724E-2,3.79838E-2,2.0127261E-2,-3.074991E-3,1.2826451E-2],"categories":[],"categories_nodes":[],"categories_segments":[],"categories_sizes":[],"default_left":[0,0,0,0,0,0,0,0,0,0,0,0,0,0,0],"id":18,"left_children":[1,3,5,7,9,11,13,-1,-1,-1,-1,-1,-1,-1,-1],"loss_changes":[9.529047E2,1.8758386E2,2.4701114E2,7.722815E1,2.5710754E1,4.7917847E1,1.393062E2,0E0,0E0,0E0,0E0,0E0,0E0,0E0,0E0],"parents":[2147483647,0,0,1,1,2,2,3,3,4,4,5,5,6,6],"right_children":[2,4,6,8,10,12,14,-1,-1,-1,-1,-1,-1,-1,-1],"split_conditions":[-5.867514E-5,4.898594E-1,-3.0988273E-1,-3E0,-1.4893962E-3,-6.887313E-1,9.482918E-1,1.3332678E-2,-1.10667655E-2,-1.739567E-2,-3.301724E-2,3.79838E-2,2.0127261E-2,-3.074991E-3,1.2826451E-2],"split_indices":[4,15,15,17,3,15,6,0,0,0,0,0,0,0,0],"split_type":[0,0,0,0,0,0,0,0,0,0,0,0,0,0,0],"sum_hessian":[5.4473813E3,2.4244136E3,3.0229678E3,1.867987E3,5.564265E2,1.0439567E3,1.9790111E3,1.2312814E2,1.7448589E3,1.3592671E2,4.204998E2,1.6423291E2,8.797238E2,9.774672E2,1.0015438E3],"tree_param":{"num_deleted":"0","num_feature":"22","num_nodes":"15","size_leaf_vector":"1"}},{"base_weights":[-1.9622789E-4,-4.5293298E-1,3.6191842E-1,-2.4956319E-1,-8.430777E-1,1.8861182E-1,7.964343E-1,-6.0906853E-3,-3.484763E-2,-2.0397455E-2,-3.541627E-2,-2.1758773E-3,1.2869769E-2,-8.962891E-3,2.571658E-2],"categories":[],"categories_nodes":[],"categories_segments":[],"categories_sizes":[],"default_left":[0,0,0,0,0,0,0,0,0,0,0,0,0,0,0],"id":19,"left_children":[1,3,5,7,9,11,13,-1,-1,-1,-1,-1,-1,-1,-1],"loss_changes":[8.874223E2,1.9013626E2,2.2584775E2,6.6386795E1,4.315265E1,1.3530525E2,5.768341E1,0E0,0E0,0E0,0E0,0E0,0E0,0E0,0E0],"parents":[2147483647,0,0,1,1,2,2,3,3,4,4,5,5,6,6],"right_children":[2,4,6,8,10,12,14,-1,-1,-1,-1,-1,-1,-1,-1],"split_conditions":[-5.867514E-5,4.092119E-1,4.2919003E-4,9.8555607E-1,6.394141E-1,9.422234E-1,-5.407926E-4,-6.0906853E-3,-3.484763E-2,-2.0397455E-2,-3.541627E-2,-2.1758773E-3,1.2869769E-2,-8.962891E-3,2.571658E-2],"split_indices":[4,15,4,20,15,6,0,0,0,0,0,0,0,0,0],"split_type":[0,0,0,0,0,0,0,0,0,0,0,0,0,0,0],"sum_hessian":[5.4088394E3,2.4037983E3,3.0050413E3,1.5827896E3,8.2100867E2,2.1507666E3,8.5427454E2,1.5085813E3,7.42083E1,5.580923E2,2.6291638E2,1.0309388E3,1.1198279E3,4.424915E1,8.100254E2],"tree_param":{"num_deleted":"0","num_feature":"22","num_nodes":"15","size_leaf_vector":"1"}},{"base_weights":[-8.654831E-3,4.4537407E-1,-3.59721E-1,2.5745618E-1,8.04399E-1,-1.0961696E-1,-6.6393316E-1,2.5850473E-2,4.7503086E-3,1.2289884E-2,2.8863402E-2,-2.05681E-3,-3.5669453E-2,-1.5536141E-2,-3.0249495E-2],"categories":[],"categories_nodes":[],"categories_segments":[],"categories_sizes":[],"default_left":[0,0,0,0,0,0,0,0,0,0,0,0,0,0,0],"id":20,"left_children":[1,3,5,7,9,11,13,-1,-1,-1,-1,-1,-1,-1,-1],"loss_changes":[8.561781E2,1.5727316E2,2.3013129E2,9.169445E1,4.880133E1,7.327177E1,6.7210144E1,0E0,0E0,0E0,0E0,0E0,0E0,0E0,0E0],"parents":[2147483647,0,0,1,1,2,2,3,3,4,4,5,5,6,6],"right_children":[2,4,6,8,10,12,14,-1,-1,-1,-1,-1,-1,-1,-1],"split_conditions":[-2.9999858E-2,4.2078577E-4,2.6965642E-1,-9.22201E-1,-4.2656875E-1,5E-1,5.497867E-1,2.5850473E-2,4.7503086E-3,1.2289884E-2,2.8863402E-2,-2.05681E-3,-3.5669453E-2,-1.5536141E-2,-3.0249495E-2],"split_indices":[15,4,15,21,21,18,15,0,0,0,0,0,0,0,0],"split_type":[0,0,0,0,0,0,0,0,0,0,0,0,0,0,0],"sum_hessian":[5.3676016E3,2.3399656E3,3.027636E3,1.538806E3,8.0115955E2,1.6636196E3,1.3640164E3,2.1424928E2,1.3245568E3,2.3131331E2,5.6984625E2,1.604975E3,5.8644672E1,9.619201E2,4.0209628E2],"tree_param":{"num_deleted":"0","num_feature":"22","num_nodes":"15","size_leaf_vector":"1"}},{"base_weights":[-7.541936E-3,2.5715834E-1,-5.9165394E-1,1.1493791E-1,7.4956006E-1,-9.5982707E-1,-4.3751892E-1,7.20455E-3,-7.500673E-3,9.484968E-3,2.7352147E-2,-1.9338172E-2,-3.23686E-2,8.332282E-3,-1.4839143E-2],"categories":[],"categories_nodes":[],"categories_segments":[],"categories_sizes":[],"default_left":[0,0,0,0,0,0,0,0,0,0,0,0,0,0,0],"id":21,"left_children":[1,3,5,7,9,11,13,-1,-1,-1,-1,-1,-1,-1,-1],"loss_changes":[8.319208E2,2.588121E2,9.396887E1,1.3150558E2,5.730728E1,1.6602997E1,4.8839752E1,0E0,0E0,0E0,0E0,0E0,0E0,0E0,0E0],"parents":[2147483647,0,0,1,1,2,2,3,3,4,4,5,5,6,6],"right_children":[2,4,6,8,10,12,14,-1,-1,-1,-1,-1,-1,-1,-1],"split_conditions":[2.0969854E-1,4.3533376E-4,-5.2E-1,8.1915206E-1,-4.2656875E-1,-1.3785904E-3,-1.5025465E-3,7.20455E-3,-7.500673E-3,9.484968E-3,2.7352147E-2,-1.9338172E-2,-3.23686E-2,8.332282E-3,-1.4839143E-2],"split_indices":[15,4,9,21,21,3,2,0,0,0,0,0,0,0,0],"split_type":[0,0,0,0,0,0,0,0,0,0,0,0,0,0,0],"sum_hessian":[5.3759917E3,3.6999172E3,1.6760745E3,2.873143E3,8.267741E2,4.9095615E2,1.1851184E3,2.1403271E3,7.3281604E2,2.2724591E2,5.9952826E2,1.3885945E2,3.520967E2,8.6682274E1,1.098436E3],"tree_param":{"num_deleted":"0","num_feature":"22","num_nodes":"15","size_leaf_vector":"1"}},{"base_weights":[7.084924E-3,4.311587E-1,-3.2077056E-1,8.9619166E-1,3.013672E-1,-7.930737E-2,-6.3577586E-1,2.9788485E-2,1.0549196E-2,4.479945E-2,7.999446E-3,-1.2033529E-3,-3.472974E-2,-1.5664792E-2,-3.2424774E-2],"categories":[],"categories_nodes":[],"categories_segments":[],"categories_sizes":[],"default_left":[0,0,0,0,0,0,0,0,0,0,0,0,0,0,0],"id":22,"left_children":[1,3,5,7,9,11,13,-1,-1,-1,-1,-1,-1,-1,-1],"loss_changes":[7.479949E2,1.4070026E2,2.3043121E2,2.5790436E1,7.4722885E1,7.225122E1,6.491058E1,0E0,0E0,0E0,0E0,0E0,0E0,0E0,0E0],"parents":[2147483647,0,0,1,1,2,2,3,3,4,4,5,5,6,6],"right_children":[2,4,6,8,10,12,14,-1,-1,-1,-1,-1,-1,-1,-1],"split_conditions":[-2.9999858E-2,-4.6979254E-1,2.6991415E-1,8.796935E-4,2E-1,5E-1,6.394141E-1,2.9788485E-2,1.0549196E-2,4.479945E-2,7.999446E-3,-1.2033529E-3,-3.472974E-2,-1.5664792E-2,-3.2424774E-2],"split_indices":[15,15,15,5,16,18,15,0,0,0,0,0,0,0,0],"split_type":[0,0,0,0,0,0,0,0,0,0,0,0,0,0,0],"sum_hessian":[5.3756797E3,2.344023E3,3.0316567E3,5.0838773E2,1.8356351E3,1.7181146E3,1.3135421E3,4.2981836E2,7.856934E1,4.933222E1,1.786303E3,1.6601254E3,5.79892E1,1.050406E3,2.6313605E2],"tree_param":{"num_deleted":"0","num_feature":"22","num_nodes":"15","size_leaf_vector":"1"}},{"base_weights":[-5.1164962E-3,-5.280962E-1,2.3783755E-1,-1.0572438E0,-4.185484E-1,9.870155E-2,7.260806E-1,-1.3429029E-2,-3.454702E-2,4.3527824E-3,-1.4171582E-2,6.337536E-3,-9.022501E-3,8.616048E-3,2.6612528E-2],"categories":[],"categories_nodes":[],"categories_segments":[],"categories_sizes":[],"default_left":[0,0,0,0,0,0,0,0,0,0,0,0,0,0,0],"id":23,"left_children":[1,3,5,7,9,11,13,-1,-1,-1,-1,-1,-1,-1,-1],"loss_changes":[6.820565E2,9.738373E1,2.4854207E2,1.5181488E1,4.316133E1,1.284355E2,5.650653E1,0E0,0E0,0E0,0E0,0E0,0E0,0E0,0E0],"parents":[2147483647,0,0,1,1,2,2,3,3,4,4,5,5,6,6],"right_children":[2,4,6,8,10,12,14,-1,-1,-1,-1,-1,-1,-1,-1],"split_conditions":[-1.9E-1,-6.1E-1,4.3533376E-4,-9.469301E-1,-1.5025465E-3,8.638355E-1,-4.2656875E-1,-1.3429029E-2,-3.454702E-2,4.3527824E-3,-1.4171582E-2,6.337536E-3,-9.022501E-3,8.616048E-3,2.6612528E-2],"split_indices":[9,9,4,20,2,21,21,0,0,0,0,0,0,0,0],"split_type":[0,0,0,0,0,0,0,0,0,0,0,0,0,0,0],"sum_hessian":[5.3633237E3,1.7008923E3,3.6624312E3,2.8829642E2,1.412596E3,2.8525505E3,8.098806E2,4.059625E1,2.4770016E2,1.2238205E2,1.2902139E3,2.2268154E3,6.257351E2,2.1935983E2,5.905208E2],"tree_param":{"num_deleted":"0","num_feature":"22","num_nodes":"15","size_leaf_vector":"1"}},{"base_weights":[-1.3377628E-3,-4.0256342E-1,3.1820378E-1,-2.2233976E-1,-7.5454146E-1,5.829837E-1,8.179087E-2,1.37870135E-2,-8.249325E-3,-1.9003756E-2,-3.3927828E-2,4.216446E-2,1.5668085E-2,-6.513764E-3,9.660229E-3],"categories":[],"categories_nodes":[],"categories_segments":[],"categories_sizes":[],"default_left":[0,0,0,0,0,0,0,0,0,0,0,0,0,0,0],"id":24,"left_children":[1,3,5,7,9,11,13,-1,-1,-1,-1,-1,-1,-1,-1],"loss_changes":[6.8675836E2,1.5003467E2,1.8632681E2,5.67015E1,3.4628967E1,6.813324E1,1.1347515E2,0E0,0E0,0E0,0E0,0E0,0E0,0E0,0E0],"parents":[2147483647,0,0,1,1,2,2,3,3,4,4,5,5,6,6],"right_children":[2,4,6,8,10,12,14,-1,-1,-1,-1,-1,-1,-1,-1],"split_conditions":[-5.867514E-5,4.092119E-1,-2.0987657E-1,-3E0,6.666667E-1,-9.659258E-1,8.97019E-1,1.37870135E-2,-8.249325E-3,-1.9003756E-2,-3.3927828E-2,4.216446E-2,1.5668085E-2,-6.513764E-3,9.660229E-3],"split_indices":[4,15,15,17,16,21,6,0,0,0,0,0,0,0,0],"split_type":[0,0,0,0,0,0,0,0,0,0,0,0,0,0,0],"sum_hessian":[5.352389E3,2.3730889E3,2.9793E3,1.572193E3,8.0089575E2,1.4033558E3,1.5759442E3,1.1114752E2,1.4610455E3,6.1062244E2,1.9027333E2,9.3085266E1,1.3102706E3,7.0170874E2,8.742355E2],"tree_param":{"num_deleted":"0","num_feature":"22","num_nodes":"15","size_leaf_vector":"1"}},{"base_weights":[-2.8050744E-3,-4.8086506E-1,2.5347027E-1,-9.089741E-1,-3.3945253E-1,9.881721E-2,6.37186E-1,-8.852656E-3,-2.9206557E-2,8.873261E-3,-1.1816066E-2,5.362398E-3,-7.682047E-3,8.8414615E-3,2.3451937E-2],"categories":[],"categories_nodes":[],"categories_segments":[],"categories_sizes":[],"default_left":[0,0,0,0,0,0,0,0,0,0,0,0,0,0,0],"id":25,"left_children":[1,3,5,7,9,11,13,-1,-1,-1,-1,-1,-1,-1,-1],"loss_changes":[6.518009E2,1.11424805E2,2.0514151E2,1.7254974E1,4.8640182E1,7.015859E1,4.8411285E1,0E0,0E0,0E0,0E0,0E0,0E0,0E0,0E0],"parents":[2147483647,0,0,1,1,2,2,3,3,4,4,5,5,6,6],"right_children":[2,4,6,8,10,12,14,-1,-1,-1,-1,-1,-1,-1,-1],"split_conditions":[-1.5E-1,-5.2E-1,3.2E-1,-2E0,-1.5025465E-3,6.666667E-1,7.8761375E-1,-8.852656E-3,-2.9206557E-2,8.873261E-3,-1.1816066E-2,5.362398E-3,-7.682047E-3,8.8414615E-3,2.3451937E-2],"split_indices":[9,9,9,17,2,16,6,0,0,0,0,0,0,0,0],"split_type":[0,0,0,0,0,0,0,0,0,0,0,0,0,0,0],"sum_hessian":[5.315627E3,1.854895E3,3.4607322E3,4.5734924E2,1.3975458E3,2.468944E3,9.917881E2,4.5034046E1,4.1231522E2,1.0913825E2,1.2884075E3,2.016593E3,4.5235098E2,2.9678052E2,6.9500757E2],"tree_param":{"num_deleted":"0","num_feature":"22","num_nodes":"15","size_leaf_vector":"1"}},{"base_weights":[7.909036E-3,3.8434902E-1,-2.829732E-1,8.995081E-1,2.880277E-1,-7.649704E-2,-5.579533E-1,1.8512998E-2,3.454802E-2,1.280998E-3,1.4879509E-2,-1.1329328E-3,-3.4487598E-2,-2.8573787E-2,-1.2993681E-2],"categories":[],"categories_nodes":[],"categories_segments":[],"categories_sizes":[],"default_left":[0,0,0,0,0,0,0,0,0,0,0,0,0,0,0],"id":26,"left_children":[1,3,5,7,9,11,13,-1,-1,-1,-1,-1,-1,-1,-1],"loss_changes":[5.8144763E2,1.1399414E2,1.6976213E2,2.3906708E1,9.946921E1,7.077297E1,6.1963196E1,0E0,0E0,0E0,0E0,0E0,0E0,0E0,0E0],"parents":[2147483647,0,0,1,1,2,2,3,3,4,4,5,5,6,6],"right_children":[2,4,6,8,10,12,14,-1,-1,-1,-1,-1,-1,-1,-1],"split_conditions":[-2.9999858E-2,-5.4875636E-1,2.6991415E-1,-3.2143947E-1,9.482918E-1,5E-1,-6E-1,1.8512998E-2,3.454802E-2,1.280998E-3,1.4879509E-2,-1.1329328E-3,-3.4487598E-2,-2.8573787E-2,-1.2993681E-2],"split_indices":[15,15,15,20,6,18,9,0,0,0,0,0,0,0,0],"split_type":[0,0,0,0,0,0,0,0,0,0,0,0,0,0,0],"sum_hessian":[5.3057744E3,2.3129285E3,2.9928457E3,3.6121826E2,1.9517102E3,1.7114243E3,1.2814215E3,1.7417903E2,1.8703922E2,8.971666E2,1.0545436E3,1.6540714E3,5.7352898E1,3.0424435E2,9.771771E2],"tree_param":{"num_deleted":"0","num_feature":"22","num_nodes":"15","size_leaf_vector":"1"}},{"base_weights":[3.8964811E-3,-3.7142766E-1,3.0198127E-1,-2.5957745E-1,-8.3834624E-1,8.150624E-1,1.9947426E-1,-4.6439013E-3,-2.0434435E-2,-4.4582044E-3,-2.7509011E-2,1.6114142E-2,3.1111954E-2,-2.176955E-3,1.3151287E-2],"categories":[],"categories_nodes":[],"categories_segments":[],"categories_sizes":[],"default_left":[0,0,0,0,0,0,0,0,0,0,0,0,0,0,0],"id":27,"left_children":[1,3,5,7,9,11,13,-1,-1,-1,-1,-1,-1,-1,-1],"loss_changes":[5.940528E2,1.2196582E2,1.5504749E2,8.343479E1,2.3959015E1,2.875473E1,1.607136E2,0E0,0E0,0E0,0E0,0E0,0E0,0E0,0E0],"parents":[2147483647,0,0,1,1,2,2,3,3,4,4,5,5,6,6],"right_children":[2,4,6,8,10,12,14,-1,-1,-1,-1,-1,-1,-1,-1],"split_conditions":[-5.867514E-5,5.271707E-1,-4.6979254E-1,6.666667E-1,-2E0,-3.3380687E-1,9.3693364E-1,-4.6439013E-3,-2.0434435E-2,-4.4582044E-3,-2.7509011E-2,1.6114142E-2,3.1111954E-2,-2.176955E-3,1.3151287E-2],"split_indices":[4,15,15,16,17,20,6,0,0,0,0,0,0,0,0],"split_type":[0,0,0,0,0,0,0,0,0,0,0,0,0,0,0],"sum_hessian":[5.305988E3,2.348035E3,2.9579531E3,1.8972933E3,4.507416E2,4.8975253E2,2.4682007E3,1.5223591E3,3.749342E2,4.7103073E1,4.0363855E2,2.2112163E2,2.6863092E2,1.1541259E3,1.3140747E3],"tree_param":{"num_deleted":"0","num_feature":"22","num_nodes":"15","size_leaf_vector":"1"}},{"base_weights":[-2.9475747E-3,-3.0251193E-1,3.7395516E-1,-6.9546336E-1,-1.6138329E-1,2.5665057E-1,8.18164E-1,-8.451406E-4,-2.2986006E-2,-1.730783E-2,-2.5319548E-3,-0E0,1.2405105E-2,2.8888632E-2,1.2570521E-2],"categories":[],"categories_nodes":[],"categories_segments":[],"categories_sizes":[],"default_left":[0,0,0,0,0,0,0,0,0,0,0,0,0,0,0],"id":28,"left_children":[1,3,5,7,9,11,13,-1,-1,-1,-1,-1,-1,-1,-1],"loss_changes":[5.94441E2,1.6222522E2,1.2072766E2,3.6258514E1,6.8862305E1,7.429203E1,2.6839264E1,0E0,0E0,0E0,0E0,0E0,0E0,0E0,0E0],"parents":[2147483647,0,0,1,1,2,2,3,3,4,4,5,5,6,6],"right_children":[2,4,6,8,10,12,14,-1,-1,-1,-1,-1,-1,-1,-1],"split_conditions":[3E-2,-4E-1,4.8E-1,-2.9025855E-3,4.9274823E-1,8.3455867E-1,2.4203831E-4,-8.451406E-4,-2.2986006E-2,-1.730783E-2,-2.5319548E-3,-0E0,1.2405105E-2,2.8888632E-2,1.2570521E-2],"split_indices":[9,9,9,3,6,6,8,0,0,0,0,0,0,0,0],"split_type":[0,0,0,0,0,0,0,0,0,0,0,0,0,0,0],"sum_hessian":[5.2610757E3,2.9319426E3,2.329133E3,7.7211725E2,2.1598254E3,1.8455894E3,4.835438E2,7.467866E1,6.974386E2,3.3495236E2,1.8248729E3,7.013386E2,1.1442507E3,3.5220486E2,1.3133896E2],"tree_param":{"num_deleted":"0","num_feature":"22","num_nodes":"15","size_leaf_vector":"1"}},{"base_weights":[-6.0627395E-3,-2.9310524E-1,3.5291117E-1,-6.782799E-1,-1.5514798E-1,1.9721843E-1,6.8650657E-1,-2.9999543E-2,-1.59423E-2,3.3523315E-3,-8.062283E-3,2.4085218E-2,2.9931061E-3,6.855472E-3,2.6148703E-2],"categories":[],"categories_nodes":[],"categories_segments":[],"categories_sizes":[],"default_left":[0,0,0,0,0,0,0,0,0,0,0,0,0,0,0],"id":29,"left_children":[1,3,5,7,9,11,13,-1,-1,-1,-1,-1,-1,-1,-1],"loss_changes":[5.444577E2,1.5558679E2,1.21384766E2,3.5013947E1,6.5756516E1,9.422473E1,6.2479218E1,0E0,0E0,0E0,0E0,0E0,0E0,0E0,0E0],"parents":[2147483647,0,0,1,1,2,2,3,3,4,4,5,5,6,6],"right_children":[2,4,6,8,10,12,14,-1,-1,-1,-1,-1,-1,-1,-1],"split_conditions":[3E-2,-4E-1,4.3533376E-4,-6.4E-1,2.99449E0,-9.22201E-1,-4.2656875E-1,-2.9999543E-2,-1.59423E-2,3.3523315E-3,-8.062283E-3,2.4085218E-2,2.9931061E-3,6.855472E-3,2.6148703E-2],"split_indices":[9,9,4,9,7,21,21,0,0,0,0,0,0,0,0],"split_type":[0,0,0,0,0,0,0,0,0,0,0,0,0,0,0],"sum_hessian":[5.280072E3,2.934662E3,2.34541E3,7.712725E2,2.1633894E3,1.6018773E3,7.435326E2,2.374658E2,5.3380676E2,6.4510315E2,1.5182864E3,2.1959296E2,1.3822843E3,2.1577675E2,5.2775586E2],"tree_param":{"num_deleted":"0","num_feature":"22","num_nodes":"15","size_leaf_vector":"1"}},{"base_weights":[-5.2950433E-3,1.8280032E-1,-5.221136E-1,3.0471114E-2,5.189517E-1,-9.861726E-1,-4.263699E-1,1.4843239E-2,-8.251503E-4,-4.3350235E-3,1.7946428E-2,-1.3900611E-2,-3.3742663E-2,-3.328237E-2,-1.0784451E-2],"categories":[],"categories_nodes":[],"categories_segments":[],"categories_sizes":[],"default_left":[0,0,0,0,0,0,0,0,0,0,0,0,0,0,0],"id":30,"left_children":[1,3,5,7,9,11,13,-1,-1,-1,-1,-1,-1,-1,-1],"loss_changes":[5.0938962E2,1.9646706E2,6.086548E1,7.138613E1,6.3252533E1,1.566037E1,5.190802E1,0E0,0E0,0E0,0E0,0E0,0E0,0E0,0E0],"parents":[2147483647,0,0,1,1,2,2,3,3,4,4,5,5,6,6],"right_children":[2,4,6,8,10,12,14,-1,-1,-1,-1,-1,-1,-1,-1],"split_conditions":[2.4972475E-1,2.8243335E-4,-6.4E-1,-9.22201E-1,2.05767E0,-9.063078E-1,1.14382E0,1.4843239E-2,-8.251503E-4,-4.3350235E-3,1.7946428E-2,-1.3900611E-2,-3.3742663E-2,-3.328237E-2,-1.0784451E-2],"split_indices":[15,4,9,21,7,20,7,0,0,0,0,0,0,0,0],"split_type":[0,0,0,0,0,0,0,0,0,0,0,0,0,0,0],"sum_hessian":[5.23502E3,3.838658E3,1.3963618E3,2.643715E3,1.194943E3,2.351043E2,1.1612576E3,2.923697E2,2.3513452E3,1.269447E2,1.0679983E3,5.153495E1,1.8356934E2,1.0039516E2,1.0608624E3],"tree_param":{"num_deleted":"0","num_feature":"22","num_nodes":"15","size_leaf_vector":"1"}},{"base_weights":[5.7911994E-3,3.4437573E-1,-2.5249207E-1,8.6340547E-1,2.5166315E-1,-1.0042527E-1,-5.8678424E-1,1.8136332E-2,3.2627184E-2,-1.8626727E-3,1.1714337E-2,-8.833816E-3,4.071683E-3,-1.3990888E-2,-2.9281324E-2],"categories":[],"categories_nodes":[],"categories_segments":[],"categories_sizes":[],"default_left":[0,0,0,0,0,0,0,0,0,0,0,0,0,0,0],"id":31,"left_children":[1,3,5,7,9,11,13,-1,-1,-1,-1,-1,-1,-1,-1],"loss_changes":[4.5872632E2,1.0847717E2,1.5090808E2,1.8066925E1,8.418356E1,9.3961685E1,4.221042E1,0E0,0E0,0E0,0E0,0E0,0E0,0E0,0E0],"parents":[2147483647,0,0,1,1,2,2,3,3,4,4,5,5,6,6],"right_children":[2,4,6,8,10,12,14,-1,-1,-1,-1,-1,-1,-1,-1],"split_conditions":[-2.9999858E-2,-5.4875636E-1,3.4982017E-1,-3.3380687E-1,7.216889E-1,7.357471E-5,6.666667E-1,1.8136332E-2,3.2627184E-2,-1.8626727E-3,1.1714337E-2,-8.833816E-3,4.071683E-3,-1.3990888E-2,-2.9281324E-2],"split_indices":[15,15,15,20,6,3,16,0,0,0,0,0,0,0,0],"split_type":[0,0,0,0,0,0,0,0,0,0,0,0,0,0,0],"sum_hessian":[5.241237E3,2.2682605E3,2.9729766E3,3.4075604E2,1.9275044E3,2.0458391E3,9.2713745E2,1.6219296E2,1.7856306E2,5.9089484E2,1.3366096E3,1.1234845E3,9.223546E2,7.1203076E2,2.1510663E2],"tree_param":{"num_deleted":"0","num_feature":"22","num_nodes":"15","size_leaf_vector":"1"}},{"base_weights":[-6.50806E-3,-3.4028113E-1,2.6122484E-1,-2.1334238E-1,-6.9046724E-1,7.654241E-1,1.6280785E-1,-5.0283354E-3,-3.3197206E-2,-7.0511894E-3,-2.4844864E-2,1.4911325E-2,2.9204642E-2,-2.8306898E-3,1.1946481E-2],"categories":[],"categories_nodes":[],"categories_segments":[],"categories_sizes":[],"default_left":[0,0,0,0,0,0,0,0,0,0,0,0,0,0,0],"id":32,"left_children":[1,3,5,7,9,11,13,-1,-1,-1,-1,-1,-1,-1,-1],"loss_changes":[4.6741635E2,1.0294214E2,1.4346545E2,6.920171E1,3.8045258E1,2.4996552E1,1.4733188E2,0E0,0E0,0E0,0E0,0E0,0E0,0E0,0E0],"parents":[2147483647,0,0,1,1,2,2,3,3,4,4,5,5,6,6],"right_children":[2,4,6,8,10,12,14,-1,-1,-1,-1,-1,-1,-1,-1],"split_conditions":[-5.867514E-5,4.4973475E-1,-4.6979254E-1,9.8555607E-1,-1.4893962E-3,-3.5836795E-1,9.482918E-1,-5.0283354E-3,-3.3197206E-2,-7.0511894E-3,-2.4844864E-2,1.4911325E-2,2.9204642E-2,-2.8306898E-3,1.1946481E-2],"split_indices":[4,15,15,20,3,20,6,0,0,0,0,0,0,0,0],"split_type":[0,0,0,0,0,0,0,0,0,0,0,0,0,0,0],"sum_hessian":[5.2263374E3,2.3265227E3,2.8998145E3,1.710544E3,6.159789E2,4.708751E2,2.4289395E3,1.6298127E3,8.0731186E1,1.4476376E2,4.712151E2,2.0922166E2,2.616534E2,1.1607926E3,1.2681469E3],"tree_param":{"num_deleted":"0","num_feature":"22","num_nodes":"15","size_leaf_vector":"1"}},{"base_weights":[-3.4685936E-3,3.1969005E-1,-2.5380245E-1,2.2013603E-1,7.6622826E-1,-1.5699734E-1,-7.35539E-1,4.261276E-2,5.5551925E-3,3.2097585E-2,6.1674905E-3,-2.1967085E-3,-1.4777437E-2,-2.8074374E-3,-2.4204953E-2],"categories":[],"categories_nodes":[],"categories_segments":[],"categories_sizes":[],"default_left":[0,0,0,0,0,0,0,0,0,0,0,0,0,0,0],"id":33,"left_children":[1,3,5,7,9,11,13,-1,-1,-1,-1,-1,-1,-1,-1],"loss_changes":[4.2209982E2,1.0059726E2,1.366435E2,7.72744E1,6.962839E1,6.8685165E1,2.2050842E1,0E0,0E0,0E0,0E0,0E0,0E0,0E0,0E0],"parents":[2147483647,0,0,1,1,2,2,3,3,4,4,5,5,6,6],"right_children":[2,4,6,8,10,12,14,-1,-1,-1,-1,-1,-1,-1,-1],"split_conditions":[-2.9919509E-2,6.608987E-4,4.898594E-1,2E-1,7.6035043E-4,6.666667E-1,-2E0,4.261276E-2,5.5551925E-3,3.2097585E-2,6.1674905E-3,-2.1967085E-3,-1.4777437E-2,-2.8074374E-3,-2.4204953E-2],"split_indices":[15,4,15,16,5,16,17,0,0,0,0,0,0,0,0],"split_type":[0,0,0,0,0,0,0,0,0,0,0,0,0,0,0],"sum_hessian":[5.2139473E3,2.2751628E3,2.9387844E3,1.8633857E3,4.1177704E2,2.4497756E3,4.890086E2,5.0255737E1,1.81313E3,2.655705E2,1.4620653E2,1.963057E3,4.8671875E2,4.976164E1,4.3924698E2],"tree_param":{"num_deleted":"0","num_feature":"22","num_nodes":"15","size_leaf_vector":"1"}},{"base_weights":[-8.150247E-3,1.571179E-1,-4.71397E-1,4.294107E-1,5.4358225E-3,-9.209931E-1,-3.8125613E-1,1.0680537E-2,3.1065956E-2,2.7126763E-3,-1.0339865E-2,-1.8303113E-2,-3.166851E-2,-3.317663E-2,-9.327441E-3],"categories":[],"categories_nodes":[],"categories_segments":[],"categories_sizes":[],"default_left":[0,0,0,0,0,0,0,0,0,0,0,0,0,0,0],"id":34,"left_children":[1,3,5,7,9,11,13,-1,-1,-1,-1,-1,-1,-1,-1],"loss_changes":[3.976003E2,1.5790361E2,5.425598E1,5.971022E1,7.318634E1,7.676071E0,5.7076935E1,0E0,0E0,0E0,0E0,0E0,0E0,0E0,0E0],"parents":[2147483647,0,0,1,1,2,2,3,3,4,4,5,5,6,6],"right_children":[2,4,6,8,10,12,14,-1,-1,-1,-1,-1,-1,-1,-1],"split_conditions":[2.4972475E-1,-2.0987657E-1,-6.4E-1,6.8E-1,6.666667E-1,-1.3785904E-3,1.14382E0,1.0680537E-2,3.1065956E-2,2.7126763E-3,-1.0339865E-2,-1.8303113E-2,-3.166851E-2,-3.317663E-2,-9.327441E-3],"split_indices":[15,15,9,9,16,3,7,0,0,0,0,0,0,0,0],"split_type":[0,0,0,0,0,0,0,0,0,0,0,0,0,0,0],"sum_hessian":[5.1881543E3,3.8244248E3,1.3637296E3,1.3662161E3,2.4582087E3,2.2412048E2,1.1396091E3,1.2219274E3,1.4428867E2,1.9799209E3,4.7828793E2,7.1740746E1,1.5237973E2,9.785314E1,1.041756E3],"tree_param":{"num_deleted":"0","num_feature":"22","num_nodes":"15","size_leaf_vector":"1"}},{"base_weights":[-4.550563E-3,3.1478325E-1,-2.5093433E-1,7.94862E-1,2.3334259E-1,-1.1048023E-1,-5.651766E-1,1.43269785E-2,3.1399168E-2,-3.0988972E-3,1.151001E-2,-2.3851108E-3,-3.41639E-2,-1.3254984E-2,-2.902404E-2],"categories":[],"categories_nodes":[],"categories_segments":[],"categories_sizes":[],"default_left":[0,0,0,0,0,0,0,0,0,0,0,0,0,0,0],"id":35,"left_children":[1,3,5,7,9,11,13,-1,-1,-1,-1,-1,-1,-1,-1],"loss_changes":[4.1067557E2,8.818532E1,1.2974376E2,2.4768951E1,9.86708E1,6.442981E1,4.3835754E1,0E0,0E0,0E0,0E0,0E0,0E0,0E0,0E0],"parents":[2147483647,0,0,1,1,2,2,3,3,4,4,5,5,6,6],"right_children":[2,4,6,8,10,12,14,-1,-1,-1,-1,-1,-1,-1,-1],"split_conditions":[-2.9919509E-2,-5.4875636E-1,3.4982017E-1,-3.5836795E-1,7.216889E-1,5E-1,6.666667E-1,1.43269785E-2,3.1399168E-2,-3.0988972E-3,1.151001E-2,-2.3851108E-3,-3.41639E-2,-1.3254984E-2,-2.902404E-2],"split_indices":[15,15,15,20,6,18,16,0,0,0,0,0,0,0,0],"split_type":[0,0,0,0,0,0,0,0,0,0,0,0,0,0,0],"sum_hessian":[5.215891E3,2.2708755E3,2.9450159E3,3.26284E2,1.9445914E3,2.0378386E3,9.071771E2,1.4744945E2,1.7883455E2,5.998675E2,1.3447239E3,1.9806217E3,5.7216976E1,6.980846E2,2.0909254E2],"tree_param":{"num_deleted":"0","num_feature":"22","num_nodes":"15","size_leaf_vector":"1"}},{"base_weights":[5.1968554E-3,1.7731744E-1,-4.3163982E-1,7.4741684E-2,5.8615965E-1,-9.1081417E-1,-3.4473583E-1,5.424414E-3,-6.1740065E-3,1.4604902E-2,3.0226996E-2,-1.5872043E-2,-3.205307E-2,-2.8076319E-2,-8.624007E-3],"categories":[],"categories_nodes":[],"categories_segments":[],"categories_sizes":[],"default_left":[0,0,0,0,0,0,0,0,0,0,0,0,0,0,0],"id":36,"left_children":[1,3,5,7,9,11,13,-1,-1,-1,-1,-1,-1,-1,-1],"loss_changes":[3.897853E2,1.5572101E2,6.0004395E1,8.8648285E1,2.976532E1,1.1818649E1,4.1206223E1,0E0,0E0,0E0,0E0,0E0,0E0,0E0,0E0],"parents":[2147483647,0,0,1,1,2,2,3,3,4,4,5,5,6,6],"right_children":[2,4,6,8,10,12,14,-1,-1,-1,-1,-1,-1,-1,-1],"split_conditions":[2.2973806E-1,3.8E-1,-6.4E-1,8.141155E-1,6.8E-1,-1.4893962E-3,1.14382E0,5.424414E-3,-6.1740065E-3,1.4604902E-2,3.0226996E-2,-1.5872043E-2,-3.205307E-2,-2.8076319E-2,-8.624007E-3],"split_indices":[15,9,9,21,9,3,7,0,0,0,0,0,0,0,0],"split_type":[0,0,0,0,0,0,0,0,0,0,0,0,0,0,0],"sum_hessian":[5.1810815E3,3.718004E3,1.4630775E3,2.9747568E3,7.43247E2,2.2116986E2,1.2419077E3,2.1598892E3,8.1486774E2,6.055384E2,1.3770866E2,6.773582E1,1.5343405E2,1.0651506E2,1.1353926E3],"tree_param":{"num_deleted":"0","num_feature":"22","num_nodes":"15","size_leaf_vector":"1"}},{"base_weights":[-2.7140759E-5,3.2800153E-1,-2.1772297E-1,2.3147872E-1,7.259156E-1,-1.2539275E-1,-6.518271E-1,-3.382637E-3,1.0609537E-2,1.3745951E-2,3.3768084E-2,-1.4802186E-3,-1.2898706E-2,-1.5246911E-2,-2.8033167E-2],"categories":[],"categories_nodes":[],"categories_segments":[],"categories_sizes":[],"default_left":[0,0,0,0,0,0,0,0,0,0,0,0,0,0,0],"id":37,"left_children":[1,3,5,7,9,11,13,-1,-1,-1,-1,-1,-1,-1,-1],"loss_changes":[3.712038E2,7.900549E1,1.2487181E2,7.04717E1,4.1636063E1,5.958013E1,2.0820236E1,0E0,0E0,0E0,0E0,0E0,0E0,0E0,0E0],"parents":[2147483647,0,0,1,1,2,2,3,3,4,4,5,5,6,6],"right_children":[2,4,6,8,10,12,14,-1,-1,-1,-1,-1,-1,-1,-1],"split_conditions":[-6.985973E-2,6.608987E-4,4.694852E-1,6.85468E-1,1.2246469E-16,6.666667E-1,2E0,-3.382637E-3,1.0609537E-2,1.3745951E-2,3.3768084E-2,-1.4802186E-3,-1.2898706E-2,-1.5246911E-2,-2.8033167E-2],"split_indices":[15,4,15,6,20,16,17,0,0,0,0,0,0,0,0],"split_type":[0,0,0,0,0,0,0,0,0,0,0,0,0,0,0],"sum_hessian":[5.1946333E3,2.0712456E3,3.123388E3,1.6700546E3,4.01191E2,2.5782788E3,5.45109E2,4.368591E2,1.2331954E3,2.432808E2,1.579102E2,2.0657527E3,5.125261E2,3.658677E2,1.792413E2],"tree_param":{"num_deleted":"0","num_feature":"22","num_nodes":"15","size_leaf_vector":"1"}},{"base_weights":[7.4931937E-3,1.754042E-1,-3.8827956E-1,8.106654E-2,5.9101003E-1,-3.0842426E-1,-8.582372E-1,5.9710396E-3,-7.8073335E-3,2.086189E-2,-1.0390106E-2,-7.476017E-3,-2.777396E-2,-7.978685E-3,-3.0619558E-2],"categories":[],"categories_nodes":[],"categories_segments":[],"categories_sizes":[],"default_left":[0,0,0,0,0,0,0,0,0,0,0,0,0,0,0],"id":38,"left_children":[1,3,5,7,9,11,13,-1,-1,-1,-1,-1,-1,-1,-1],"loss_changes":[3.428587E2,1.4177324E2,5.6787964E1,1.19110565E2,6.608884E1,4.7343857E1,2.0379593E1,0E0,0E0,0E0,0E0,0E0,0E0,0E0,0E0],"parents":[2147483647,0,0,1,1,2,2,3,3,4,4,5,5,6,6],"right_children":[2,4,6,8,10,12,14,-1,-1,-1,-1,-1,-1,-1,-1],"split_conditions":[2.0983651E-1,4.8140358E-4,6.394141E-1,8.1915206E-1,3E0,2.0939866E-3,-9.063078E-1,5.9710396E-3,-7.8073335E-3,2.086189E-2,-1.0390106E-2,-7.476017E-3,-2.777396E-2,-7.978685E-3,-3.0619558E-2],"split_indices":[15,4,15,21,17,3,20,0,0,0,0,0,0,0,0],"split_type":[0,0,0,0,0,0,0,0,0,0,0,0,0,0,0],"sum_hessian":[5.156203E3,3.621579E3,1.5346238E3,2.9541365E3,6.6744257E2,1.3151108E3,2.1951297E2,2.1966248E3,7.575119E2,6.0131433E2,6.612825E1,1.2030021E3,1.1210877E2,4.877315E1,1.7073982E2],"tree_param":{"num_deleted":"0","num_feature":"22","num_nodes":"15","size_leaf_vector":"1"}},{"base_weights":[-8.939283E-3,1.4136833E-1,-4.3076056E-1,1.6002841E-2,4.2989895E-1,-8.912461E-1,-3.4283113E-1,1.5218632E-2,-1.4129066E-3,4.0583974E-3,1.9125031E-2,-9.666185E-3,-3.1069964E-2,-1.3878672E-2,-1.5188903E-3],"categories":[],"categories_nodes":[],"categories_segments":[],"categories_sizes":[],"default_left":[0,0,0,0,0,0,0,0,0,0,0,0,0,0,0],"id":39,"left_children":[1,3,5,7,9,11,13,-1,-1,-1,-1,-1,-1,-1,-1],"loss_changes":[3.2546628E2,1.3669946E2,5.3630127E1,8.203006E1,6.963475E1,1.6549133E1,3.9573364E1,0E0,0E0,0E0,0E0,0E0,0E0,0E0,0E0],"parents":[2147483647,0,0,1,1,2,2,3,3,4,4,5,5,6,6],"right_children":[2,4,6,8,10,12,14,-1,-1,-1,-1,-1,-1,-1,-1],"split_conditions":[2.4972475E-1,2.8243335E-4,-6.4E-1,-9.22201E-1,9.482918E-1,-9.063078E-1,6.1909395E-1,1.5218632E-2,-1.4129066E-3,4.0583974E-3,1.9125031E-2,-9.666185E-3,-3.1069964E-2,-1.3878672E-2,-1.5188903E-3],"split_indices":[15,4,9,21,6,20,21,0,0,0,0,0,0,0,0],"split_type":[0,0,0,0,0,0,0,0,0,0,0,0,0,0,0],"sum_hessian":[5.1280083E3,3.781253E3,1.3467556E3,2.638141E3,1.1431118E3,2.1245375E2,1.1343019E3,2.9921036E2,2.3389307E3,4.7448853E2,6.686233E2,4.4733727E1,1.6772003E2,8.02936E2,3.3136588E2],"tree_param":{"num_deleted":"0","num_feature":"22","num_nodes":"15","size_leaf_vector":"1"}},{"base_weights":[-7.7797673E-3,-2.923953E-1,2.1499452E-1,-8.617916E-1,-2.3219259E-1,-3.2622442E-3,4.0751E-1,-6.0458323E-3,-3.127492E-2,1.2470221E-2,-8.293489E-3,-2.6445102E-3,2.9480038E-2,1.3656621E-2,-1.2749108E-2],"categories":[],"categories_nodes":[],"categories_segments":[],"categories_sizes":[],"default_left":[0,0,0,0,0,0,0,0,0,0,0,0,0,0,0],"id":40,"left_children":[1,3,5,7,9,11,13,-1,-1,-1,-1,-1,-1,-1,-1],"loss_changes":[3.2620297E2,7.671718E1,1.2135132E2,2.4837234E1,5.8864975E1,1.13178154E2,6.131247E1,0E0,0E0,0E0,0E0,0E0,0E0,0E0,0E0],"parents":[2147483647,0,0,1,1,2,2,3,3,4,4,5,5,6,6],"right_children":[2,4,6,8,10,12,14,-1,-1,-1,-1,-1,-1,-1,-1],"split_conditions":[-5.867514E-5,-6.4E-1,9.482918E-1,-9.063078E-1,-3E0,5.7E-1,2.969457E-3,-6.0458323E-3,-3.127492E-2,1.2470221E-2,-8.293489E-3,-2.6445102E-3,2.9480038E-2,1.3656621E-2,-1.2749108E-2],"split_indices":[4,9,6,20,17,9,3,0,0,0,0,0,0,0,0],"split_type":[0,0,0,0,0,0,0,0,0,0,0,0,0,0,0],"sum_hessian":[5.1404014E3,2.2572585E3,2.8831428E3,2.1281783E2,2.0444407E3,1.3514257E3,1.531717E3,4.699558E1,1.6582225E2,1.2922269E2,1.915218E3,1.2462496E3,1.0517601E2,1.4498885E3,8.1828545E1],"tree_param":{"num_deleted":"0","num_feature":"22","num_nodes":"15","size_leaf_vector":"1"}},{"base_weights":[-1.5715909E-3,2.7223015E-1,-2.1014869E-1,4.0850326E-2,2.407523E-1,-1.0431148E-1,-5.4017264E-1,2.488635E-2,5.329722E-3,2.3764241E-3,-9.173235E-3,-1.3742895E-2,-3.371935E-2],"categories":[],"categories_nodes":[],"categories_segments":[],"categories_sizes":[],"default_left":[0,0,0,0,0,0,0,0,0,0,0,0,0],"id":41,"left_children":[1,3,5,-1,7,9,11,-1,-1,-1,-1,-1,-1],"loss_changes":[2.943428E2,7.527316E1,1.0190575E2,0E0,7.995263E1,8.2156624E1,3.2487747E1,0E0,0E0,0E0,0E0,0E0,0E0],"parents":[2147483647,0,0,1,1,2,2,4,4,5,5,6,6],"right_children":[2,4,6,-1,8,10,12,-1,-1,-1,-1,-1,-1],"split_conditions":[-2.9999858E-2,2E-1,4.092119E-1,4.0850326E-2,-9.426415E-1,-2.5359845E-5,1.0178807E-3,2.488635E-2,5.329722E-3,2.3764241E-3,-9.173235E-3,-1.3742895E-2,-3.371935E-2],"split_indices":[15,16,15,0,21,1,5,0,0,0,0,0,0],"split_type":[0,0,0,0,0,0,0,0,0,0,0,0,0],"sum_hessian":[5.150396E3,2.2261077E3,2.924288E3,5.9872593E1,2.166235E3,2.2168843E3,7.0740375E2,2.0685387E2,1.9593813E3,1.1599426E3,1.0569417E3,6.2378955E2,8.361416E1],"tree_param":{"num_deleted":"0","num_feature":"22","num_nodes":"13","size_leaf_vector":"1"}},{"base_weights":[-8.191195E-3,-3.2710123E-1,1.8521397E-1,-2.205695E-1,-7.598228E-1,1.08404055E-1,6.910076E-1,1.4127554E-2,-8.419166E-3,-2.7624168E-2,1.3497865E-3,6.6105025E-3,-9.160978E-3,2.7268145E-2,2.735018E-3],"categories":[],"categories_nodes":[],"categories_segments":[],"categories_sizes":[],"default_left":[0,0,0,0,0,0,0,0,0,0,0,0,0,0,0],"id":42,"left_children":[1,3,5,7,9,11,13,-1,-1,-1,-1,-1,-1,-1,-1],"loss_changes":[3.1460245E2,8.8150314E1,1.2292537E2,6.4539154E1,4.946083E1,1.2788468E2,5.4122803E1,0E0,0E0,0E0,0E0,0E0,0E0,0E0,0E0],"parents":[2147483647,0,0,1,1,2,2,3,3,4,4,5,5,6,6],"right_children":[2,4,6,8,10,12,14,-1,-1,-1,-1,-1,-1,-1,-1],"split_conditions":[-1.1477043E-4,6.666667E-1,6.608987E-4,-3E0,2E-1,8.638355E-1,8.5763243E-4,1.4127554E-2,-8.419166E-3,-2.7624168E-2,1.3497865E-3,6.6105025E-3,-9.160978E-3,2.7268145E-2,2.735018E-3],"split_indices":[4,16,4,17,18,21,5,0,0,0,0,0,0,0,0],"split_type":[0,0,0,0,0,0,0,0,0,0,0,0,0,0,0],"sum_hessian":[5.095999E3,1.9238647E3,3.1721343E3,1.5467766E3,3.7708813E2,2.7565464E3,4.155879E2,1.2213598E2,1.4246406E3,3.1430414E2,6.2784016E1,2.1708735E3,5.856729E2,3.0371365E2,1.1187423E2],"tree_param":{"num_deleted":"0","num_feature":"22","num_nodes":"15","size_leaf_vector":"1"}},{"base_weights":[9.942202E-3,-2.5135496E-1,2.1404639E-1,4.2348415E-1,-2.9578748E-1,1.0466164E-2,3.9125913E-1,-2.3145985E-2,3.4921616E-2,-1.7313825E-2,-6.2799416E-3,-8.873627E-3,7.981135E-3,1.3065481E-2,-1.0678257E-2],"categories":[],"categories_nodes":[],"categories_segments":[],"categories_sizes":[],"default_left":[0,0,0,0,0,0,0,0,0,0,0,0,0,0,0],"id":43,"left_children":[1,3,5,7,9,11,13,-1,-1,-1,-1,-1,-1,-1,-1],"loss_changes":[2.7286023E2,6.747563E1,1.03528275E2,1.2491094E2,5.0754425E1,1.05027916E2,5.1102478E1,0E0,0E0,0E0,0E0,0E0,0E0,0E0,0E0],"parents":[2147483647,0,0,1,1,2,2,3,3,4,4,5,5,6,6],"right_children":[2,4,6,8,10,12,14,-1,-1,-1,-1,-1,-1,-1,-1],"split_conditions":[-5.867514E-5,-3E0,9.482918E-1,-8.2808204E-2,-6.150724E-4,-1.7339215E-5,2.969457E-3,-2.3145985E-2,3.4921616E-2,-1.7313825E-2,-6.2799416E-3,-8.873627E-3,7.981135E-3,1.3065481E-2,-1.0678257E-2],"split_indices":[4,17,6,21,4,3,3,0,0,0,0,0,0,0,0],"split_type":[0,0,0,0,0,0,0,0,0,0,0,0,0,0,0],"sum_hessian":[5.1124644E3,2.2412502E3,2.8712144E3,1.3698067E2,2.1042698E3,1.337974E3,1.5332402E3,5.2222828E1,8.475784E1,4.9115686E2,1.6131128E3,6.0796075E2,7.3001324E2,1.4486709E3,8.4569405E1],"tree_param":{"num_deleted":"0","num_feature":"22","num_nodes":"15","size_leaf_vector":"1"}},{"base_weights":[8.74532E-3,1.3964622E-1,-3.6621475E-1,5.0291363E-2,4.9137414E-1,-2.8573328E-1,-8.0053705E-1,1.350882E-2,-5.898084E-5,-1.3389494E-2,1.6441105E-2,-2.856716E-2,-6.7351563E-3,-2.698513E-2,-1.1375285E-2],"categories":[],"categories_nodes":[],"categories_segments":[],"categories_sizes":[],"default_left":[0,0,0,0,0,0,0,0,0,0,0,0,0,0,0],"id":44,"left_children":[1,3,5,7,9,11,13,-1,-1,-1,-1,-1,-1,-1,-1],"loss_changes":[2.4962805E2,1.183158E2,4.5211777E1,6.305966E1,4.1064346E1,4.4673286E1,7.442032E0,0E0,0E0,0E0,0E0,0E0,0E0,0E0,0E0],"parents":[2147483647,0,0,1,1,2,2,3,3,4,4,5,5,6,6],"right_children":[2,4,6,8,10,12,14,-1,-1,-1,-1,-1,-1,-1,-1],"split_conditions":[2.4972475E-1,4.2078577E-4,6.394141E-1,-6.804883E-4,-5.210478E-4,1.14382E0,-1.3065386E-4,1.350882E-2,-5.898084E-5,-1.3389494E-2,1.6441105E-2,-2.856716E-2,-6.7351563E-3,-2.698513E-2,-1.1375285E-2],"split_indices":[15,4,15,1,0,7,1,0,0,0,0,0,0,0,0],"split_type":[0,0,0,0,0,0,0,0,0,0,0,0,0,0,0],"sum_hessian":[5.083177E3,3.769334E3,1.3138427E3,3.0082427E3,7.610912E2,1.1118241E3,2.0201851E2,3.4649722E2,2.6617456E3,4.2284958E1,7.188062E2,9.0682686E1,1.0211414E3,1.6117982E2,4.0838676E1],"tree_param":{"num_deleted":"0","num_feature":"22","num_nodes":"15","size_leaf_vector":"1"}},{"base_weights":[2.8501663E-3,1.2558569E-1,-3.8732314E-1,2.7171746E-2,4.4911483E-1,-8.267326E-1,-3.0209398E-1,3.6476678E-3,-6.733967E-3,3.2728661E-3,1.7980317E-2,-1.16842855E-2,-3.0659845E-2,-2.9750772E-2,-7.106214E-3],"categories":[],"categories_nodes":[],"categories_segments":[],"categories_sizes":[],"default_left":[0,0,0,0,0,0,0,0,0,0,0,0,0,0,0],"id":45,"left_children":[1,3,5,7,9,11,13,-1,-1,-1,-1,-1,-1,-1,-1],"loss_changes":[2.4371994E2,1.2315799E2,4.476381E1,7.065267E1,4.5760696E1,1.5522507E1,4.519744E1,0E0,0E0,0E0,0E0,0E0,0E0,0E0,0E0],"parents":[2147483647,0,0,1,1,2,2,3,3,4,4,5,5,6,6],"right_children":[2,4,6,8,10,12,14,-1,-1,-1,-1,-1,-1,-1,-1],"split_conditions":[2.6965642E-1,3.2E-1,-6.4E-1,8.141155E-1,7.8761375E-1,-1.3785904E-3,1.14382E0,3.6476678E-3,-6.733967E-3,3.2728661E-3,1.7980317E-2,-1.16842855E-2,-3.0659845E-2,-2.9750772E-2,-7.106214E-3],"split_indices":[15,9,9,21,6,3,7,0,0,0,0,0,0,0,0],"split_type":[0,0,0,0,0,0,0,0,0,0,0,0,0,0,0],"sum_hessian":[5.0869683E3,3.8713086E3,1.2156597E3,2.9707383E3,9.0057025E2,1.9408914E2,1.0215705E3,2.1618235E3,8.08915E2,2.7763583E2,6.2293445E2,6.2239674E1,1.3184946E2,8.541661E1,9.3615393E2],"tree_param":{"num_deleted":"0","num_feature":"22","num_nodes":"15","size_leaf_vector":"1"}},{"base_weights":[-2.8477889E-3,-2.8100482E-1,1.6445902E-1,-1.7270145E-1,-7.3079926E-1,6.825639E-2,4.7322494E-1,-9.020459E-3,7.950104E-3,-2.6584236E-2,1.2843279E-3,5.3714737E-3,-1.0366908E-2,1.701804E-2,-1.0745758E-2],"categories":[],"categories_nodes":[],"categories_segments":[],"categories_sizes":[],"default_left":[0,0,0,0,0,0,0,0,0,0,0,0,0,0,0],"id":46,"left_children":[1,3,5,7,9,11,13,-1,-1,-1,-1,-1,-1,-1,-1],"loss_changes":[2.3613622E2,9.233115E1,9.3853325E1,8.640199E1,4.4641815E1,1.1093175E2,5.9214188E1,0E0,0E0,0E0,0E0,0E0,0E0,0E0,0E0],"parents":[2147483647,0,0,1,1,2,2,3,3,4,4,5,5,6,6],"right_children":[2,4,6,8,10,12,14,-1,-1,-1,-1,-1,-1,-1,-1],"split_conditions":[-1.1477043E-4,6.666667E-1,4.2078577E-4,3.1405213E-4,2E-1,8.638355E-1,3E0,-9.020459E-3,7.950104E-3,-2.6584236E-2,1.2843279E-3,5.3714737E-3,-1.0366908E-2,1.701804E-2,-1.0745758E-2],"split_indices":[4,16,4,2,18,21,17,0,0,0,0,0,0,0,0],"split_type":[0,0,0,0,0,0,0,0,0,0,0,0,0,0,0],"sum_hessian":[5.0693613E3,1.9041082E3,3.1652532E3,1.537369E3,3.6673917E2,2.415932E3,7.4932153E2,1.1905698E3,3.4679922E2,3.0549268E2,6.1246487E1,1.9071791E3,5.087527E2,6.7407227E2,7.5249275E1],"tree_param":{"num_deleted":"0","num_feature":"22","num_nodes":"15","size_leaf_vector":"1"}},{"base_weights":[6.183403E-3,3.008152E-1,-1.5510502E-1,9.1406673E-1,2.364796E-1,-6.557859E-2,-4.928476E-1,1.40568465E-2,4.008151E-2,-4.664876E-3,1.0514742E-2,-6.090863E-3,3.1835376E-3,-1.2164358E-2,-3.30139E-2],"categories":[],"categories_nodes":[],"categories_segments":[],"categories_sizes":[],"default_left":[0,0,0,0,0,0,0,0,0,0,0,0,0,0,0],"id":47,"left_children":[1,3,5,7,9,11,13,-1,-1,-1,-1,-1,-1,-1,-1],"loss_changes":[2.4114864E2,7.006328E1,9.888997E1,3.0042099E1,7.293108E1,6.129717E1,3.506668E1,0E0,0E0,0E0,0E0,0E0,0E0,0E0,0E0],"parents":[2147483647,0,0,1,1,2,2,3,3,4,4,5,5,6,6],"right_children":[2,4,6,8,10,12,14,-1,-1,-1,-1,-1,-1,-1,-1],"split_conditions":[-1.0986851E-1,-9.426415E-1,4.092119E-1,1.8407163E-4,-4.2261827E-1,7.357471E-5,1.0178807E-3,1.40568465E-2,4.008151E-2,-4.664876E-3,1.0514742E-2,-6.090863E-3,3.1835376E-3,-1.2164358E-2,-3.30139E-2],"split_indices":[15,21,15,3,21,3,5,0,0,0,0,0,0,0,0],"split_type":[0,0,0,0,0,0,0,0,0,0,0,0,0,0,0],"sum_hessian":[5.0697183E3,1.7935327E3,3.2761855E3,1.6734163E2,1.626191E3,2.5923105E3,6.8387494E2,8.38011E1,8.3540535E1,3.6566534E2,1.2605258E3,1.4405071E3,1.1518035E3,6.012497E2,8.262525E1],"tree_param":{"num_deleted":"0","num_feature":"22","num_nodes":"15","size_leaf_vector":"1"}},{"base_weights":[2.2605783E-3,-1.04033254E-1,3.7818968E-1,-3.742729E-1,-3.1570513E-3,1.8546426E-1,6.3968694E-1,-2.333026E-2,-8.517646E-3,1.1439385E-2,-1.7441855E-3,1.23018E-2,-1.05022555E-2,2.6584186E-2,7.364631E-3],"categories":[],"categories_nodes":[],"categories_segments":[],"categories_sizes":[],"default_left":[0,0,0,0,0,0,0,0,0,0,0,0,0,0,0],"id":48,"left_children":[1,3,5,7,9,11,13,-1,-1,-1,-1,-1,-1,-1,-1],"loss_changes":[2.0158376E2,1.07035126E2,5.556479E1,3.8151108E1,6.051102E1,7.773522E1,4.492627E1,0E0,0E0,0E0,0E0,0E0,0E0,0E0,0E0],"parents":[2147483647,0,0,1,1,2,2,3,3,4,4,5,5,6,6],"right_children":[2,4,6,8,10,12,14,-1,-1,-1,-1,-1,-1,-1,-1],"split_conditions":[2.8243335E-4,-2.9E-1,3.5527477E-4,-6.4E-1,-6.698717E-4,8.141155E-1,1.6635185E-4,-2.333026E-2,-8.517646E-3,1.1439385E-2,-1.7441855E-3,1.23018E-2,-1.05022555E-2,2.6584186E-2,7.364631E-3],"split_indices":[4,9,0,9,1,21,8,0,0,0,0,0,0,0,0],"split_type":[0,0,0,0,0,0,0,0,0,0,0,0,0,0,0],"sum_hessian":[5.038744E3,3.9285862E3,1.110158E3,1.0655812E3,2.863005E3,6.417495E2,4.6840845E2,1.9159767E2,8.7398346E2,3.5603955E2,2.5069653E3,4.5285776E2,1.8889175E2,2.8621222E2,1.8219623E2],"tree_param":{"num_deleted":"0","num_feature":"22","num_nodes":"15","size_leaf_vector":"1"}},{"base_weights":[-1.3875312E-3,-1.0660476E-1,3.6850512E-1,-5.3445354E-2,-6.143477E-1,1.7986958E-1,6.245956E-1,4.841054E-4,-1.0372308E-2,1.2076998E-3,-2.1089328E-2,-4.5262906E-3,1.3501013E-2,2.4945479E-2,2.4743946E-3],"categories":[],"categories_nodes":[],"categories_segments":[],"categories_sizes":[],"default_left":[0,0,0,0,0,0,0,0,0,0,0,0,0,0,0],"id":49,"left_children":[1,3,5,7,9,11,13,-1,-1,-1,-1,-1,-1,-1,-1],"loss_changes":[1.956113E2,1.0541068E2,5.3295273E1,7.2249016E1,2.1741516E1,5.7800064E1,5.2373856E1,0E0,0E0,0E0,0E0,0E0,0E0,0E0,0E0],"parents":[2147483647,0,0,1,1,2,2,3,3,4,4,5,5,6,6],"right_children":[2,4,6,8,10,12,14,-1,-1,-1,-1,-1,-1,-1,-1],"split_conditions":[2.8243335E-4,5.271707E-1,3.5527477E-4,6.666667E-1,-2E0,9.283813E-1,9.5197756E-4,4.841054E-4,-1.0372308E-2,1.2076998E-3,-2.1089328E-2,-4.5262906E-3,1.3501013E-2,2.4945479E-2,2.4743946E-3],"split_indices":[4,15,0,16,17,6,0,0,0,0,0,0,0,0,0],"split_type":[0,0,0,0,0,0,0,0,0,0,0,0,0,0,0],"sum_hessian":[5.0241025E3,3.9132107E3,1.1108916E3,3.5448728E3,3.6833792E2,6.423295E2,4.6856204E2,2.8639636E3,6.8090924E2,4.365046E1,3.2468747E2,2.8868378E2,3.5364575E2,3.3794907E2,1.3061296E2],"tree_param":{"num_deleted":"0","num_feature":"22","num_nodes":"15","size_leaf_vector":"1"}},{"base_weights":[4.263524E-3,2.7504623E-1,-1.5207306E-1,9.093923E-1,2.1037209E-1,-5.565244E-1,-9.7875156E-2,1.0016291E-2,3.659692E-2,-5.85285E-3,9.9385595E-3,-1.0705971E-2,-2.8560273E-2,-7.049085E-3,2.1926838E-3],"categories":[],"categories_nodes":[],"categories_segments":[],"categories_sizes":[],"default_left":[0,0,0,0,0,0,0,0,0,0,0,0,0,0,0],"id":50,"left_children":[1,3,5,7,9,11,13,-1,-1,-1,-1,-1,-1,-1,-1],"loss_changes":[2.131387E2,7.4901474E1,6.963631E1,2.9010254E1,8.23248E1,2.8614403E1,6.610257E1,0E0,0E0,0E0,0E0,0E0,0E0,0E0,0E0],"parents":[2147483647,0,0,1,1,2,2,3,3,4,4,5,5,6,6],"right_children":[2,4,6,8,10,12,14,-1,-1,-1,-1,-1,-1,-1,-1],"split_conditions":[-9.004422E-2,-9.426415E-1,-5.2E-1,-1.181655E-4,-4.2261827E-1,2E0,7.357471E-5,1.0016291E-2,3.659692E-2,-5.85285E-3,9.9385595E-3,-1.0705971E-2,-2.8560273E-2,-7.049085E-3,2.1926838E-3],"split_indices":[15,21,9,3,21,17,3,0,0,0,0,0,0,0,0],"split_type":[0,0,0,0,0,0,0,0,0,0,0,0,0,0,0],"sum_hessian":[5.029936E3,1.8412317E3,3.188704E3,1.6750677E2,1.673725E3,3.739599E2,2.8147444E3,6.049571E1,1.0701107E2,3.8361453E2,1.2901104E3,2.5153621E2,1.2242368E2,1.5626671E3,1.2520771E3],"tree_param":{"num_deleted":"0","num_feature":"22","num_nodes":"15","size_leaf_vector":"1"}},{"base_weights":[-1.2966272E-2,-1.8016277E-1,2.1609911E-1,-2.4448915E-1,2.1019042E-1,4.0931772E-2,1.8322726E-1,-3.26949E-3,-1.4407809E-2,1.975332E-2,-1.3935691E-2,8.45381E-3,-5.4080724E-3],"categories":[],"categories_nodes":[],"categories_segments":[],"categories_sizes":[],"default_left":[0,0,0,0,0,0,0,0,0,0,0,0,0],"id":51,"left_children":[1,3,5,7,9,-1,11,-1,-1,-1,-1,-1,-1],"loss_changes":[1.91203E2,7.259966E1,7.852507E1,7.894867E1,1.2431572E2,0E0,7.357443E1,0E0,0E0,0E0,0E0,0E0,0E0],"parents":[2147483647,0,0,1,1,2,2,3,3,4,4,6,6],"right_children":[2,4,6,8,10,-1,12,-1,-1,-1,-1,-1,-1],"split_conditions":[5E-2,8.683785E-4,2E-1,-2.5359845E-5,2.0939866E-3,4.0931772E-2,8.5264015E-1,-3.26949E-3,-1.4407809E-2,1.975332E-2,-1.3935691E-2,8.45381E-3,-5.4080724E-3],"split_indices":[9,2,16,1,3,0,21,0,0,0,0,0,0],"split_type":[0,0,0,0,0,0,0,0,0,0,0,0,0],"sum_hessian":[4.9886333E3,2.8847615E3,2.1038718E3,2.4779375E3,4.0682385E2,5.6042217E1,2.0478297E3,1.5762228E3,9.0171484E2,2.4472852E2,1.6209534E2,1.6119933E3,4.3583643E2],"tree_param":{"num_deleted":"0","num_feature":"22","num_nodes":"13","size_leaf_vector":"1"}},{"base_weights":[3.8201066E-3,1.16119176E-1,-3.249027E-1,5.6239057E-1,6.0465936E-2,-7.720766E-1,-2.4705058E-1,7.2983205E-3,2.4671879E-2,2.333056E-3,-2.6228314E-2,-5.5455803E-3,-2.8210277E-2,-2.7047792E-2,-5.5623623E-3],"categories":[],"categories_nodes":[],"categories_segments":[],"categories_sizes":[],"default_left":[0,0,0,0,0,0,0,0,0,0,0,0,0,0,0],"id":52,"left_children":[1,3,5,7,9,11,13,-1,-1,-1,-1,-1,-1,-1,-1],"loss_changes":[1.8603694E2,9.30859E1,4.3978485E1,3.3785492E1,5.3986763E1,1.79636E1,4.356852E1,0E0,0E0,0E0,0E0,0E0,0E0,0E0,0E0],"parents":[2147483647,0,0,1,1,2,2,3,3,4,4,5,5,6,6],"right_children":[2,4,6,8,10,12,14,-1,-1,-1,-1,-1,-1,-1,-1],"split_conditions":[2.4972475E-1,-4.6979254E-1,-6.4E-1,-3.3380687E-1,5E-1,-9.063078E-1,1.14382E0,7.2983205E-3,2.4671879E-2,2.333056E-3,-2.6228314E-2,-5.5455803E-3,-2.8210277E-2,-2.7047792E-2,-5.5623623E-3],"split_indices":[15,15,9,20,18,20,7,0,0,0,0,0,0,0,0],"split_type":[0,0,0,0,0,0,0,0,0,0,0,0,0,0,0],"sum_hessian":[5.037219E3,3.7562175E3,1.2810018E3,4.1387134E2,3.3423462E3,1.867341E2,1.0942677E3,1.8807089E2,2.2580043E2,3.2837173E3,5.8628826E1,4.292213E1,1.4381197E2,9.14142E1,1.0028535E3],"tree_param":{"num_deleted":"0","num_feature":"22","num_nodes":"15","size_leaf_vector":"1"}},{"base_weights":[-5.9141144E-3,-2.5655252E-1,1.439014E-1,-1.5061359E-1,-6.98314E-1,7.7431984E-2,6.1162573E-1,-7.838271E-3,6.667313E-3,-2.5092531E-2,4.3011066E-3,-6.199013E-3,4.7280346E-3,2.507733E-2,3.0966246E-4],"categories":[],"categories_nodes":[],"categories_segments":[],"categories_sizes":[],"default_left":[0,0,0,0,0,0,0,0,0,0,0,0,0,0,0],"id":53,"left_children":[1,3,5,7,9,11,13,-1,-1,-1,-1,-1,-1,-1,-1],"loss_changes":[1.8957657E2,8.794853E1,9.789906E1,6.312834E1,4.2796036E1,6.309778E1,5.2619385E1,0E0,0E0,0E0,0E0,0E0,0E0,0E0,0E0],"parents":[2147483647,0,0,1,1,2,2,3,3,4,4,5,5,6,6],"right_children":[2,4,6,8,10,12,14,-1,-1,-1,-1,-1,-1,-1,-1],"split_conditions":[-1.1477043E-4,6.666667E-1,6.608987E-4,3.1405213E-4,8.8498765E-1,5.9311014E-1,8.5763243E-4,-7.838271E-3,6.667313E-3,-2.5092531E-2,4.3011066E-3,-6.199013E-3,4.7280346E-3,2.507733E-2,3.0966246E-4],"split_indices":[4,16,4,2,20,6,5,0,0,0,0,0,0,0,0],"split_type":[0,0,0,0,0,0,0,0,0,0,0,0,0,0,0],"sum_hessian":[5.043842E3,1.8871891E3,3.1566523E3,1.5248706E3,3.6231854E2,2.7664746E3,3.901778E2,1.1769585E3,3.4791205E2,3.115657E2,5.0752834E1,6.073912E2,2.1590835E3,2.8324762E2,1.0693015E2],"tree_param":{"num_deleted":"0","num_feature":"22","num_nodes":"15","size_leaf_vector":"1"}},{"base_weights":[-4.3820404E-3,9.76522E-2,-3.3446562E-1,5.414302E-1,4.375772E-2,-9.924772E-1,-2.787211E-1,7.3181847E-3,2.3408229E-2,4.0794285E-3,-6.2199724E-3,-3.883671E-2,-1.971693E-2,9.508681E-3,-1.1747097E-2],"categories":[],"categories_nodes":[],"categories_segments":[],"categories_sizes":[],"default_left":[0,0,0,0,0,0,0,0,0,0,0,0,0,0,0],"id":54,"left_children":[1,3,5,7,9,11,13,-1,-1,-1,-1,-1,-1,-1,-1],"loss_changes":[1.6820581E2,9.096723E1,4.232881E1,2.859446E1,7.8827484E1,6.919899E0,7.357894E1,0E0,0E0,0E0,0E0,0E0,0E0,0E0,0E0],"parents":[2147483647,0,0,1,1,2,2,3,3,4,4,5,5,6,6],"right_children":[2,4,6,8,10,12,14,-1,-1,-1,-1,-1,-1,-1,-1],"split_conditions":[2.6965642E-1,-4.6979254E-1,1.14382E0,-3.5836795E-1,8.141155E-1,2.1217768E-1,2.75044E0,7.3181847E-3,2.3408229E-2,4.0794285E-3,-6.2199724E-3,-3.883671E-2,-1.971693E-2,9.508681E-3,-1.1747097E-2],"split_indices":[15,15,7,20,21,21,7,0,0,0,0,0,0,0,0],"split_type":[0,0,0,0,0,0,0,0,0,0,0,0,0,0,0],"sum_hessian":[4.988212E3,3.810747E3,1.1774648E3,4.1011536E2,3.4006316E3,8.89152E1,1.0885496E3,1.849949E2,2.2512047E2,2.4886746E3,9.119569E2,4.3290028E1,4.562517E1,1.7237668E2,9.161729E2],"tree_param":{"num_deleted":"0","num_feature":"22","num_nodes":"15","size_leaf_vector":"1"}},{"base_weights":[1.7255486E-3,-2.3376845E-1,1.442692E-1,-1.3088757E-1,-6.7866254E-1,1.13260515E-1,9.0948695E-1,-7.3564695E-3,7.893211E-3,-2.9765831E-2,-9.617763E-3,6.384587E-3,-4.0038177E-3,1.3665336E-2,3.552921E-2],"categories":[],"categories_nodes":[],"categories_segments":[],"categories_sizes":[],"default_left":[0,0,0,0,0,0,0,0,0,0,0,0,0,0,0],"id":55,"left_children":[1,3,5,7,9,11,13,-1,-1,-1,-1,-1,-1,-1,-1],"loss_changes":[1.668159E2,8.5322945E1,7.297271E1,6.879416E1,3.835443E1,7.325469E1,1.3394012E1,0E0,0E0,0E0,0E0,0E0,0E0,0E0,0E0],"parents":[2147483647,0,0,1,1,2,2,3,3,4,4,5,5,6,6],"right_children":[2,4,6,8,10,12,14,-1,-1,-1,-1,-1,-1,-1,-1],"split_conditions":[-1.1477043E-4,6.666667E-1,6.8E-1,3.1405213E-4,-3.3597182E-4,7.688418E-1,-4.2656875E-1,-7.3564695E-3,7.893211E-3,-2.9765831E-2,-9.617763E-3,6.384587E-3,-4.0038177E-3,1.3665336E-2,3.552921E-2],"split_indices":[4,16,9,2,4,21,21,0,0,0,0,0,0,0,0],"split_type":[0,0,0,0,0,0,0,0,0,0,0,0,0,0,0],"sum_hessian":[4.966256E3,1.8713104E3,3.0949456E3,1.5224984E3,3.4881204E2,2.9769976E3,1.1794789E2,1.1812451E3,3.4125323E2,1.83637E2,1.6517505E2,2.1221428E3,8.5485486E2,4.6892582E1,7.105531E1],"tree_param":{"num_deleted":"0","num_feature":"22","num_nodes":"15","size_leaf_vector":"1"}},{"base_weights":[5.5768066E-3,9.928903E-2,-2.7214167E-1,4.7723155E-2,5.514039E-1,-1.9877721E-1,-7.0681584E-1,1.9124821E-3,-3.147473E-2,2.3723114E-2,-2.487756E-3,1.3424721E-2,-7.903888E-3,-2.1946095E-3,-2.7092785E-2],"categories":[],"categories_nodes":[],"categories_segments":[],"categories_sizes":[],"default_left":[0,0,0,0,0,0,0,0,0,0,0,0,0,0,0],"id":56,"left_children":[1,3,5,7,9,11,13,-1,-1,-1,-1,-1,-1,-1,-1],"loss_changes":[1.2986472E2,8.680094E1,3.958539E1,5.879304E1,5.8255234E1,4.534052E1,2.2010208E1,0E0,0E0,0E0,0E0,0E0,0E0,0E0,0E0],"parents":[2147483647,0,0,1,1,2,2,3,3,4,4,5,5,6,6],"right_children":[2,4,6,8,10,12,14,-1,-1,-1,-1,-1,-1,-1,-1],"split_conditions":[2.4972475E-1,6.608987E-4,6.394141E-1,1.0997481E-3,8.5763243E-4,-1.5025465E-3,-9.063078E-1,1.9124821E-3,-3.147473E-2,2.3723114E-2,-2.487756E-3,1.3424721E-2,-7.903888E-3,-2.1946095E-3,-2.7092785E-2],"split_indices":[15,4,15,0,5,2,20,0,0,0,0,0,0,0,0],"split_type":[0,0,0,0,0,0,0,0,0,0,0,0,0,0,0],"sum_hessian":[4.9877964E3,3.7311404E3,1.256656E3,3.3517336E3,3.7940668E2,1.07827E3,1.7838602E2,3.3055938E3,4.6139927E1,2.754458E2,1.0396087E2,9.660693E1,9.816631E2,4.3198273E1,1.3518774E2],"tree_param":{"num_deleted":"0","num_feature":"22","num_nodes":"15","size_leaf_vector":"1"}},{"base_weights":[9.165428E-3,1.3816527E-1,-2.3893593E-1,5.461891E-1,8.16913E-2,6.835603E-2,-3.343131E-1,8.47394E-3,2.3460058E-2,4.54844E-3,-7.2573293E-3,-1.0365901E-2,2.414656E-2,7.6505244E-3,-1.1783825E-2],"categories":[],"categories_nodes":[],"categories_segments":[],"categories_sizes":[],"default_left":[0,0,0,0,0,0,0,0,0,0,0,0,0,0,0],"id":57,"left_children":[1,3,5,7,9,11,13,-1,-1,-1,-1,-1,-1,-1,-1],"loss_changes":[1.5832297E2,7.474771E1,4.97091E1,2.3795036E1,6.482981E1,1.2312762E2,4.4774933E1,0E0,0E0,0E0,0E0,0E0,0E0,0E0,0E0],"parents":[2147483647,0,0,1,1,2,2,3,3,4,4,5,5,6,6],"right_children":[2,4,6,8,10,12,14,-1,-1,-1,-1,-1,-1,-1,-1],"split_conditions":[1.5E-1,-4.6979254E-1,2.75044E0,-3.2143947E-1,6.666667E-1,1.96528E0,-2.9025855E-3,8.47394E-3,2.3460058E-2,4.54844E-3,-7.2573293E-3,-1.0365901E-2,2.414656E-2,7.6505244E-3,-1.1783825E-2],"split_indices":[15,15,7,20,16,7,3,0,0,0,0,0,0,0,0],"split_type":[0,0,0,0,0,0,0,0,0,0,0,0,0,0,0],"sum_hessian":[4.9436963E3,3.2539214E3,1.6897749E3,3.9285953E2,2.8610618E3,3.9963327E2,1.2901416E3,1.8812984E2,2.0472969E2,2.354332E3,5.067297E2,2.5627582E2,1.4335747E2,1.1539744E2,1.1747441E3],"tree_param":{"num_deleted":"0","num_feature":"22","num_nodes":"15","size_leaf_vector":"1"}},{"base_weights":[1.0728701E-2,3.5065502E-1,-6.104669E-2,6.963498E-2,5.77414E-1,1.0749636E-2,-3.5941222E-1,-2.4749199E-2,7.2182775E-3,-7.3908786E-3,2.0564286E-2,-3.0482197E-3,9.986586E-3,-1.792673E-2,1.7420195E-2],"categories":[],"categories_nodes":[],"categories_segments":[],"categories_sizes":[],"default_left":[0,0,0,0,0,0,0,0,0,0,0,0,0,0,0],"id":58,"left_children":[1,3,5,7,9,11,13,-1,-1,-1,-1,-1,-1,-1,-1],"loss_changes":[1.2112736E2,5.488568E1,8.784734E1,5.9785786E1,4.3037704E1,1.1966454E2,1.7873874E2,0E0,0E0,0E0,0E0,0E0,0E0,0E0,0E0],"parents":[2147483647,0,0,1,1,2,2,3,3,4,4,5,5,6,6],"right_children":[2,4,6,8,10,12,14,-1,-1,-1,-1,-1,-1,-1,-1],"split_conditions":[-3.0988273E-1,-3.3380687E-1,6.666667E-1,2.9564172E-4,5.0050104E-1,3.1405213E-4,2E-1,-2.4749199E-2,7.2182775E-3,-7.3908786E-3,2.0564286E-2,-3.0482197E-3,9.986586E-3,-1.792673E-2,1.7420195E-2],"split_indices":[15,20,16,4,6,2,18,0,0,0,0,0,0,0,0],"split_type":[0,0,0,0,0,0,0,0,0,0,0,0,0,0,0],"sum_hessian":[4.957257E3,8.6361383E2,4.093643E3,3.874224E2,4.7619147E2,3.3003865E3,7.9325653E2,6.065346E1,3.2676892E2,5.4603584E1,4.215879E2,2.4472546E3,8.53132E2,6.337586E2,1.5949794E2],"tree_param":{"num_deleted":"0","num_feature":"22","num_nodes":"15","size_leaf_vector":"1"}},{"base_weights":[4.7527975E-3,1.8438327E-1,-1.3348357E-1,3.860866E-2,1.5360032E-1,-1.9691235E-1,2.377605E-1,3.4641086E-3,2.6983557E-2,-1.438725E-3,-1.3816243E-2,-5.303282E-3,2.7820313E-2],"categories":[],"categories_nodes":[],"categories_segments":[],"categories_sizes":[],"default_left":[0,0,0,0,0,0,0,0,0,0,0,0,0],"id":59,"left_children":[1,3,5,-1,7,9,11,-1,-1,-1,-1,-1,-1],"loss_changes":[1.238489E2,7.281271E1,6.6421715E1,0E0,5.958854E1,9.436137E1,1.18132935E2,0E0,0E0,0E0,0E0,0E0,0E0],"parents":[2147483647,0,0,1,1,2,2,4,4,5,5,6,6],"right_children":[2,4,6,-1,8,10,12,-1,-1,-1,-1,-1,-1],"split_conditions":[-2.9919509E-2,2E-1,8.452738E-4,3.860866E-2,7E-1,-2.5359845E-5,2.0364176E-1,3.4641086E-3,2.6983557E-2,-1.438725E-3,-1.3816243E-2,-5.303282E-3,2.7820313E-2],"split_indices":[15,16,2,0,9,1,20,0,0,0,0,0,0],"split_type":[0,0,0,0,0,0,0,0,0,0,0,0,0],"sum_hessian":[4.9829824E3,2.167691E3,2.8152913E3,5.6395027E1,2.111296E3,2.4059678E3,4.093235E2,2.0111902E3,1.0010582E2,1.5395808E3,8.66387E2,2.5630212E2,1.5302138E2],"tree_param":{"num_deleted":"0","num_feature":"22","num_nodes":"13","size_leaf_vector":"1"}},{"base_weights":[1.1602597E-3,-2.0575556E-1,1.2404995E-1,-1.131604E-1,-6.033413E-1,-5.0885454E-2,2.8589037E-1,-1.2858488E-2,2.7250647E-4,-2.3589749E-2,7.672534E-3,1.9574177E-2,-5.1352493E-3,9.981243E-3,-1.5248013E-2],"categories":[],"categories_nodes":[],"categories_segments":[],"categories_sizes":[],"default_left":[0,0,0,0,0,0,0,0,0,0,0,0,0,0,0],"id":60,"left_children":[1,3,5,7,9,11,13,-1,-1,-1,-1,-1,-1,-1,-1],"loss_changes":[1.263829E2,6.780819E1,8.842566E1,5.8161568E1,5.5371086E1,1.26992615E2,6.0582825E1,0E0,0E0,0E0,0E0,0E0,0E0,0E0,0E0],"parents":[2147483647,0,0,1,1,2,2,3,3,4,4,5,5,6,6],"right_children":[2,4,6,8,10,12,14,-1,-1,-1,-1,-1,-1,-1,-1],"split_conditions":[-1.1477043E-4,6.666667E-1,9.482918E-1,-4.962165E-1,2E-1,-8.8901716E-1,2.969457E-3,-1.2858488E-2,2.7250647E-4,-2.3589749E-2,7.672534E-3,1.9574177E-2,-5.1352493E-3,9.981243E-3,-1.5248013E-2],"split_indices":[4,16,6,21,18,21,3,0,0,0,0,0,0,0,0],"split_type":[0,0,0,0,0,0,0,0,0,0,0,0,0,0,0],"sum_hessian":[4.967217E3,1.8494354E3,3.1177815E3,1.5027731E3,3.466624E2,1.498044E3,1.6197375E3,4.1899075E2,1.0837822E3,2.8621765E2,6.044476E1,2.1712521E2,1.2809187E3,1.5310197E3,8.871791E1],"tree_param":{"num_deleted":"0","num_feature":"22","num_nodes":"15","size_leaf_vector":"1"}},{"base_weights":[2.547226E-3,-8.415862E-2,2.93169E-1,-4.508745E-2,-5.6237113E-1,3.5192348E-2,4.9628374E-1,1.5551144E-3,-5.9471056E-3,-6.4020064E-3,-2.31088E-2,-1.9478468E-2,7.968098E-3,1.6306489E-3,1.9297814E-2],"categories":[],"categories_nodes":[],"categories_segments":[],"categories_sizes":[],"default_left":[0,0,0,0,0,0,0,0,0,0,0,0,0,0,0],"id":61,"left_children":[1,3,5,7,9,11,13,-1,-1,-1,-1,-1,-1,-1,-1],"loss_changes":[1.24442726E2,7.078617E1,5.9279808E1,5.2265583E1,2.015268E1,7.95255E1,4.0916428E1,0E0,0E0,0E0,0E0,0E0,0E0,0E0,0E0],"parents":[2147483647,0,0,1,1,2,2,3,3,4,4,5,5,6,6],"right_children":[2,4,6,8,10,12,14,-1,-1,-1,-1,-1,-1,-1,-1],"split_conditions":[2.5E-1,5.497867E-1,-3.3380687E-1,3.09017E-1,-5E-1,2.9564172E-4,6.85468E-1,1.5551144E-3,-5.9471056E-3,-6.4020064E-3,-2.31088E-2,-1.9478468E-2,7.968098E-3,1.6306489E-3,1.9297814E-2],"split_indices":[9,15,20,20,20,4,6,0,0,0,0,0,0,0,0],"split_type":[0,0,0,0,0,0,0,0,0,0,0,0,0,0,0],"sum_hessian":[4.9320293E3,3.7990012E3,1.1330282E3,3.5146604E3,2.8434076E2,5.00793E2,6.322352E2,2.1520461E3,1.3626144E3,1.082136E2,1.7612715E2,1.24879486E2,3.759135E2,1.58984E2,4.7325125E2],"tree_param":{"num_deleted":"0","num_feature":"22","num_nodes":"15","size_leaf_vector":"1"}},{"base_weights":[7.105737E-3,-7.5017214E-2,3.0388796E-1,-2.6196597E-2,-4.266034E-1,-3.6146623E-1,3.8712737E-1,1.047766E-2,-2.7004099E-3,-1.0253023E-2,-3.0375004E-2,7.0938417E-3,-2.8094755E-2,1.587141E-2,-1.5001625E-3],"categories":[],"categories_nodes":[],"categories_segments":[],"categories_sizes":[],"default_left":[0,0,0,0,0,0,0,0,0,0,0,0,0,0,0],"id":62,"left_children":[1,3,5,7,9,11,13,-1,-1,-1,-1,-1,-1,-1,-1],"loss_changes":[1.20349396E2,6.6179855E1,5.957012E1,8.136509E1,2.2280243E1,4.1793373E1,5.9302567E1,0E0,0E0,0E0,0E0,0E0,0E0,0E0,0E0],"parents":[2147483647,0,0,1,1,2,2,3,3,4,4,5,5,6,6],"right_children":[2,4,6,8,10,12,14,-1,-1,-1,-1,-1,-1,-1,-1],"split_conditions":[2.8243335E-4,4.694852E-1,2.05767E0,-6.3762075E-4,1.0178807E-3,1.41177E0,7.42673E-4,1.047766E-2,-2.7004099E-3,-1.0253023E-2,-3.0375004E-2,7.0938417E-3,-2.8094755E-2,1.587141E-2,-1.5001625E-3],"split_indices":[4,15,7,1,5,7,5,0,0,0,0,0,0,0,0],"split_type":[0,0,0,0,0,0,0,0,0,0,0,0,0,0,0],"sum_hessian":[4.931203E3,3.8628054E3,1.0683976E3,3.3944592E3,4.6834607E2,1.1765572E2,9.507419E2,4.9116498E2,2.9032942E3,4.1232187E2,5.6024193E1,5.8000763E1,5.965496E1,7.179257E2,2.3281616E2],"tree_param":{"num_deleted":"0","num_feature":"22","num_nodes":"15","size_leaf_vector":"1"}},{"base_weights":[-1.2257901E-2,-1.5422839E-1,1.6827382E-1,-2.8647768E-1,1.8830864E-2,3.839392E-2,1.3791157E-1,7.5338816E-4,-1.5364634E-2,5.8108466E-3,-1.4976168E-2,1.9968677E-2,2.47496E-3],"categories":[],"categories_nodes":[],"categories_segments":[],"categories_sizes":[],"default_left":[0,0,0,0,0,0,0,0,0,0,0,0,0],"id":63,"left_children":[1,3,5,7,9,-1,11,-1,-1,-1,-1,-1,-1],"loss_changes":[1.2609068E2,6.3141396E1,7.228349E1,1.10055695E2,1.0827991E2,0E0,6.1361687E1,0E0,0E0,0E0,0E0,0E0,0E0],"parents":[2147483647,0,0,1,1,2,2,3,3,4,4,6,6],"right_children":[2,4,6,8,10,-1,12,-1,-1,-1,-1,-1,-1],"split_conditions":[3E-2,7.357471E-5,2E-1,-3.09017E-1,1.7029948E-3,3.839392E-2,-9.426415E-1,7.5338816E-4,-1.5364634E-2,5.8108466E-3,-1.4976168E-2,1.9968677E-2,2.47496E-3],"split_indices":[9,3,16,20,3,0,21,0,0,0,0,0,0],"split_type":[0,0,0,0,0,0,0,0,0,0,0,0,0],"sum_hessian":[4.9157573E3,2.752858E3,2.1628997E3,1.5606531E3,1.1922048E3,5.5059475E1,2.10784E3,6.5573364E2,9.0491943E2,8.927029E2,2.9950192E2,1.9769576E2,1.9101443E3],"tree_param":{"num_deleted":"0","num_feature":"22","num_nodes":"13","size_leaf_vector":"1"}},{"base_weights":[1.2049157E-3,-6.2655225E-2,3.1255057E-1,-3.1048093E-2,-4.758876E-2,4.5824736E-2,5.2825433E-1,-2.0357544E-2,-7.5780787E-4,6.5037897E-3,-2.5713943E-2,-6.9492185E-3,1.909066E-2],"categories":[],"categories_nodes":[],"categories_segments":[],"categories_sizes":[],"default_left":[0,0,0,0,0,0,0,0,0,0,0,0,0],"id":64,"left_children":[1,3,5,-1,7,9,11,-1,-1,-1,-1,-1,-1],"loss_changes":[9.8473274E1,5.9723236E1,4.828692E1,0E0,5.6754265E1,5.8809544E1,3.8640915E1,0E0,0E0,0E0,0E0,0E0,0E0],"parents":[2147483647,0,0,1,1,2,2,4,4,5,5,6,6],"right_children":[2,4,6,-1,8,10,12,-1,-1,-1,-1,-1,-1],"split_conditions":[3.2E-1,1.0477981E-1,-3.3380687E-1,-3.1048093E-2,-6.7E-1,9.5197756E-4,5.0050104E-1,-2.0357544E-2,-7.5780787E-4,6.5037897E-3,-2.5713943E-2,-6.9492185E-3,1.909066E-2],"split_indices":[9,6,20,0,9,0,6,0,0,0,0,0,0],"split_type":[0,0,0,0,0,0,0,0,0,0,0,0,0],"sum_hessian":[4.945001E3,4.103886E3,8.411146E2,6.0253693E1,4.0436328E3,3.7778494E2,4.6332968E2,1.3572997E2,3.9079028E3,3.1919897E2,5.858597E1,5.7073204E1,4.0625647E2],"tree_param":{"num_deleted":"0","num_feature":"22","num_nodes":"13","size_leaf_vector":"1"}},{"base_weights":[6.6456655E-3,8.895568E-2,-2.7554035E-1,1.7664398E-1,-1.5609285E-1,-2.2142033E-1,-9.176725E-1,1.6718437E-3,1.5185474E-2,-6.1934465E-4,-3.1893384E-2,-4.836213E-3,-2.4336485E-2,-1.646096E-2,-3.678107E-2],"categories":[],"categories_nodes":[],"categories_segments":[],"categories_sizes":[],"default_left":[0,0,0,0,0,0,0,0,0,0,0,0,0,0,0],"id":65,"left_children":[1,3,5,7,9,11,13,-1,-1,-1,-1,-1,-1,-1,-1],"loss_changes":[1.141201E2,8.185192E1,3.7800743E1,1.1154758E2,1.22887314E2,3.5886932E1,7.810951E0,0E0,0E0,0E0,0E0,0E0,0E0,0E0,0E0],"parents":[2147483647,0,0,1,1,2,2,3,3,4,4,5,5,6,6],"right_children":[2,4,6,8,10,12,14,-1,-1,-1,-1,-1,-1,-1,-1],"split_conditions":[2.6991415E-1,8.141155E-1,1.3728077E0,4.0673664E-1,6.666667E-1,7.28989E-1,-3.7769342E-4,1.6718437E-3,1.5185474E-2,-6.1934465E-4,-3.1893384E-2,-4.836213E-3,-2.4336485E-2,-1.646096E-2,-3.678107E-2],"split_indices":[15,21,6,21,16,15,0,0,0,0,0,0,0,0,0],"split_type":[0,0,0,0,0,0,0,0,0,0,0,0,0,0,0],"sum_hessian":[4.9116074E3,3.8043582E3,1.1072495E3,2.8030837E3,1.0012745E3,1.024094E3,8.3155556E1,2.0530261E3,7.5005756E2,8.732462E2,1.2802821E2,9.319998E2,9.209412E1,4.0830837E1,4.232472E1],"tree_param":{"num_deleted":"0","num_feature":"22","num_nodes":"15","size_leaf_vector":"1"}},{"base_weights":[-1.2739188E-3,-6.8923436E-2,3.2922846E-1,-3.7422476E-3,-3.4014246E-1,8.174435E-2,5.337682E-1,-3.3868598E-3,9.097887E-3,-1.6918547E-2,1.628581E-2,7.653356E-3,-2.3842378E-2,-7.0455256E-3,1.912627E-2],"categories":[],"categories_nodes":[],"categories_segments":[],"categories_sizes":[],"default_left":[0,0,0,0,0,0,0,0,0,0,0,0,0,0,0],"id":66,"left_children":[1,3,5,7,9,11,13,-1,-1,-1,-1,-1,-1,-1,-1],"loss_changes":[1.0995189E2,7.2124146E1,4.201654E1,1.1049652E2,1.5688966E2,5.814512E1,3.682086E1,0E0,0E0,0E0,0E0,0E0,0E0,0E0,0E0],"parents":[2147483647,0,0,1,1,2,2,3,3,4,4,5,5,6,6],"right_children":[2,4,6,8,10,12,14,-1,-1,-1,-1,-1,-1,-1,-1],"split_conditions":[3.2E-1,6.666667E-1,-3.3380687E-1,3.1405213E-4,2E-1,9.5197756E-4,5.0050104E-1,-3.3868598E-3,9.097887E-3,-1.6918547E-2,1.628581E-2,7.653356E-3,-2.3842378E-2,-7.0455256E-3,1.912627E-2],"split_indices":[9,16,20,2,18,0,6,0,0,0,0,0,0,0,0],"split_type":[0,0,0,0,0,0,0,0,0,0,0,0,0,0,0],"sum_hessian":[4.917178E3,4.083774E3,8.334045E2,3.2950251E3,7.887489E2,3.7904395E2,4.5436053E2,2.432435E3,8.6258997E2,6.301031E2,1.5864584E2,3.179203E2,6.112366E1,5.340336E1,4.0095718E2],"tree_param":{"num_deleted":"0","num_feature":"22","num_nodes":"15","size_leaf_vector":"1"}},{"base_weights":[-5.4728985E-3,8.056909E-2,-2.6450363E-1,5.7233506E-1,4.1493688E-2,-8.848428E-1,-2.1186386E-1,2.3301123E-2,5.531919E-4,3.6526583E-3,-5.415627E-3,-3.553756E-2,-1.4062276E-2,9.7441105E-3,-9.514872E-3],"categories":[],"categories_nodes":[],"categories_segments":[],"categories_sizes":[],"default_left":[0,0,0,0,0,0,0,0,0,0,0,0,0,0,0],"id":67,"left_children":[1,3,5,7,9,11,13,-1,-1,-1,-1,-1,-1,-1,-1],"loss_changes":[1.0927498E2,7.044096E1,3.922503E1,3.0296928E1,6.078649E1,1.0188324E1,6.407178E1,0E0,0E0,0E0,0E0,0E0,0E0,0E0,0E0],"parents":[2147483647,0,0,1,1,2,2,3,3,4,4,5,5,6,6],"right_children":[2,4,6,8,10,12,14,-1,-1,-1,-1,-1,-1,-1,-1],"split_conditions":[2.4972475E-1,-5.4875636E-1,1.14382E0,2.4203831E-4,8.1915206E-1,2.2069743E-1,2.75044E0,2.3301123E-2,5.531919E-4,3.6526583E-3,-5.415627E-3,-3.553756E-2,-1.4062276E-2,9.7441105E-3,-9.514872E-3],"split_indices":[15,15,7,8,21,21,7,0,0,0,0,0,0,0,0],"split_type":[0,0,0,0,0,0,0,0,0,0,0,0,0,0,0],"sum_hessian":[4.896579E3,3.675809E3,1.2207701E3,2.6800323E2,3.4078057E3,9.256853E1,1.1282017E3,1.947871E2,7.321615E1,2.5046072E3,9.031986E2,5.1241444E1,4.1327087E1,1.839022E2,9.4429944E2],"tree_param":{"num_deleted":"0","num_feature":"22","num_nodes":"15","size_leaf_vector":"1"}},{"base_weights":[1.1469779E-3,-7.284465E-2,2.719308E-1,-2.7305374E-2,-4.9756128E-1,-3.894366E-1,3.528593E-1,-4.017796E-3,6.69756E-3,5.0420947E-3,-2.2033934E-2,-3.142972E-2,4.410421E-3,-1.7807692E-2,1.2522207E-2],"categories":[],"categories_nodes":[],"categories_segments":[],"categories_sizes":[],"default_left":[0,0,0,0,0,0,0,0,0,0,0,0,0,0,0],"id":68,"left_children":[1,3,5,7,9,11,13,-1,-1,-1,-1,-1,-1,-1,-1],"loss_changes":[9.86221E1,7.452603E1,5.681656E1,9.330591E1,5.9284485E1,4.1446915E1,5.804265E1,0E0,0E0,0E0,0E0,0E0,0E0,0E0,0E0],"parents":[2147483647,0,0,1,1,2,2,3,3,4,4,5,5,6,6],"right_children":[2,4,6,8,10,12,14,-1,-1,-1,-1,-1,-1,-1,-1],"split_conditions":[2.8243335E-4,1.7029948E-3,2.05767E0,2.2995053E-4,7.343871E-1,-8.741256E-5,-5.407926E-4,-4.017796E-3,6.69756E-3,5.0420947E-3,-2.2033934E-2,-3.142972E-2,4.410421E-3,-1.7807692E-2,1.2522207E-2],"split_indices":[4,3,7,3,6,3,0,0,0,0,0,0,0,0,0],"split_type":[0,0,0,0,0,0,0,0,0,0,0,0,0,0,0],"sum_hessian":[4.9153516E3,3.8607551E3,1.0545964E3,3.4894424E3,3.7131256E2,1.1374153E2,9.408549E2,2.449304E3,1.0401384E3,9.728471E1,2.7402786E2,5.046936E1,6.3272167E1,5.8726067E1,8.8212885E2],"tree_param":{"num_deleted":"0","num_feature":"22","num_nodes":"15","size_leaf_vector":"1"}},{"base_weights":[-6.566772E-5,-4.562674E-2,4.568842E-1,-7.427876E-1,-2.4249794E-2,-1.05425544E-1,6.8345153E-1,-8.4273135E-3,-3.1209458E-2,1.1122255E-3,-7.7394834E-3,-1.9511675E-2,1.9291608E-2,-6.292018E-3,2.5224231E-2],"categories":[],"categories_nodes":[],"categories_segments":[],"categories_sizes":[],"default_left":[0,0,0,0,0,0,0,0,0,0,0,0,0,0,0],"id":69,"left_children":[1,3,5,7,9,11,13,-1,-1,-1,-1,-1,-1,-1,-1],"loss_changes":[1.0189649E2,6.615126E1,5.6844986E1,1.7172707E1,6.209893E1,5.3368603E1,4.508374E1,0E0,0E0,0E0,0E0,0E0,0E0,0E0,0E0],"parents":[2147483647,0,0,1,1,2,2,3,3,4,4,5,5,6,6],"right_children":[2,4,6,8,10,12,14,-1,-1,-1,-1,-1,-1,-1,-1],"split_conditions":[5.8921374E-4,-6.7E-1,-4.2656875E-1,-5E-1,8.638355E-1,-3.5836795E-1,-1.1443815E-5,-8.4273135E-3,-3.1209458E-2,1.1122255E-3,-7.7394834E-3,-1.9511675E-2,1.9291608E-2,-6.292018E-3,2.5224231E-2],"split_indices":[4,9,21,20,21,20,0,0,0,0,0,0,0,0,0],"split_type":[0,0,0,0,0,0,0,0,0,0,0,0,0,0,0],"sum_hessian":[4.896293E3,4.4545957E3,4.4169727E2,1.3010147E2,4.324494E3,1.2678332E2,3.1491394E2,5.2890976E1,7.721049E1,3.4260173E3,8.9847687E2,7.3749565E1,5.303375E1,4.6784355E1,2.6812958E2],"tree_param":{"num_deleted":"0","num_feature":"22","num_nodes":"15","size_leaf_vector":"1"}},{"base_weights":[2.751503E-3,-1.4935288E-1,1.2286095E-1,5.099671E-1,-1.9357324E-1,-4.887948E-2,2.7701327E-1,4.6816256E-2,-7.834031E-3,8.1793254E-4,-8.84801E-3,-8.894966E-3,5.4634362E-3,9.842738E-3,-1.3252508E-2],"categories":[],"categories_nodes":[],"categories_segments":[],"categories_sizes":[],"default_left":[0,0,0,0,0,0,0,0,0,0,0,0,0,0,0],"id":70,"left_children":[1,3,5,7,9,11,13,-1,-1,-1,-1,-1,-1,-1,-1],"loss_changes":[8.920563E1,6.289078E1,7.236211E1,1.1096106E2,4.531449E1,7.4041176E1,5.311258E1,0E0,0E0,0E0,0E0,0E0,0E0,0E0,0E0],"parents":[2147483647,0,0,1,1,2,2,3,3,4,4,5,5,6,6],"right_children":[2,4,6,8,10,12,14,-1,-1,-1,-1,-1,-1,-1,-1],"split_conditions":[-5.867514E-5,-3E0,9.482918E-1,3.8268343E-1,-2.7078937E-4,1E0,9.848464E-4,4.6816256E-2,-7.834031E-3,8.1793254E-4,-8.84801E-3,-8.894966E-3,5.4634362E-3,9.842738E-3,-1.3252508E-2],"split_indices":[4,17,6,20,8,17,0,0,0,0,0,0,0,0,0],"split_type":[0,0,0,0,0,0,0,0,0,0,0,0,0,0,0],"sum_hessian":[4.8792754E3,2.1515754E3,2.7277E3,1.334848E2,2.0180907E3,1.2899698E3,1.4377301E3,5.580105E1,7.768375E1,6.344007E2,1.3836901E3,6.2293353E2,6.670364E2,1.3437432E3,9.398688E1],"tree_param":{"num_deleted":"0","num_feature":"22","num_nodes":"15","size_leaf_vector":"1"}},{"base_weights":[-6.5575447E-3,-8.15949E-2,2.66847E-1,-3.765655E-2,-4.827186E-1,-3.4162176E-1,3.4555918E-1,-4.455986E-3,6.6071744E-3,5.4266686E-3,-2.1673543E-2,-2.9583424E-2,5.1629054E-3,-1.4878327E-2,1.2062099E-2],"categories":[],"categories_nodes":[],"categories_segments":[],"categories_sizes":[],"default_left":[0,0,0,0,0,0,0,0,0,0,0,0,0,0,0],"id":71,"left_children":[1,3,5,7,9,11,13,-1,-1,-1,-1,-1,-1,-1,-1],"loss_changes":[9.989242E1,6.719372E1,5.044451E1,9.865997E1,6.033938E1,4.052781E1,4.457952E1,0E0,0E0,0E0,0E0,0E0,0E0,0E0,0E0],"parents":[2147483647,0,0,1,1,2,2,3,3,4,4,5,5,6,6],"right_children":[2,4,6,8,10,12,14,-1,-1,-1,-1,-1,-1,-1,-1],"split_conditions":[2.8243335E-4,1.7029948E-3,2.05767E0,2.2995053E-4,7.343871E-1,-8.741256E-5,-5.407926E-4,-4.455986E-3,6.6071744E-3,5.4266686E-3,-2.1673543E-2,-2.9583424E-2,5.1629054E-3,-1.4878327E-2,1.2062099E-2],"split_indices":[4,3,7,3,6,3,0,0,0,0,0,0,0,0,0],"split_type":[0,0,0,0,0,0,0,0,0,0,0,0,0,0,0],"sum_hessian":[4.867693E3,3.8213918E3,1.0463011E3,3.4467742E3,3.746176E2,1.1864534E2,9.276558E2,2.4118613E3,1.0349128E3,9.9216034E1,2.7540158E2,5.2067825E1,6.6577515E1,5.7063343E1,8.7059247E2],"tree_param":{"num_deleted":"0","num_feature":"22","num_nodes":"15","size_leaf_vector":"1"}},{"base_weights":[5.719093E-3,8.041894E-2,-2.563267E-1,5.659794E-1,4.4155434E-2,-6.8958163E-1,-1.7732127E-1,2.282662E-2,4.851767E-4,3.0975537E-3,-6.793289E-3,-7.724826E-3,-2.8732147E-2,1.4504752E-2,-7.3855272E-3],"categories":[],"categories_nodes":[],"categories_segments":[],"categories_sizes":[],"default_left":[0,0,0,0,0,0,0,0,0,0,0,0,0,0,0],"id":72,"left_children":[1,3,5,7,9,11,13,-1,-1,-1,-1,-1,-1,-1,-1],"loss_changes":[9.527292E1,6.650758E1,3.64422E1,2.7889381E1,5.64541E1,1.8282837E1,4.1858643E1,0E0,0E0,0E0,0E0,0E0,0E0,0E0,0E0],"parents":[2147483647,0,0,1,1,2,2,3,3,4,4,5,5,6,6],"right_children":[2,4,6,8,10,12,14,-1,-1,-1,-1,-1,-1,-1,-1],"split_conditions":[2.6991415E-1,-5.4875636E-1,-6.4E-1,2.4203831E-4,6.666667E-1,-5E-1,-1.5025465E-3,2.282662E-2,4.851767E-4,3.0975537E-3,-6.793289E-3,-7.724826E-3,-2.8732147E-2,1.4504752E-2,-7.3855272E-3],"split_indices":[15,15,9,8,16,20,2,0,0,0,0,0,0,0,0],"split_type":[0,0,0,0,0,0,0,0,0,0,0,0,0,0,0],"sum_hessian":[4.8657163E3,3.7883303E3,1.0773859E3,2.6066013E2,3.5276702E3,1.631947E2,9.1419116E2,1.9147003E2,6.919009E1,2.8972756E3,6.3039453E2,6.442475E1,9.876995E1,8.472892E1,8.294622E2],"tree_param":{"num_deleted":"0","num_feature":"22","num_nodes":"15","size_leaf_vector":"1"}},{"base_weights":[-5.3395443E-3,1.2845345E-1,-1.4184204E-1,6.52419E-1,8.0535196E-2,1.4613436E-1,-2.3798926E-1,2.0840713E-3,3.0517977E-2,-8.752036E-3,5.2927914E-3,-5.1736557E-3,2.326706E-2,1.343853E-2,-8.858479E-3],"categories":[],"categories_nodes":[],"categories_segments":[],"categories_sizes":[],"default_left":[0,0,0,0,0,0,0,0,0,0,0,0,0,0,0],"id":73,"left_children":[1,3,5,7,9,11,13,-1,-1,-1,-1,-1,-1,-1,-1],"loss_changes":[8.863883E1,6.1185146E1,6.664168E1,4.30206E1,8.029467E1,1.2117343E2,7.108946E1,0E0,0E0,0E0,0E0,0E0,0E0,0E0,0E0],"parents":[2147483647,0,0,1,1,2,2,3,3,4,4,5,5,6,6],"right_children":[2,4,6,8,10,12,14,-1,-1,-1,-1,-1,-1,-1,-1],"split_conditions":[1E-2,-9.426415E-1,2.75044E0,-1.181655E-4,-4.2261827E-1,1.96528E0,-2.9025855E-3,2.0840713E-3,3.0517977E-2,-8.752036E-3,5.2927914E-3,-5.1736557E-3,2.326706E-2,1.343853E-2,-8.858479E-3],"split_indices":[15,21,7,3,21,7,3,0,0,0,0,0,0,0,0],"split_type":[0,0,0,0,0,0,0,0,0,0,0,0,0,0,0],"sum_hessian":[4.8492295E3,2.4478694E3,2.4013604E3,2.0246878E2,2.2454006E3,6.00026E2,1.8013344E3,7.917176E1,1.2329701E2,4.5843726E2,1.7869633E3,3.99031E2,2.00995E2,1.3740388E2,1.6639304E3],"tree_param":{"num_deleted":"0","num_feature":"22","num_nodes":"15","size_leaf_vector":"1"}},{"base_weights":[-7.7545544E-4,-4.1184403E-2,4.0565005E-1,-1.9165008E-1,4.9492124E-2,-1.4354229E-2,5.511853E-1,-2.5977984E-2,-2.1703476E-3,3.455326E-3,-1.37070725E-2,-5.595334E-3,2.1668637E-2],"categories":[],"categories_nodes":[],"categories_segments":[],"categories_sizes":[],"default_left":[0,0,0,0,0,0,0,0,0,0,0,0,0],"id":74,"left_children":[1,3,5,7,9,-1,11,-1,-1,-1,-1,-1,-1],"loss_changes":[8.0271126E1,6.080805E1,5.7414345E1,1.3440887E2,9.242243E1,0E0,4.848233E1,0E0,0E0,0E0,0E0,0E0,0E0],"parents":[2147483647,0,0,1,1,2,2,3,3,4,4,6,6],"right_children":[2,4,6,8,10,-1,12,-1,-1,-1,-1,-1,-1],"split_conditions":[5.8921374E-4,-2.5482444E-4,-8.2903755E-1,1.98616E0,2.0939866E-3,-1.4354229E-2,3.1843334E-5,-2.5977984E-2,-2.1703476E-3,3.455326E-3,-1.37070725E-2,-5.595334E-3,2.1668637E-2],"split_indices":[4,2,21,7,3,0,0,0,0,0,0,0,0],"split_type":[0,0,0,0,0,0,0,0,0,0,0,0,0],"sum_hessian":[4.8902817E3,4.4503413E3,4.3994073E2,1.6738652E3,2.7764758E3,6.1244522E1,3.786962E2,2.4938321E2,1.424482E3,2.459577E3,3.1689893E2,7.093439E1,3.077618E2],"tree_param":{"num_deleted":"0","num_feature":"22","num_nodes":"13","size_leaf_vector":"1"}},{"base_weights":[-2.7896615E-3,2.6430387E-2,-5.0975835E-1,2.786821E-2,1.1934268E-2,-0E0,-7.095824E-1,1.9518387E-3,-6.6993735E-3,-2.7425135E-2,-2.272887E-3],"categories":[],"categories_nodes":[],"categories_segments":[],"categories_sizes":[],"default_left":[0,0,0,0,0,0,0,0,0,0,0],"id":75,"left_children":[1,3,5,-1,7,-1,9,-1,-1,-1,-1],"loss_changes":[7.228112E1,5.9926865E1,2.7056099E1,0E0,5.6639797E1,0E0,2.432914E1,0E0,0E0,0E0,0E0],"parents":[2147483647,0,0,1,1,2,2,4,4,6,6],"right_children":[2,4,6,-1,8,-1,10,-1,-1,-1,-1],"split_conditions":[5.497867E-1,-7.281798E-1,-1.4893962E-3,2.786821E-2,6.666667E-1,-0E0,1.3578655E-4,1.9518387E-3,-6.6993735E-3,-2.7425135E-2,-2.272887E-3],"split_indices":[15,15,3,0,16,0,2,0,0,0,0],"split_type":[0,0,0,0,0,0,0,0,0,0,0],"sum_hessian":[4.8657524E3,4.601822E3,2.639303E2,7.042448E1,4.5313975E3,7.49518E1,1.8897849E2,3.6987998E3,8.325976E2,1.4183727E2,4.7141216E1],"tree_param":{"num_deleted":"0","num_feature":"22","num_nodes":"11","size_leaf_vector":"1"}},{"base_weights":[5.816378E-3,7.21323E-2,-2.2417709E-1,1.5043174E-1,-1.4983428E-1,-3.177451E-1,1.8239635E-1,9.541055E-4,1.4464061E-2,-5.6361494E-4,-3.1008389E-2,-7.476695E-4,-1.6383879E-2,2.6862742E-2,-1.38571635E-2],"categories":[],"categories_nodes":[],"categories_segments":[],"categories_sizes":[],"default_left":[0,0,0,0,0,0,0,0,0,0,0,0,0,0,0],"id":76,"left_children":[1,3,5,7,9,11,13,-1,-1,-1,-1,-1,-1,-1,-1],"loss_changes":[7.391881E1,6.547986E1,4.1406887E1,1.09410545E2,1.133521E2,5.883967E1,9.446035E1,0E0,0E0,0E0,0E0,0E0,0E0,0E0,0E0],"parents":[2147483647,0,0,1,1,2,2,3,3,4,4,5,5,6,6],"right_children":[2,4,6,8,10,12,14,-1,-1,-1,-1,-1,-1,-1,-1],"split_conditions":[2.6991415E-1,8.141155E-1,3.9506346E-4,4.2261827E-1,6.666667E-1,-3.09017E-1,2E0,9.541055E-4,1.4464061E-2,-5.6361494E-4,-3.1008389E-2,-7.476695E-4,-1.6383879E-2,2.6862742E-2,-1.38571635E-2],"split_indices":[15,21,2,21,16,20,17,0,0,0,0,0,0,0,0],"split_type":[0,0,0,0,0,0,0,0,0,0,0,0,0,0,0],"sum_hessian":[4.8452974E3,3.762967E3,1.0823303E3,2.7831853E3,9.7978174E2,8.807997E2,2.0153062E2,2.052308E3,7.3087726E2,8.5533435E2,1.2444741E2,3.8749933E2,4.9330032E2,9.551419E1,1.0601643E2],"tree_param":{"num_deleted":"0","num_feature":"22","num_nodes":"15","size_leaf_vector":"1"}},{"base_weights":[8.21282E-3,7.222506E-2,-2.1370962E-1,1.5417004E-1,-1.5902661E-1,-2.7096935E-2,-1.5796208E-1,1.1490274E-3,1.4407911E-2,-1.3753668E-2,3.202453E-3,8.97223E-3,-7.2830413E-3],"categories":[],"categories_nodes":[],"categories_segments":[],"categories_sizes":[],"default_left":[0,0,0,0,0,0,0,0,0,0,0,0,0],"id":77,"left_children":[1,3,5,7,9,-1,11,-1,-1,-1,-1,-1,-1],"loss_changes":[6.883001E1,7.1369316E1,4.107733E1,1.0488299E2,7.857158E1,0E0,3.9122414E1,0E0,0E0,0E0,0E0,0E0,0E0],"parents":[2147483647,0,0,1,1,2,2,3,3,4,4,6,6],"right_children":[2,4,6,8,10,-1,12,-1,-1,-1,-1,-1,-1],"split_conditions":[2.6991415E-1,8.141155E-1,1.14382E0,4.2261827E-1,9.44089E-1,-2.7096935E-2,2.75044E0,1.1490274E-3,1.4407911E-2,-1.3753668E-2,3.202453E-3,8.97223E-3,-7.2830413E-3],"split_indices":[15,21,7,21,21,0,7,0,0,0,0,0,0],"split_type":[0,0,0,0,0,0,0,0,0,0,0,0,0],"sum_hessian":[4.844036E3,3.7616975E3,1.0823387E3,2.7789343E3,9.8276306E2,7.828414E1,1.0040546E3,2.0527104E3,7.262238E2,4.6197214E2,5.207909E2,1.5580414E2,8.482505E2],"tree_param":{"num_deleted":"0","num_feature":"22","num_nodes":"13","size_leaf_vector":"1"}},{"base_weights":[-1.0782576E-2,1.1105399E-1,-1.3805993E-1,5.76752E-1,6.830246E-2,-5.749103E-2,-5.3327817E-1,-1.4672737E-3,3.0001301E-2,-8.781933E-3,4.8307343E-3,-5.374735E-3,1.4463998E-2,-2.2361528E-2,3.5965831E-3],"categories":[],"categories_nodes":[],"categories_segments":[],"categories_sizes":[],"default_left":[0,0,0,0,0,0,0,0,0,0,0,0,0,0,0],"id":78,"left_children":[1,3,5,7,9,11,13,-1,-1,-1,-1,-1,-1,-1,-1],"loss_changes":[7.508518E1,4.8953575E1,7.519589E1,5.521369E1,7.596011E1,1.2946767E2,5.5822617E1,0E0,0E0,0E0,0E0,0E0,0E0,0E0,0E0],"parents":[2147483647,0,0,1,1,2,2,3,3,4,4,5,5,6,6],"right_children":[2,4,6,8,10,12,14,-1,-1,-1,-1,-1,-1,-1,-1],"split_conditions":[1E-2,-9.426415E-1,8.9297897E-1,-1.181655E-4,-4.2261827E-1,6.1909395E-1,9.9200493E-1,-1.4672737E-3,3.0001301E-2,-8.781933E-3,4.8307343E-3,-5.374735E-3,1.4463998E-2,-2.2361528E-2,3.5965831E-3],"split_indices":[15,21,21,3,21,21,21,0,0,0,0,0,0,0,0],"split_type":[0,0,0,0,0,0,0,0,0,0,0,0,0,0,0],"sum_hessian":[4.8375083E3,2.4705068E3,2.3670012E3,2.0503499E2,2.265472E3,1.9687112E3,3.9829E2,8.3167076E1,1.2186791E2,4.613918E2,1.8040801E3,1.6080442E3,3.60667E2,3.007896E2,9.750039E1],"tree_param":{"num_deleted":"0","num_feature":"22","num_nodes":"15","size_leaf_vector":"1"}},{"base_weights":[8.940219E-3,6.917763E-2,-2.4933015E-1,-3.7997145E-2,3.392698E-1,-4.8519415E-1,6.318181E-1,-2.0800908E-3,2.2381661E-2,-2.3172034E-2,1.2507434E-2,3.0345412E-3,-2.4275975E-2,5.042274E-2,1.7351508E-3],"categories":[],"categories_nodes":[],"categories_segments":[],"categories_sizes":[],"default_left":[0,0,0,0,0,0,0,0,0,0,0,0,0,0,0],"id":79,"left_children":[1,3,5,7,9,11,13,-1,-1,-1,-1,-1,-1,-1,-1],"loss_changes":[7.5008385E1,1.13387405E2,1.900203E2,6.876045E1,9.657379E1,1.3725227E2,1.1553308E2,0E0,0E0,0E0,0E0,0E0,0E0,0E0,0E0],"parents":[2147483647,0,0,1,1,2,2,3,3,4,4,5,5,6,6],"right_children":[2,4,6,8,10,12,14,-1,-1,-1,-1,-1,-1,-1,-1],"split_conditions":[6.666667E-1,3.2638464E-4,2E-1,3E0,1.37017E0,4.31802E0,3.2143947E-1,-2.0800908E-3,2.2381661E-2,-2.3172034E-2,1.2507434E-2,3.0345412E-3,-2.4275975E-2,5.042274E-2,1.7351508E-3],"split_indices":[16,2,18,17,7,7,20,0,0,0,0,0,0,0,0],"split_type":[0,0,0,0,0,0,0,0,0,0,0,0,0,0,0],"sum_hessian":[4.82061E3,3.9110466E3,9.095629E2,2.8004236E3,1.110623E3,7.1848065E2,1.9108226E2,2.6949116E3,1.0551203E2,7.108663E1,1.0395365E3,2.5587624E2,4.626044E2,6.603149E1,1.2505077E2],"tree_param":{"num_deleted":"0","num_feature":"22","num_nodes":"15","size_leaf_vector":"1"}},{"base_weights":[5.9060366E-3,-2.9571036E-2,4.546582E-1,3.9299462E-2,-2.4801022E-1,-2.7946094E-1,6.81119E-1,5.0075265E-4,4.5666732E-2,-4.2562876E-3,-2.8582092E-2,1.3224443E-2,-3.0062782E-2,-1.1208586E-3,2.4571946E-2],"categories":[],"categories_nodes":[],"categories_segments":[],"categories_sizes":[],"default_left":[0,0,0,0,0,0,0,0,0,0,0,0,0,0,0],"id":80,"left_children":[1,3,5,7,9,11,13,-1,-1,-1,-1,-1,-1,-1,-1],"loss_changes":[7.696957E1,6.736956E1,5.9393593E1,1.13516E2,7.969129E1,4.509597E1,2.7216537E1,0E0,0E0,0E0,0E0,0E0,0E0,0E0,0E0],"parents":[2147483647,0,0,1,1,2,2,3,3,4,4,